{"config":{"input_dim":54,"hidden_dim":128,"num_layers":1,"dropout":0.0,"state_head_dropout":null,"traj_head_dropout":null,"future_steps":6},"tensors":{"gru.weight_ih_l0":{"shape":[384,54],"data":[[0.0056769344955682755,-0.051390163600444794,0.24566614627838135,0.43940040469169617,-0.7408786416053772,-0.12781105935573578,0.37394261360168457,-0.23391450941562653,-0.04676656797528267,0.029033420607447624,0.011840160936117172,0.19636282324790955,0.25609394907951355,0.2752396762371063,0.1167038232088089,0.45889657735824585,-0.009853733703494072,0.1798989623785019,-0.06702810525894165,-0.19100844860076904,0.15860123932361603,0.24624818563461304,-0.9298155307769775,0.22756080329418182,0.486678808927536,-0.6513062715530396,0.3650810718536377,-0.028777314350008965,0.03786574304103851,-0.19629107415676117,-0.37238913774490356,0.7304316163063049,0.052083589136600494,-0.5288602709770203,0.26724788546562195,0.07933603227138519,0.08829005807638168,-0.08967907726764679,-0.018863799050450325,0.20963582396507263,0.27972620725631714,-0.020356502383947372,-0.08102374523878098,0.33923912048339844,-0.13869346678256989,0.08651090413331985,0.02817164547741413,0.03529686853289604,0.06384455412626266,-0.5026043057441711,0.04753148928284645,-0.11389394104480743,-0.5690385103225708,-0.04259231686592102],[-0.14821259677410126,0.7597914338111877,0.3319109082221985,0.03003852628171444,-1.067159652709961,0.23821713030338287,0.35056787729263306,-1.1402130126953125,0.293134480714798,-0.21513736248016357,-0.07155749946832657,0.12726767361164093,0.7224270701408386,0.3650057017803192,-0.10504990816116333,0.6768931150436401,0.15514874458312988,0.3063448667526245,-0.2663246989250183,-0.13776354491710663,0.031921759247779846,-0.05791996046900749,-0.0590888112783432,-0.055279865860939026,-0.14336435496807098,0.6744229197502136,0.21210628747940063,0.21020901203155518,-0.6650887727737427,-0.24759499728679657,-0.06291220337152481,1.0674992799758911,-0.24001453816890717,-0.33798667788505554,1.0848060846328735,-0.24300236999988556,0.19631914794445038,-0.0700814500451088,-0.0443953275680542,0.35949674248695374,1.5830554962158203,-0.29958322644233704,0.13616201281547546,0.5502931475639343,-0.003243402810767293,-0.1196715459227562,-0.19533921778202057,-0.03626308962702751,0.143464133143425,0.7869529724121094,-0.24443461000919342,0.37012264132499695,0.9640998840332031,0.009872261434793472],[-0.11373009532690048,0.035178251564502716,0.22488707304000854,0.3341084122657776,0.009339883923530579,0.21461525559425354,0.44573140144348145,-0.022751573473215103,0.9225184917449951,-0.19937431812286377,-0.16681912541389465,0.17941972613334656,-0.016909141093492508,0.19053231179714203,0.4275048077106476,-0.31471818685531616,-0.2460266649723053,0.29702049493789673,-0.014838417060673237,-0.03372978791594505,0.1344793289899826,0.44669008255004883,-0.6151338815689087,0.013790396973490715,0.39483949542045593,-0.8285348415374756,-0.08332883566617966,0.11070369184017181,0.06100089102983475,-0.26156848669052124,-0.2811402380466461,-0.1454562097787857,-0.24824047088623047,-0.3825482428073883,-0.048357073217630386,-0.8818439841270447,0.26157650351524353,-0.03494245186448097,-0.1049661785364151,-0.22986209392547607,0.4186103045940399,-0.06704564392566681,-0.7770161628723145,-0.3431645929813385,-0.14293698966503143,0.40989989042282104,0.5491717457771301,-0.07192838937044144,-0.3209359645843506,1.0173324346542358,-0.3435268700122833,-0.6089849472045898,0.45776230096817017,-0.17897756397724152],[0.22565975785255432,-0.3890323042869568,-0.31750214099884033,0.5642464756965637,-0.5677103400230408,-0.33770161867141724,0.24516212940216064,0.27680492401123047,-0.45854756236076355,0.06388350576162338,0.10750827938318253,-0.28991222381591797,-0.14720050990581512,-0.5147207379341125,0.13450832664966583,0.210723415017128,-0.34675514698028564,0.036044005304574966,-0.20611508190631866,-0.05346103012561798,-0.07118398696184158,-0.6036741137504578,-0.33600276708602905,0.383949875831604,0.06094496324658394,-0.5507499575614929,-0.10324221104383469,-0.2200089395046234,0.4188987612724304,0.1790035218000412,-0.6197790503501892,0.5403768420219421,0.43634337186813354,-0.24064268171787262,-0.17394672334194183,0.38026055693626404,-0.1604914367198944,0.08948095142841339,-0.20522084832191467,-0.32965683937072754,-0.4393543303012848,0.5002034902572632,0.2016017585992813,-0.4911302924156189,0.19170726835727692,-0.14136770367622375,0.07575149089097977,-0.21598748862743378,-0.3610406219959259,0.9441385865211487,0.31484636664390564,-0.2595255672931671,0.11025280505418777,0.004015921149402857],[0.04297667741775513,0.5673645734786987,-0.38834720849990845,0.3849357068538666,-0.12518703937530518,-1.037043571472168,0.20815306901931763,-0.7253206372261047,-0.33323726058006287,0.10703451186418533,-0.01871960237622261,-0.1551884412765503,-0.3242994546890259,-0.09030718356370926,-0.5120274424552917,0.7998388409614563,-0.355462908744812,-0.4162067472934723,-0.17983220517635345,-0.09079856425523758,-0.11861836910247803,-0.6033695340156555,-0.5421610474586487,-0.01952465809881687,0.5675989389419556,-0.4277184307575226,-0.43671971559524536,-0.09058118611574173,-0.46069860458374023,0.44069650769233704,-0.3741622865200043,0.030065448954701424,1.0200674533843994,-0.28803426027297974,0.8389204144477844,0.16803158819675446,-0.2986821234226227,-0.22226481139659882,0.0038600657135248184,0.15940989553928375,-0.2321900725364685,0.11398777365684509,0.04117107391357422,0.20986570417881012,-0.3543546497821808,-0.23155534267425537,-0.24653279781341553,-0.15375006198883057,0.6975023746490479,-0.061640430241823196,-0.12146816402673721,-0.12389714270830154,0.422903835773468,-0.5657126903533936],[-0.029588038101792336,0.621212899684906,-0.13354411721229553,0.22891627252101898,0.41055572032928467,-0.15862677991390228,-0.20317982137203217,0.8504390120506287,-0.01073736883699894,-0.14441214501857758,-0.15238328278064728,0.018330944702029228,0.6279245018959045,0.456516832113266,-0.4277803897857666,-0.049154333770275116,0.16692869365215302,0.2561397850513458,0.12220398336648941,-0.11617694795131683,0.16132578253746033,-0.0100927222520113,-0.06750725209712982,-0.3780452013015747,0.05529295280575752,-0.592465341091156,0.07374025136232376,0.05496739596128464,-0.7545106410980225,-0.008087518624961376,-0.29300734400749207,-0.3612244427204132,0.12683691084384918,0.17160511016845703,-0.7975581288337708,0.08669008314609528,-0.029672745615243912,-0.24655334651470184,0.16546764969825745,-0.2693328559398651,-0.27336278557777405,-0.32518646121025085,0.09270722419023514,-0.16457512974739075,-0.23697137832641602,-0.1404438614845276,-0.14172394573688507,0.18770696222782135,-0.19088870286941528,-0.6989635229110718,-0.2814445197582245,0.6502343416213989,-1.080125093460083,-0.08762573450803757],[-0.244761660695076,0.3662067949771881,0.17829525470733643,-0.14578475058078766,0.18016846477985382,0.23425015807151794,-0.5785761475563049,-0.05556203052401543,0.3050234019756317,-0.3683803975582123,-0.05490373447537422,-0.049682967364788055,-0.5138016939163208,0.6090617775917053,-0.1257525235414505,-0.08022129535675049,0.5365212559700012,0.2354859560728073,-0.46388277411460876,-0.11065546423196793,-0.0001602236443432048,-0.5199793577194214,0.07442803680896759,-0.1974623203277588,-0.05603112652897835,-0.0835755318403244,0.23059189319610596,0.28778183460235596,-0.480024129152298,-0.09040544927120209,0.2567170262336731,-0.06784799695014954,-0.31853193044662476,0.5207229852676392,0.04817744717001915,-0.3050650954246521,-0.11992556601762772,0.024132495746016502,-0.020504236221313477,-0.31792017817497253,0.2009950578212738,-0.49404922127723694,0.1695081740617752,0.004495356231927872,-0.21786418557167053,0.23013128340244293,-0.5993480682373047,0.13881608843803406,0.011630037799477577,-0.28096336126327515,-0.08938566595315933,-0.18497198820114136,-0.8055318593978882,0.1750904619693756],[0.04837685450911522,-0.5615065097808838,-0.4084683060646057,-0.11248286068439484,-0.38712674379348755,-0.09800462424755096,-0.08236654102802277,0.12385707348585129,-0.26459792256355286,-0.08142940700054169,0.01356613077223301,-0.10569064319133759,0.3777340352535248,0.18824392557144165,-0.10223032534122467,0.12872785329818726,-0.3018970191478729,-0.3655104637145996,-0.04482560604810715,-0.2801811099052429,-0.19107672572135925,-0.2879588305950165,0.16783000528812408,0.1422358900308609,-0.43399807810783386,0.02003355696797371,-0.09847459942102432,0.0336931087076664,0.6022335886955261,0.3621273934841156,0.13722184300422668,0.47795650362968445,0.08671307563781738,0.08739390969276428,-0.17424562573432922,0.24657422304153442,0.10332441329956055,-0.02491338923573494,0.14340029656887054,0.4435926079750061,-0.17592862248420715,0.0792970359325409,-0.14935916662216187,-0.38168931007385254,-0.09094371646642685,-0.16771815717220306,0.023848436772823334,0.01071166805922985,0.33909279108047485,-0.4440214931964874,0.26081281900405884,-0.0841866284608841,-0.041499219834804535,0.15500999987125397],[-0.25804653763771057,0.8172127604484558,0.3302796185016632,-0.04246671125292778,0.46242251992225647,0.6686488389968872,-0.19270722568035126,0.6206715106964111,0.6324974894523621,-0.12704963982105255,-0.021527109667658806,0.5567488670349121,-0.23045900464057922,0.4438425600528717,-0.11066689342260361,-0.6351873874664307,0.052467651665210724,0.027504708617925644,0.04753226041793823,0.05339272692799568,0.2714810073375702,-0.5079749822616577,-0.4822222590446472,-0.22357003390789032,-0.7156738042831421,-0.36013758182525635,0.0593922920525074,0.25285249948501587,-0.814271092414856,-0.289674311876297,0.11674918979406357,-0.6144920587539673,-0.6578797698020935,0.12050899863243103,-0.619921863079071,-0.6429983377456665,0.1718454509973526,-0.14850573241710663,0.28797832131385803,-0.020116502419114113,-0.10219720005989075,-0.06294842064380646,-0.11537390202283859,-0.34539443254470825,0.05960462614893913,-0.06741777062416077,0.09901350736618042,0.21695661544799805,0.20024773478507996,0.19139674305915833,0.26602688431739807,-0.17812283337116241,-0.059026557952165604,0.22615963220596313],[-0.1653890758752823,0.07600133866071701,-0.08101323246955872,-0.5377992987632751,-0.07984737306833267,-0.671607494354248,0.015297327190637589,0.8666731119155884,0.05064627155661583,-0.22086693346500397,-0.40794098377227783,-0.1639973372220993,-0.9838401079177856,0.09681125730276108,-0.4112766981124878,-0.32820841670036316,1.7919301986694336,-0.1553046703338623,-0.35862356424331665,-0.6118041276931763,0.015742775052785873,-1.6812288761138916,-0.5326818823814392,0.4206821620464325,-0.5166541337966919,0.35660409927368164,-0.3123079240322113,0.08211638778448105,-0.002189484890550375,0.14549289643764496,0.5758004784584045,0.07002207636833191,0.8357192873954773,-0.021060997620224953,-0.861199676990509,-0.14637887477874756,0.03925099968910217,-0.17232181131839752,0.004332887940108776,0.12969252467155457,-0.00479213846847415,0.08526109904050827,0.10606780648231506,0.3236600160598755,0.16250042617321014,0.03253386169672012,-0.22319330275058746,0.009320713579654694,0.677002489566803,-0.5249215364456177,0.26663723587989807,0.5436404347419739,-0.08945360034704208,0.10345707833766937],[0.0395168736577034,-0.30135679244995117,-0.19077612459659576,-0.32683005928993225,0.08528122305870056,-0.12275229394435883,0.11835796386003494,0.4514557421207428,0.43061700463294983,0.08919565379619598,-0.0763784795999527,-0.24917840957641602,-0.6682936549186707,-0.6395609974861145,0.14234653115272522,-0.4557405710220337,-0.6228107213973999,-0.0984458401799202,-0.07998048514127731,-0.014227021485567093,-0.3196476995944977,-0.35100841522216797,-0.16984553635120392,-0.013108725659549236,-0.13645724952220917,-0.1508508175611496,-0.09495306760072708,-0.028912542387843132,0.18372373282909393,0.2015363872051239,0.39446964859962463,-0.12297419458627701,0.10098844021558762,-0.06006798893213272,-0.3352460265159607,-0.5100842714309692,0.0028480361215770245,0.021299058571457863,0.15979954600334167,-0.14336943626403809,-0.4483174681663513,0.06761569529771805,-0.31589001417160034,-0.4117944538593292,-0.03518015518784523,-0.16910560429096222,0.2127121239900589,-0.06545379757881165,-0.23980720341205597,0.2111416608095169,-0.15618538856506348,0.1421378254890442,-0.12372201681137085,0.14112411439418793],[-0.03550582006573677,0.2465842217206955,0.2939625680446625,-0.028125284239649773,0.3327779471874237,0.09260310232639313,-0.05623072758316994,-0.044803962111473083,-0.889880895614624,0.046204205602407455,-0.24862024188041687,0.08491647243499756,-1.5509496927261353,-0.606782078742981,0.5116665959358215,-0.48691612482070923,-0.18266355991363525,-0.1291763335466385,0.30408456921577454,0.05965156480669975,-0.14163753390312195,-1.0639045238494873,0.05661116912961006,0.34009814262390137,-0.3100862205028534,0.1421768218278885,-0.2017395794391632,0.05161284655332565,-0.199166402220726,-0.20169489085674286,0.12091703712940216,-0.31687960028648376,-0.16001597046852112,0.049571678042411804,0.18482531607151031,0.9101251363754272,0.0237995944917202,-0.050684910267591476,-0.013065462000668049,0.29382386803627014,-0.6405063271522522,-0.27685174345970154,0.12822984158992767,0.023317009210586548,0.05613541603088379,-0.10959932208061218,0.03444777801632881,-0.04776804521679878,0.2878665626049042,-0.09719627350568771,-0.18705298006534576,0.34600213170051575,-0.8047966957092285,-0.1357685923576355],[-0.18904554843902588,-0.20048050582408905,0.6201915144920349,-0.0897107869386673,-0.20823614299297333,0.3585803508758545,0.6251223087310791,-0.004578172229230404,0.1492212414741516,-0.15393193066120148,0.030818060040473938,0.15107472240924835,0.2832568883895874,-0.08749254792928696,-0.41868501901626587,0.5942270159721375,-0.05971534922719002,0.01621185801923275,0.01863853819668293,0.029347244650125504,0.2422979772090912,0.37306612730026245,-0.8694555163383484,-0.6335508227348328,0.724609375,-0.7901008725166321,-0.1594967246055603,0.16809962689876556,0.05898727476596832,-0.5936254858970642,-0.0317101776599884,0.36186712980270386,-0.30403631925582886,-0.5259624123573303,0.07999137043952942,-0.18040978908538818,0.1935214400291443,0.06611485779285431,-0.06934797018766403,0.30743274092674255,-0.2633458375930786,-0.1784040480852127,-0.6030952334403992,-0.44767704606056213,0.15851175785064697,0.21327567100524902,0.2812427878379822,-0.012379514053463936,-0.18015295267105103,-0.3679196238517761,0.25754907727241516,-0.27633216977119446,-0.5887596607208252,0.3021382987499237],[-0.15965281426906586,0.8022348284721375,-0.018397638574242592,-0.38488757610321045,0.47766223549842834,0.054283399134874344,-0.06282505393028259,0.24266062676906586,-0.5820418000221252,-0.4149891138076782,0.12438391894102097,0.1332806944847107,-0.887287974357605,-0.26136815547943115,0.296372652053833,0.07941894233226776,0.3533375859260559,-0.07125584781169891,-0.41341474652290344,0.05773541331291199,0.0503593385219574,-0.6961162686347961,0.3059677481651306,0.3296428322792053,-0.4047718644142151,-0.13521358370780945,0.3308926224708557,0.046863652765750885,-0.8251439929008484,0.04033971577882767,0.35708916187286377,-0.571086049079895,0.025001592934131622,0.07620611041784286,-0.2364281862974167,0.524185836315155,0.09232906252145767,-0.10884221643209457,0.21534453332424164,0.4360644817352295,-0.1787353903055191,0.8901063203811646,0.15007087588310242,0.301880806684494,0.6745747923851013,0.5456030368804932,-0.26142042875289917,0.22125861048698425,1.4235751628875732,0.757036030292511,1.3800058364868164,0.5622208118438721,0.07567300647497177,0.8522550463676453],[-0.05123060196638107,-0.4511617422103882,-0.008410226553678513,-0.06826312839984894,0.24172331392765045,-0.29758548736572266,-0.05840965732932091,-0.2876156270503998,-0.7625060677528381,-0.10870305448770523,-0.08390942960977554,0.03223410248756409,-0.3308010399341583,0.2463109940290451,-0.3208787441253662,-0.3260406255722046,-0.13278168439865112,-0.10109522193670273,0.1530899703502655,0.034940410405397415,0.15319566428661346,0.35864022374153137,0.6892927885055542,-0.10806630551815033,0.09644941985607147,0.2821022868156433,0.013085599057376385,0.010292820632457733,0.3500049412250519,0.09146909415721893,0.10471217334270477,-0.2481207251548767,0.2691217064857483,-0.08558116108179092,0.19294443726539612,0.695692777633667,-0.00822445284575224,0.052618395537137985,0.30763939023017883,-0.47929373383522034,-0.11433058977127075,0.4618944823741913,-0.559942364692688,0.14613285660743713,0.6099218130111694,-0.11834985017776489,0.02205285243690014,0.18109381198883057,-0.5447672605514526,-0.15553471446037292,0.4807378053665161,-0.45794087648391724,0.42558911442756653,0.2049945592880249],[-0.2654578387737274,-0.45228469371795654,-0.120449960231781,0.03615213558077812,-0.5038086175918579,0.1867017298936844,0.4223574995994568,-0.542955219745636,0.7557756304740906,-0.33596307039260864,-0.29006657004356384,0.06932254880666733,-0.04933266341686249,0.13992838561534882,0.19598130881786346,0.30598071217536926,0.7027206420898438,-0.14944761991500854,-0.21660228073596954,-0.25416767597198486,0.32291197776794434,-0.009318356402218342,-0.45201605558395386,0.4984249472618103,-0.0008962208521552384,-0.32189878821372986,0.013051863759756088,0.30455660820007324,0.37952718138694763,0.291016548871994,-0.044669851660728455,0.5260641574859619,-0.1042112186551094,-0.4718250632286072,0.43760040402412415,-0.8091492652893066,0.13843005895614624,-0.24460476636886597,0.40013429522514343,-0.12684929370880127,-0.1370057314634323,0.2914872169494629,-0.12193282693624496,0.24626457691192627,-0.4267512261867523,0.033702246844768524,-0.10153517127037048,0.271633118391037,0.054399266839027405,-0.08049613982439041,0.3892635703086853,0.047365669161081314,-0.13582651317119598,-0.13722334802150726],[-0.24567566812038422,-0.03654790297150612,0.09101230651140213,0.382418692111969,-0.06320617347955704,-0.7398148775100708,0.6630352139472961,-0.09234123677015305,-0.5716238617897034,-0.3004457950592041,-0.1520233005285263,-0.07308230549097061,-0.1573285311460495,0.06272709369659424,-0.08317971229553223,-0.1343027800321579,0.26438960433006287,0.20649532973766327,-0.07733358442783356,-0.36847755312919617,-0.09516759216785431,0.0662972703576088,-0.18959574401378632,0.06660888344049454,-0.11663734167814255,0.003068982856348157,0.28341272473335266,0.21700447797775269,0.01580701768398285,-0.03894227743148804,-0.4602327048778534,0.19702956080436707,0.6958253383636475,-0.7597757577896118,0.0038997174706310034,0.6131102442741394,0.1663110852241516,0.14572912454605103,-0.17417331039905548,-0.41046014428138733,0.1637292355298996,0.4984743297100067,-0.8752114772796631,0.03980633616447449,0.23062774538993835,0.06582970172166824,-0.1487971991300583,0.048679668456315994,-0.09897157549858093,-0.40222564339637756,0.20790430903434753,-0.28158774971961975,-0.6694157123565674,0.09084698557853699],[-0.002763207769021392,-0.2539999485015869,-0.2981799244880676,-0.6857510805130005,0.13053615391254425,-0.9477010369300842,-0.38256126642227173,0.16459530591964722,-0.14528661966323853,0.10843634605407715,0.032751064747571945,-0.28028231859207153,-0.3169553875923157,-0.781474769115448,-0.08523498475551605,-0.49983829259872437,-0.3872891962528229,0.2997215986251831,-0.22545568645000458,-0.033353667706251144,-0.08147535473108292,-0.6598302125930786,0.05980455130338669,0.6039619445800781,-0.29099777340888977,0.02005987986922264,0.47259896993637085,-0.031015023589134216,0.32135093212127686,0.4119563400745392,0.7165186405181885,-0.10073354840278625,0.951991081237793,0.29790133237838745,-0.2117450088262558,0.2032211869955063,0.11658430844545364,-0.04346625506877899,0.04032234847545624,0.197150319814682,-0.1601603925228119,0.48729726672172546,0.05731668695807457,-0.32050150632858276,0.32842570543289185,0.2086467295885086,-0.25533291697502136,0.025058144703507423,-0.042491838335990906,-0.18053896725177765,0.27960890531539917,-0.12083148956298828,-0.1574268937110901,0.025577295571565628],[-0.15133912861347198,0.48873645067214966,0.264792799949646,-0.33702003955841064,-0.34165576100349426,-0.23726963996887207,-0.21887412667274475,0.10930055379867554,0.1328464299440384,-0.2401881068944931,-0.1118602380156517,0.18604880571365356,-0.4645635485649109,-0.22051072120666504,-0.3527482748031616,-0.0012279448565095663,-0.5298086404800415,-0.09994909912347794,-0.05412018671631813,-0.11362055689096451,-0.03467828780412674,0.2631295621395111,-0.22589626908302307,0.05549455061554909,0.41073980927467346,-0.5696517825126648,-0.01610342599451542,0.04333800822496414,-0.567355215549469,-0.22466535866260529,0.28284627199172974,0.30741751194000244,0.1122688353061676,0.19826067984104156,-0.04475655034184456,-0.1920425295829773,0.17652389407157898,-0.2750072479248047,-0.09935932606458664,0.5420759320259094,0.30467474460601807,0.4975910484790802,0.2655959129333496,0.33064165711402893,0.4035972058773041,0.06253296136856079,-0.17520011961460114,0.026589445769786835,0.4343535304069519,0.2330898940563202,0.34666743874549866,0.049684345722198486,0.170318141579628,0.334258496761322],[-0.03805341199040413,-0.2535172700881958,-0.16111813485622406,-0.17692406475543976,0.6284680962562561,-0.43053001165390015,-0.3197982907295227,-0.03921782225370407,-0.38305407762527466,0.07493378967046738,-0.08765235543251038,-0.03278137370944023,0.33543309569358826,0.01258336752653122,0.22658683359622955,0.5187011957168579,0.10733125358819962,-0.17375649511814117,-0.009065672755241394,0.1615908443927765,-0.06520557403564453,-0.15407632291316986,1.1537470817565918,0.2954924404621124,-0.041071489453315735,-0.06188352406024933,0.1244499459862709,0.045839328318834305,0.1843501478433609,0.1517031341791153,0.1479727029800415,-0.6619402170181274,0.39712879061698914,0.25511667132377625,0.019093696027994156,0.2785259485244751,0.1630334109067917,-0.11641906201839447,-0.07585132122039795,1.043298602104187,-0.9560160040855408,0.3919913172721863,0.8004558682441711,-0.22370007634162903,0.45335111021995544,-0.22030112147331238,0.17094746232032776,-0.05441858619451523,0.06994692981243134,0.2908738851547241,0.06762482225894928,0.45358380675315857,-0.25445204973220825,0.3546358346939087],[-0.0303695909678936,-0.36650171875953674,0.41987934708595276,-0.16668808460235596,-0.3592703938484192,-0.1837977021932602,0.38924166560173035,-0.2948216199874878,-0.17063574492931366,0.04197714477777481,0.005017473828047514,0.1385006159543991,0.1467403769493103,-0.32313862442970276,-0.24328455328941345,0.6938202381134033,-0.37052714824676514,-0.03755047917366028,0.10761547088623047,0.19146999716758728,0.08914836496114731,0.14548158645629883,-0.6555982232093811,0.2929348051548004,0.3177659511566162,-0.492449015378952,-0.19526156783103943,0.052911628037691116,0.24080854654312134,-0.4664556086063385,0.2683836817741394,0.38512009382247925,0.06852971762418747,-0.47630682587623596,0.2987910509109497,0.245308980345726,0.07579916715621948,-0.10057590901851654,-0.35100606083869934,1.1490859985351562,-0.12857158482074738,-0.1537785679101944,0.06717587262392044,0.45622435212135315,-0.06449374556541443,0.22545945644378662,-0.22978723049163818,-0.12174449115991592,0.8266692757606506,-0.5760170221328735,0.006005892064422369,0.8322826623916626,-0.5948543548583984,-0.3461662530899048],[-0.041133489459753036,-0.30895620584487915,-0.10406117886304855,0.06939054280519485,0.020090164616703987,0.2502819895744324,-0.21608860790729523,-0.24203428626060486,0.08800048381090164,0.07626605778932571,-0.14133715629577637,-0.20964810252189636,-0.29652073979377747,-0.2130231410264969,0.03767203539609909,-0.4221462607383728,-0.30396291613578796,-0.03165449574589729,-0.07895136624574661,-0.2739526033401489,-0.06157171353697777,0.14879190921783447,0.20331008732318878,0.07066139578819275,0.24775579571723938,0.018279213458299637,-0.21261128783226013,-0.007383981719613075,0.3201965391635895,0.12853440642356873,-0.03017306514084339,0.05440464988350868,-0.214506134390831,0.17873214185237885,0.22880375385284424,-0.14989125728607178,0.11862429976463318,0.07485353201627731,0.1183909922838211,0.0969790443778038,0.2577361762523651,-0.3281843066215515,0.36924755573272705,0.1726676970720291,-0.3079091012477875,0.17783114314079285,0.12259066104888916,0.12235479056835175,-0.362155556678772,-0.02455706149339676,-0.30426615476608276,-0.2959761917591095,0.05836965888738632,-0.28303098678588867],[-0.189766988158226,-0.22234943509101868,0.11093046516180038,0.5031189322471619,0.6954267621040344,-0.2152816504240036,-0.3168136179447174,0.3697354793548584,-0.3900560140609741,-0.07887429744005203,-0.03923777863383293,0.05403009057044983,-1.1248717308044434,0.7513301968574524,-0.03860344737768173,-0.6022092700004578,0.31485214829444885,-0.08394411206245422,-0.0832941010594368,-0.18623685836791992,-0.16168665885925293,-0.4787423014640808,1.0358551740646362,-0.34120991826057434,0.14893276989459991,0.5170146226882935,-0.07046099752187729,0.11719140410423279,0.2424176186323166,-0.05879468470811844,-0.6174907088279724,-0.6806691288948059,0.246026411652565,0.4347090423107147,-0.4494718611240387,0.5537353754043579,0.00569447735324502,0.24675197899341583,0.27138805389404297,-0.6812438368797302,0.00342755438759923,0.14962725341320038,0.5500243902206421,0.2657933831214905,0.28960084915161133,-0.11336808651685715,-0.048426322638988495,0.13534554839134216,-0.7316842675209045,0.10964734107255936,-0.02499416097998619,-0.10198216140270233,-0.09030553698539734,0.23564064502716064],[-0.3352664113044739,-0.08104553818702698,-0.228203684091568,0.40510421991348267,1.4139610528945923,0.6993027925491333,0.14423124492168427,0.31583529710769653,-0.3696778416633606,-0.37816303968429565,0.04277181252837181,-0.0811988115310669,-1.2628580331802368,0.020245948806405067,-0.09785369783639908,-0.49944475293159485,0.6824581623077393,-0.5693209767341614,-0.3430512547492981,-0.20396646857261658,-0.03742792457342148,-0.704780638217926,0.15151634812355042,-0.509043276309967,-0.5388868451118469,0.16784459352493286,-0.44208428263664246,0.20144948363304138,0.02404424548149109,0.21031969785690308,-0.45293158292770386,-1.308439016342163,-0.7192163467407227,-0.1651996374130249,-0.36078134179115295,0.3552565276622772,0.20146003365516663,0.13067957758903503,0.1326584368944168,-0.7900330424308777,-0.30305811762809753,-0.31953129172325134,-0.05850476771593094,0.5230437517166138,0.030406851321458817,0.22625789046287537,0.0009482548339292407,0.045356541872024536,-0.22485701739788055,-0.03134000301361084,-0.13812220096588135,0.07263290137052536,0.49272218346595764,-0.13827836513519287],[-0.26187440752983093,0.37776678800582886,0.1967405527830124,-0.21239221096038818,0.18640227615833282,-0.31391310691833496,-0.21349307894706726,0.09176377207040787,-0.5991878509521484,-0.21808119118213654,-0.1708250790834427,0.12430240958929062,-0.05301425978541374,0.0540798082947731,-0.48847222328186035,-0.459634006023407,-0.1388000100851059,-0.6796859502792358,0.16524310410022736,-0.05002577230334282,0.07391223311424255,-0.10300263017416,-0.9342564940452576,-0.011588800698518753,-0.37918058037757874,-1.1171820163726807,-0.3706790804862976,0.2385805994272232,-0.3995474576950073,-0.10835539549589157,0.25250741839408875,-0.05735213682055473,0.2899104058742523,0.3005691468715668,-0.008849629200994968,0.5759171843528748,-0.0590144544839859,-0.21947546303272247,0.14061303436756134,-0.4886496067047119,-0.007162656635046005,-0.3652607798576355,-0.549440324306488,0.15117135643959045,-0.37291038036346436,0.03090011700987816,0.1088683158159256,0.29260674118995667,0.2916625738143921,0.007626648526638746,-0.2274528592824936,0.0713200494647026,0.07347215712070465,-0.3755127489566803],[-0.02686161734163761,-0.07231143116950989,-0.17935916781425476,-0.31006449460983276,-0.7583511471748352,0.3587782680988312,-0.028867892920970917,0.3094642162322998,0.42711031436920166,0.16523510217666626,0.18560367822647095,-0.2066129893064499,-0.4443399906158447,-0.30979692935943604,0.2638109624385834,-0.004074710421264172,0.46597740054130554,0.34371060132980347,-0.005149432923644781,0.03938167914748192,-0.24512463808059692,-0.29269078373908997,0.5374608039855957,0.19163107872009277,-0.08516696095466614,0.8757898807525635,0.1868586540222168,-0.060475099831819534,-0.036132119596004486,0.16747058928012848,0.18302278220653534,0.7313917875289917,-0.3807746171951294,-0.1135924682021141,-0.44374793767929077,-0.4897538125514984,-0.08970224857330322,0.10949147492647171,-0.007471570745110512,0.13381418585777283,-0.24641354382038116,-0.15608374774456024,-0.271078884601593,0.3988153338432312,-0.45312148332595825,-0.39831775426864624,0.09985422343015671,-0.0922507643699646,-0.29509302973747253,0.12050888687372208,-0.08731567859649658,-0.12911665439605713,-0.09769289940595627,-0.43960803747177124],[-0.05728420242667198,-1.1032273769378662,0.3468252122402191,-0.12351839989423752,-0.6076322197914124,0.40484756231307983,0.025871019810438156,0.49127084016799927,0.15253323316574097,-0.10485965758562088,-0.11670536547899246,0.11593550443649292,-0.5791122317314148,-0.006063499022275209,0.18436148762702942,0.05793612822890282,-0.11174304783344269,-0.2810367941856384,-0.2513848543167114,-0.11082462966442108,0.20763073861598969,-0.7513083815574646,0.04850010573863983,0.12366229295730591,0.29054513573646545,-0.12402085959911346,-0.4632423520088196,0.18945558369159698,1.1139949560165405,-0.3276265263557434,0.10479973256587982,0.5900128483772278,-0.43667739629745483,-0.10553311556577682,-0.5167604684829712,-0.2119554728269577,-0.10550488531589508,-0.012990610674023628,0.049398258328437805,0.6240490078926086,-0.23438917100429535,-0.10814420878887177,0.1288859099149704,-0.29495924711227417,-0.26768019795417786,0.3271932303905487,0.289613276720047,0.10052784532308578,0.11001117527484894,0.003603550372645259,0.10402446240186691,-0.47995030879974365,-0.2581745684146881,-0.07631417363882065],[0.13853883743286133,-1.217797040939331,-0.3072453737258911,0.8965945839881897,-0.13875256478786469,0.04315199330449104,-0.34904003143310547,-0.23614954948425293,0.452271968126297,0.1563601791858673,-0.17165116965770721,-0.10980922728776932,0.6209738254547119,0.3138762414455414,0.2830201983451843,0.3043121099472046,0.3452102839946747,-0.22520068287849426,0.1333545744419098,-0.3120368421077728,-0.06146897375583649,1.5102654695510864,0.8701328039169312,-0.22728562355041504,0.8791286945343018,0.24083445966243744,-0.27766939997673035,-0.03779911994934082,1.1620053052902222,0.23105773329734802,-0.8367646336555481,0.12899282574653625,0.046690184623003006,0.3583201766014099,0.1278730183839798,-0.4743519425392151,0.20088456571102142,0.025677422061562538,0.34957319498062134,0.14722022414207458,0.9330793023109436,0.547933042049408,0.7377951741218567,0.641495943069458,-0.37078753113746643,0.1404634714126587,-0.05321434512734413,0.23501421511173248,-0.5932307839393616,0.9606992602348328,0.062409691512584686,0.20137612521648407,0.16138967871665955,-0.19272126257419586],[-0.2115107774734497,0.8211938142776489,-0.16587784886360168,0.19532433152198792,0.03703039139509201,0.036626797169446945,0.5792712569236755,0.06045396253466606,-0.12159429490566254,-0.11225303262472153,0.11057815700769424,0.12053654342889786,-0.07595212757587433,-0.5215513110160828,-0.060650113970041275,0.06316021829843521,-0.4003313183784485,-0.12509121000766754,0.20377306640148163,0.573721170425415,0.22699390351772308,-0.12383123487234116,0.13064473867416382,0.15438398718833923,-0.24975380301475525,-0.417529821395874,0.051001910120248795,0.15590974688529968,-0.9334244132041931,0.2118198126554489,-0.12157022953033447,0.10348324477672577,-0.05804062634706497,-0.5762397646903992,-0.10588148981332779,0.08603714406490326,0.019100746139883995,-0.06715904921293259,0.02862905152142048,-0.4633439779281616,-0.1063932329416275,-0.3931867182254791,-0.33685868978500366,-0.40866658091545105,-0.22196802496910095,-0.0585140734910965,-0.01831570267677307,-0.0696779116988182,-0.0028593509923666716,-0.2048490196466446,-0.374498575925827,-0.19400174915790558,-0.3120765686035156,-0.14006632566452026],[-0.210786834359169,0.2054075002670288,0.21461288630962372,-0.08323249220848083,-0.5053339600563049,-0.33954569697380066,0.15718457102775574,-1.2178311347961426,-0.43152645230293274,0.0861031636595726,-0.005575341172516346,0.044760189950466156,0.24874064326286316,0.06697600334882736,-0.23710890114307404,0.005592102650552988,-0.7601330280303955,-0.07898228615522385,0.027035115286707878,-0.21132996678352356,-0.07145114243030548,-0.15193599462509155,-0.2985624670982361,-0.44584140181541443,-0.4303855895996094,-0.41249901056289673,-0.05376717820763588,0.1116199865937233,-0.20237527787685394,-0.19617870450019836,0.046818945556879044,0.5690701603889465,0.19269974529743195,-0.06434458494186401,1.2439353466033936,0.410127192735672,0.21789786219596863,-0.020652709528803825,0.12847831845283508,0.49683859944343567,0.3976570963859558,0.35560256242752075,-0.2005486637353897,-0.05264074355363846,0.22815704345703125,0.2873389422893524,-0.11530508100986481,0.2720150649547577,0.035056937485933304,-0.05171942710876465,0.18610209226608276,-0.2985905110836029,-0.3429642915725708,-0.045130256563425064],[-0.009674740955233574,0.3195362687110901,0.6212880611419678,0.5671800374984741,0.329905241727829,-0.23365162312984467,0.7334879040718079,-0.47223421931266785,-0.2897730767726898,0.013475073501467705,0.12077280133962631,0.1333502233028412,0.20287196338176727,0.12698347866535187,0.2520553469657898,0.2322210967540741,-0.11818375438451767,-0.03215516731142998,-0.1372535526752472,-0.36414510011672974,0.12916335463523865,0.2353184074163437,-0.6233534216880798,0.17831669747829437,0.4476252794265747,-0.47186174988746643,0.011702124029397964,-0.07493168860673904,-0.25556349754333496,-0.5095221400260925,-0.6063046455383301,-0.35344186425209045,0.16922876238822937,-0.7426633834838867,0.32050514221191406,0.36855822801589966,0.1174616888165474,0.06219904124736786,-0.24669739603996277,-0.6854901313781738,0.2486172616481781,0.40352025628089905,-0.739917516708374,0.1030958965420723,0.14114047586917877,0.04600321501493454,-0.19140279293060303,0.12227625399827957,-0.5986152291297913,-0.7638052105903625,0.3187349736690521,-0.3963107466697693,-0.1687542051076889,0.030712760984897614],[-0.1647840440273285,0.24166308343410492,0.41355782747268677,0.33770328760147095,0.03804725781083107,0.08496060967445374,0.2628398835659027,-0.2192334681749344,-0.33449530601501465,0.03365316987037659,-0.10758833587169647,0.022686006501317024,-0.4605681002140045,-0.21373885869979858,0.19869765639305115,0.00448647141456604,-0.04646895080804825,-0.011666539125144482,-0.1821562945842743,-0.2751445770263672,-0.022801222279667854,-0.2850117087364197,-0.8149431943893433,0.15706178545951843,0.20515146851539612,-0.011690672487020493,0.1781470626592636,0.06998979300260544,-0.2536271810531616,-0.42055004835128784,-0.3754027485847473,0.010933749377727509,-0.20311413705348969,-0.19821812212467194,0.20734354853630066,0.35727691650390625,-0.22639580070972443,-0.17263342440128326,-0.1353411078453064,-0.4289625883102417,-0.3219454288482666,-0.22479601204395294,-0.551787793636322,0.6776705980300903,-0.08855702728033066,-0.06497222930192947,-0.22451983392238617,0.15913866460323334,-0.18652410805225372,-0.600339949131012,-0.185268834233284,-0.286776602268219,0.10251114517450333,-0.31933537125587463],[0.14791497588157654,-0.5289183259010315,-0.14520983397960663,0.3302064836025238,-0.046202752739191055,-0.2598199248313904,0.2500189244747162,0.5004159212112427,-0.0843803808093071,0.04194290563464165,-0.10112127661705017,0.1372600495815277,0.05061694234609604,0.32898417115211487,0.04079560935497284,0.217518150806427,0.13892832398414612,0.07012594491243362,0.04092567786574364,0.03341038152575493,0.24565371870994568,0.33249256014823914,0.4786331057548523,0.018938308581709862,0.5623506307601929,0.6329424977302551,-0.0806419849395752,-0.002442148281261325,0.5272720456123352,0.10567554831504822,-0.3258955776691437,-0.01665121503174305,0.24068357050418854,-0.2515866756439209,-0.4634898602962494,0.14112171530723572,-0.02655991166830063,0.04707127436995506,-0.10884302109479904,-0.10562211275100708,-0.08571816980838776,-0.19630864262580872,-0.11544694006443024,-0.22429843246936798,0.17081908881664276,-0.15985925495624542,0.09276866167783737,-0.07067080587148666,0.1379338800907135,-0.03603838384151459,-0.24123388528823853,-0.12993977963924408,0.7273604869842529,0.10251245647668839],[-0.21316015720367432,-0.08875885605812073,-0.27156051993370056,-0.4722774028778076,-0.5619933605194092,-0.483235239982605,-0.2276049554347992,0.03277983143925667,0.5887646675109863,0.0325116403400898,-0.29011863470077515,0.0016510392306372523,0.13498583436012268,-0.48232176899909973,0.06829141825437546,-0.09936320036649704,-0.13582341372966766,0.2523031532764435,0.41080909967422485,0.15303954482078552,0.0623883418738842,0.33550122380256653,0.4131286144256592,0.47107958793640137,0.05461501702666283,0.10596828907728195,0.3260509967803955,0.20031920075416565,0.12808440625667572,0.28629612922668457,0.46126070618629456,0.6024367213249207,0.4347306489944458,0.34598761796951294,0.004224576987326145,-0.603115439414978,0.12632369995117188,-0.09856727719306946,0.17095895111560822,0.7746228575706482,0.9283977150917053,0.3234860897064209,0.0786881223320961,0.2143007218837738,0.17957676947116852,-0.035253096371889114,-0.010871347971260548,-0.1260826140642166,0.01459016464650631,0.5748643279075623,0.1620292067527771,-0.5984495878219604,0.5724061727523804,0.16188563406467438],[-0.1965438425540924,-0.22192490100860596,0.10927601158618927,0.5088307857513428,-0.37555062770843506,0.1482507884502411,-0.6209298372268677,-0.18493448197841644,0.07895082235336304,-0.5208429098129272,-0.2817849814891815,0.47103631496429443,-0.44468721747398376,0.022264720872044563,0.15152084827423096,-0.14915582537651062,-0.21213746070861816,0.2185957431793213,-0.3404654562473297,-0.10654423385858536,0.4493028521537781,-0.8028367161750793,0.22064952552318573,0.33488520979881287,-0.03974901884794235,0.10062656551599503,0.27811968326568604,0.06918653845787048,0.33406659960746765,-0.19202862679958344,-0.4936000108718872,0.45095449686050415,-0.2402188628911972,0.6378530859947205,0.34313148260116577,-0.1199493557214737,0.10472730547189713,-0.06408088654279709,0.08251325786113739,-0.23456089198589325,0.15518715977668762,-0.31085047125816345,0.49761223793029785,-0.13156644999980927,0.029647955670952797,0.29517436027526855,-0.07077137380838394,0.2979361414909363,0.2617849111557007,-0.24271197617053986,-0.3524509072303772,0.25803351402282715,-0.3828223645687103,0.20149871706962585],[-0.0684865340590477,0.2165294736623764,0.39055144786834717,0.7229450345039368,1.2614942789077759,0.8495422005653381,-0.0033642437774688005,0.6440353989601135,0.5352196097373962,-0.22685928642749786,-0.007441449910402298,0.0762438103556633,-0.022381411865353584,0.7130860090255737,0.0936962366104126,-0.6664813756942749,0.5591831207275391,-0.01704586297273636,0.040328215807676315,-0.20567384362220764,0.021931616589426994,0.09226290881633759,-1.1360892057418823,-0.2524355351924896,-0.12611271440982819,0.10904491692781448,-0.0007350901141762733,0.08387654274702072,-0.21801522374153137,-0.28332918882369995,-0.7222652435302734,-1.3189153671264648,-0.8167911171913147,0.027505196630954742,-0.6276760697364807,-0.47514650225639343,-0.28344520926475525,-0.04422265663743019,0.009682947769761086,-1.5327003002166748,0.16324390470981598,-0.11841461807489395,-1.2820812463760376,0.6821646094322205,-0.44723212718963623,-0.26147574186325073,0.12787991762161255,0.01665101945400238,-0.44805246591567993,-0.27475571632385254,0.22812213003635406,-0.5313452482223511,-0.20695577561855316,0.04247584566473961],[-0.1558052897453308,0.1898690015077591,-0.04375646635890007,0.08977856487035751,-0.20152993500232697,-0.169534832239151,0.19957315921783447,0.24578441679477692,-0.04612269625067711,-0.41040438413619995,-0.16089926660060883,-0.11843554675579071,0.025983601808547974,0.26605507731437683,0.05816555395722389,0.4096356928348541,-0.022439327090978622,0.10971535742282867,-0.4795321524143219,-0.5474104285240173,0.03992987796664238,0.34895890951156616,0.4839044213294983,-0.05934693664312363,0.45448586344718933,0.543144702911377,0.04509526491165161,0.19576451182365417,-0.14295360445976257,0.10719411075115204,-0.15736845135688782,0.1395992934703827,0.03504960611462593,-0.22195039689540863,-0.31506842374801636,0.11927282065153122,0.3045393228530884,-0.24250175058841705,-0.1775045096874237,0.673276960849762,0.028001531958580017,0.07171115279197693,0.14805233478546143,0.04389616474509239,0.34675103425979614,0.7211200594902039,-0.8570322394371033,0.11100763827562332,0.3239055573940277,0.11470133811235428,-0.04800588637590408,-0.042376190423965454,0.4254321753978729,0.13877180218696594],[0.12894412875175476,0.4768569767475128,0.27443772554397583,0.01542903482913971,0.42655548453330994,-0.004086235072463751,0.08781389892101288,0.023556992411613464,0.25414517521858215,-0.10442446172237396,-0.011619247496128082,0.2850026786327362,0.017842281609773636,0.418389230966568,0.18430985510349274,0.06534968316555023,0.43679022789001465,0.6913951635360718,0.0008779250201769173,0.2109997719526291,-0.02905864641070366,-0.3475344181060791,-0.0571165569126606,0.30864831805229187,-0.34678494930267334,-0.11931271851062775,0.8321154713630676,0.03366046026349068,-0.5411785244941711,-0.3555245101451874,-0.009171616286039352,-0.5771582126617432,0.07153601944446564,-0.1794510930776596,-0.008504793979227543,-0.3656596839427948,0.004307926632463932,0.02299249917268753,0.05298251658678055,0.20420591533184052,-0.10191982984542847,-0.15789733827114105,-0.06102832034230232,0.17158806324005127,-0.015132551081478596,0.05642371624708176,0.2795499265193939,-0.052558839321136475,0.5344880819320679,-0.4179469645023346,-0.24397630989551544,0.36238011717796326,-0.5857433080673218,-0.01570769026875496],[-0.1009145975112915,0.450690358877182,0.2451137900352478,-0.1756855845451355,-0.08348186314105988,-0.14242874085903168,-0.0017126048915088177,-0.3141445815563202,0.38260141015052795,0.07702670246362686,-0.12374096363782883,0.28975313901901245,-0.5930315852165222,0.2548336088657379,-0.24342045187950134,-0.08204609900712967,0.46751323342323303,0.16481582820415497,-0.02952173911035061,-0.06528042256832123,0.07796897739171982,-0.5576856732368469,-0.43270260095596313,-0.03167435899376869,0.027317823842167854,-0.22408385574817657,0.25624942779541016,-0.003519450081512332,-0.39132046699523926,-0.29178377985954285,0.237276092171669,-0.030598102137446404,0.11776810884475708,0.08321571350097656,0.45050954818725586,-0.25446799397468567,0.015588517300784588,-0.14059777557849884,-0.15117280185222626,0.18463830649852753,-0.22657552361488342,0.12008554488420486,0.15481482446193695,1.0471725463867188,-0.1720895618200302,0.25880172848701477,-0.3198280930519104,-0.0618421845138073,-0.17585349082946777,-0.45571577548980713,0.3218735158443451,-0.17168110609054565,0.5931093096733093,0.041149649769067764],[0.06393501162528992,-0.4255955219268799,0.029305407777428627,1.0430175065994263,0.20363759994506836,0.7529200315475464,-0.1546277105808258,1.0137683153152466,-0.138773575425148,-0.09161733835935593,-0.08205089718103409,0.17891986668109894,0.5964464545249939,0.046670250594615936,-0.08944793045520782,0.5550792813301086,-0.7434589266777039,-0.8102072477340698,0.29660409688949585,0.08964008092880249,0.252840518951416,1.4440562725067139,0.06059623882174492,-0.34504663944244385,0.05623679980635643,-1.0829482078552246,-0.6165857911109924,-0.038624558597803116,0.41523441672325134,-0.13513009250164032,-0.9195548295974731,-0.27506962418556213,-0.7513017654418945,0.127646341919899,-1.0064234733581543,0.24244216084480286,0.28592994809150696,-0.12359826266765594,-0.0031293053179979324,0.12349697947502136,0.023096857592463493,-0.9400668144226074,-0.36583805084228516,-0.562950849533081,-0.4675721824169159,0.07671434432268143,-0.05887172743678093,0.14373038709163666,0.5623440742492676,-0.9327658414840698,-0.4002954661846161,-0.30721208453178406,-0.8794314861297607,-0.3549458682537079],[-0.0353340320289135,0.23818178474903107,-0.009465079754590988,-0.07394712418317795,0.9853357076644897,-0.10544498264789581,0.15843738615512848,0.7919237613677979,-0.7353653311729431,-0.052484460175037384,0.06467608362436295,-0.06310303509235382,-0.7623293995857239,0.8024301528930664,0.38822364807128906,-0.4925844073295593,0.06441245973110199,-0.3213329613208771,-0.08595525473356247,-0.19726034998893738,0.127768874168396,-0.6741463541984558,-0.042312055826187134,0.5205109119415283,-0.8632103800773621,0.06352746486663818,-0.29848867654800415,0.08811276406049728,-0.2449466586112976,-0.06796334683895111,0.18158769607543945,-0.8706075549125671,0.051796384155750275,-0.08204997330904007,-0.6434823274612427,0.7818658351898193,0.16938945651054382,-0.14568942785263062,0.12299952656030655,-0.014653912745416164,-0.22598351538181305,0.3155460059642792,-0.24076032638549805,-0.33240556716918945,0.6446982622146606,-0.16894540190696716,0.04598643258213997,0.12080752104520798,-0.7487096190452576,-0.7337337136268616,0.5009250640869141,0.10331325232982635,-0.6715822219848633,0.4739944636821747],[-0.12673644721508026,0.3840314447879791,0.2552212178707123,0.36658456921577454,-0.13086941838264465,0.18709033727645874,-0.41544368863105774,-0.721742570400238,-0.36415088176727295,0.23137715458869934,-0.0143472570925951,0.1872248500585556,-0.3508049249649048,1.2310516834259033,-0.14108023047447205,-1.0784460306167603,-0.15663862228393555,-0.18698285520076752,0.2851254642009735,-0.1244693174958229,0.05989479646086693,0.12885873019695282,-0.15281417965888977,0.05627310276031494,-0.5466864109039307,-0.2755883038043976,-0.014664051122963428,0.12331768870353699,-0.4245184063911438,-0.2896665334701538,-0.32132017612457275,0.12614813446998596,-0.17937271296977997,0.2943061888217926,0.8347262740135193,0.42281657457351685,-0.06904693692922592,-0.018677785992622375,0.10952053964138031,0.23920124769210815,0.8170560002326965,-0.3436177670955658,0.47790881991386414,0.9405092000961304,0.25597047805786133,-0.2035467028617859,-0.4089724123477936,0.16976690292358398,1.365356683731079,-0.10815953463315964,-0.08237151056528091,1.638367772102356,0.2604564130306244,-0.22419944405555725],[-0.13437724113464355,0.3695060908794403,-0.10101592540740967,0.5354030132293701,0.35381680727005005,-0.7521517276763916,-0.26831570267677307,0.7336855530738831,-0.8093401193618774,0.009253623895347118,0.2801831364631653,0.15588541328907013,1.0267614126205444,0.44165483117103577,-0.509611964225769,0.37620753049850464,-0.31525352597236633,-0.5556153059005737,0.09807758033275604,-0.07908344268798828,0.21284829080104828,0.9671799540519714,0.2952902615070343,-0.2773146629333496,0.28067782521247864,-0.34748518466949463,-0.4949577748775482,0.16161656379699707,-0.22888866066932678,0.20294125378131866,-0.6081870794296265,-0.30821236968040466,0.6486876606941223,0.26280477643013,-0.6376349925994873,0.9049113392829895,0.02862134948372841,-0.09346228092908859,0.0026887005660682917,0.1720179319381714,-0.04979822784662247,0.1339913159608841,0.1626085340976715,-0.15518733859062195,0.4436478912830353,0.06357644498348236,-0.5762543678283691,-0.01836981810629368,-0.2648908495903015,-0.27782338857650757,-0.4767816960811615,0.11703455448150635,-0.3426239788532257,-0.042312346398830414],[-0.007586509454995394,0.041592907160520554,0.2831033170223236,0.541966438293457,-0.11025895923376083,0.6138132810592651,0.1680781990289688,-0.2761485278606415,0.6547884345054626,-0.05391974747180939,-0.21973080933094025,0.6132626533508301,0.15451356768608093,0.5456873178482056,0.1286449134349823,0.2690261900424957,0.09609537571668625,0.09099288284778595,-0.025528689846396446,0.06586237251758575,0.3837631642818451,-0.1187259629368782,0.22086328268051147,-0.04323773831129074,0.4089185297489166,-0.1641349494457245,0.10280505567789078,0.12538926303386688,-0.09016697108745575,-0.3262500464916229,-0.6447740197181702,0.13292445242404938,-0.5637302398681641,-0.08273842930793762,0.29594093561172485,-0.6556957960128784,-0.13075301051139832,-0.27639448642730713,0.2907792925834656,0.1826324164867401,0.3750263452529907,-0.3490527868270874,0.050686903297901154,-0.017624543979763985,-0.3979361355304718,0.042925264686346054,0.21905304491519928,0.3875477910041809,0.4362154006958008,0.09231047332286835,-0.2972160577774048,-0.14548681676387787,-0.7640026211738586,-0.2511853873729706],[-0.23336631059646606,1.0445226430892944,-0.010731701739132404,0.013873014599084854,0.9665910005569458,-0.24707414209842682,0.25926679372787476,0.8497925400733948,-0.07979606837034225,-0.37276288866996765,-0.17325733602046967,0.07098434865474701,0.18072523176670074,-0.10986115038394928,0.1062413826584816,0.4352075159549713,0.3491402864456177,0.33966368436813354,-0.40731701254844666,-0.144748717546463,0.21957828104496002,-0.298109233379364,-0.0326160304248333,0.2513406276702881,-0.23545445501804352,0.8490725755691528,0.25236061215400696,0.24306143820285797,-1.0382988452911377,0.0034914424177259207,-0.04673644155263901,-0.8507789969444275,0.37918218970298767,-0.24010244011878967,-0.9644218683242798,0.058001887053251266,-0.08480934053659439,-0.19747164845466614,0.1861332356929779,-0.7742031216621399,-0.3609846532344818,0.0195346400141716,-0.24611711502075195,-0.24766503274440765,-0.13427504897117615,-0.06695080548524857,-0.7822402715682983,0.11793496459722519,0.1701126992702484,0.035183608531951904,0.04784923791885376,0.4879358112812042,-0.081630639731884,0.05066104978322983],[-0.03202071785926819,-0.2552662193775177,0.17642344534397125,0.38203203678131104,0.17532390356063843,0.36218249797821045,-0.3331393003463745,-0.46775519847869873,0.6542092561721802,0.11782187968492508,-0.047209233045578,-0.06526216119527817,-0.028642777353525162,0.375829815864563,-0.2253931313753128,-0.6065706014633179,-0.26241838932037354,0.11138594895601273,0.012684552930295467,-0.2620471119880676,-0.10199851542711258,-0.03877076879143715,-0.281269907951355,-1.0800260305404663,-0.5631030201911926,-0.710446834564209,-0.4502362608909607,0.1822429597377777,0.11851172149181366,-0.2459392547607422,-0.44754713773727417,-0.18123769760131836,-0.38956430554389954,0.19485096633434296,0.4797232151031494,-0.6123033165931702,0.19015158712863922,-0.06645043194293976,-0.01613473892211914,0.9295639991760254,0.47452303767204285,-0.14531083405017853,0.5858747363090515,-0.16483718156814575,0.00895574502646923,0.07975880056619644,-0.10335978120565414,0.07165440917015076,0.4785829782485962,0.4116751253604889,-0.22013162076473236,-0.00621993700042367,0.30670905113220215,-0.09154969453811646],[-0.03692694008350372,-0.4257241487503052,-0.14548185467720032,0.1965523213148117,0.11672884225845337,0.1325947344303131,-0.3089400827884674,0.7419687509536743,-0.45653533935546875,-0.10339779406785965,-0.22620025277137756,-0.014739698730409145,0.1934662014245987,0.8200110197067261,0.2868606448173523,-0.06347394734621048,0.45607709884643555,-0.03734281659126282,-0.3313369154930115,-0.34340572357177734,0.18827256560325623,-0.2902871370315552,0.7936737537384033,0.0788545310497284,-0.37436148524284363,0.7492720484733582,0.0591711588203907,0.044790469110012054,0.49784666299819946,0.15104147791862488,-0.1918995976448059,0.00866780523210764,-0.1466977298259735,0.16594472527503967,-0.69155353307724,0.33449575304985046,0.0843709334731102,-0.18652687966823578,0.24237921833992004,-0.091297946870327,0.012738600373268127,-0.4257749319076538,0.06501222401857376,-0.4055146276950836,-0.23740726709365845,0.32233762741088867,0.11070849001407623,0.2599319815635681,-0.13301818072795868,1.1106358766555786,-0.3620547652244568,0.1588861644268036,0.3270501494407654,-0.1833391636610031],[0.3617410361766815,0.4188127815723419,0.046411048620939255,-0.09485332667827606,0.8285754323005676,-0.05998491123318672,0.5060060024261475,0.6938648819923401,0.29991355538368225,0.08372281491756439,0.04295489937067032,0.04327242076396942,-0.503720760345459,-0.25418785214424133,0.22797773778438568,0.5001817941665649,0.012685880996286869,-0.03797664865851402,0.3479606807231903,-0.0775507241487503,0.034238964319229126,-0.7761747241020203,0.04668217524886131,0.44999128580093384,-0.10063740611076355,0.06863240152597427,-0.1182723417878151,-0.40005338191986084,-0.4635651409626007,-0.044423751533031464,0.19231723248958588,-0.6784776449203491,0.14053617417812347,-0.5592374801635742,-0.5774860978126526,-0.19440263509750366,-0.3468545079231262,-0.07442326843738556,0.09392702579498291,0.08231564611196518,-0.6340159177780151,0.21766892075538635,-0.3946090638637543,0.0686878189444542,-0.5830603241920471,-0.1367039680480957,0.0908050686120987,-0.0009758237865753472,0.32949259877204895,-0.45564037561416626,0.36383354663848877,-0.444524884223938,-0.49512726068496704,-0.5237931609153748],[-0.1985843926668167,0.3820483386516571,-0.18119652569293976,-0.5176429152488708,0.2909854054450989,-0.6442796587944031,-0.45290857553482056,-0.18211138248443604,-0.4586431384086609,0.03240698575973511,-0.0005371259176172316,0.09344981610774994,-0.3717985153198242,0.29985809326171875,0.021820513531565666,0.1438523530960083,0.2626342475414276,0.19267186522483826,-0.24270391464233398,0.3622259497642517,0.030593983829021454,-0.4470498561859131,0.8075264096260071,0.08000701665878296,0.20479609072208405,0.9348623156547546,-0.043916746973991394,0.047387950122356415,-0.3957969546318054,0.22749364376068115,0.590411365032196,-0.1727689504623413,0.6232911348342896,0.3500349819660187,0.09438875317573547,0.5514052510261536,0.02342531643807888,-0.16053856909275055,-0.06966567039489746,0.02548961341381073,-0.20374314486980438,-0.23501141369342804,-0.21074621379375458,-0.1290120929479599,-0.1358567327260971,-0.01764027774333954,0.1879781186580658,-0.03199499472975731,0.3345760107040405,-0.2312479019165039,-0.5722860097885132,-0.2494034618139267,-0.09902893751859665,-0.8356228470802307],[-0.19070017337799072,0.1267394870519638,0.16500228643417358,0.8372415900230408,0.42260563373565674,0.6735599040985107,0.5252666473388672,-0.5881186127662659,-0.181669220328331,-0.06935975700616837,-0.013439645990729332,-0.04038424789905548,0.6506322622299194,0.34719058871269226,-0.1920468658208847,0.730860710144043,-0.13756917417049408,-0.16524039208889008,-0.11512569338083267,-0.35771915316581726,-0.18179269134998322,1.0517364740371704,-0.4478069543838501,-0.8305954933166504,0.7886922955513,-0.22608539462089539,-0.3042808175086975,0.07028535008430481,-0.11596900969743729,-0.3117312490940094,-0.8007961511611938,-0.3070742189884186,-0.6235241889953613,-0.5547051429748535,0.5295458436012268,0.26681819558143616,0.1089763417840004,-0.08798565715551376,-0.06636524200439453,-0.31858962774276733,0.25738781690597534,-0.1021600291132927,-0.3822118043899536,0.8097835779190063,0.15262842178344727,0.2571633458137512,-0.3219403326511383,0.06904405355453491,0.18387673795223236,0.6185806393623352,-0.3092101216316223,-0.12589970231056213,1.4931936264038086,-0.2487381547689438],[0.1229863166809082,-0.32830020785331726,-0.3153548836708069,0.5153555274009705,1.080000877380371,-0.5605357885360718,0.06250578165054321,0.7672953009605408,-0.6730833649635315,0.16976112127304077,0.03931918740272522,-0.20672982931137085,-0.2253851443529129,0.5022933483123779,-0.7000944018363953,0.05262880027294159,-0.02066541276872158,-0.16428621113300323,-0.16346831619739532,-0.31079885363578796,0.09093937277793884,-0.5567905306816101,-0.35759395360946655,-0.5810290575027466,0.28359711170196533,-0.4147607088088989,-0.2774444818496704,-0.06947310268878937,0.29332804679870605,0.4083719253540039,-0.47007429599761963,-1.0578724145889282,0.5495139360427856,0.015986859798431396,-0.7157069444656372,0.5689407587051392,0.02934323437511921,-0.0967831090092659,0.009748675860464573,0.014811113476753235,0.06115849316120148,-0.04658622294664383,0.02950320951640606,-0.33021363615989685,0.2837168574333191,0.10647081583738327,-0.2409554123878479,0.031610049307346344,0.2715393900871277,-0.17918682098388672,-0.13389736413955688,-0.16726046800613403,-0.0008973598596639931,0.22430112957954407],[-0.013893947005271912,-0.19024987518787384,-0.5155100226402283,0.389326274394989,0.15577179193496704,-0.49826401472091675,0.4302726686000824,0.5118517279624939,0.16282187402248383,0.1985834836959839,0.09169880300760269,-0.5749424695968628,0.7379597425460815,1.125548005104065,-0.013669679872691631,0.19847823679447174,1.1549420356750488,-0.03467985987663269,0.034341223537921906,0.3385581374168396,-0.2087080180644989,0.5517167448997498,1.1370086669921875,0.1165175512433052,-0.019031308591365814,0.9136683344841003,-0.20850269496440887,-0.036489732563495636,0.1849357932806015,0.40863317251205444,-0.3527836203575134,-0.17628474533557892,0.5573650002479553,-0.41569089889526367,-0.527350664138794,-0.03742501139640808,-0.0025840899907052517,0.012227194383740425,-0.10529597848653793,-0.48818573355674744,0.7926316261291504,0.37724927067756653,-0.5077280402183533,0.7745855450630188,-0.2233649641275406,-0.027745258063077927,-0.18976563215255737,-0.04286681115627289,-0.24744735658168793,0.33518558740615845,0.07272368669509888,0.11614497750997543,0.2631727457046509,-0.35402554273605347],[0.09660395979881287,-0.13885772228240967,0.4358576834201813,0.7367283701896667,-1.1671037673950195,0.22060127556324005,0.06086626276373863,-1.2375941276550293,-0.0005029190215282142,0.2254711538553238,-0.05088532343506813,0.03848424181342125,0.963487446308136,-1.1413239240646362,-0.0434943251311779,-0.2853516936302185,-1.2793333530426025,0.275115430355072,-0.05334191769361496,-0.16636250913143158,-0.0009590957197360694,-0.41360968351364136,-0.5344866514205933,0.23961639404296875,-1.099515676498413,-0.7295405268669128,0.48340654373168945,-0.11103349924087524,0.10793064534664154,-0.55678391456604,-0.6432204246520996,1.0829689502716064,-0.273253470659256,-0.007117158267647028,1.184171438217163,0.04160444065928459,-0.2196877896785736,-0.0719919204711914,-0.16325418651103973,-0.08109255880117416,-0.08887168020009995,-0.033928219228982925,0.07656154781579971,-0.32822924852371216,0.13678647577762604,0.19394022226333618,0.12417267262935638,0.048962946981191635,0.9774450659751892,0.2813701629638672,0.08275894820690155,0.5643779635429382,-0.22839021682739258,0.16561008989810944],[-0.10856839269399643,-0.5679499506950378,-0.22093211114406586,0.39117515087127686,-0.06972447037696838,0.7700700163841248,0.1489061713218689,-0.48291996121406555,0.35965076088905334,-0.03078087605535984,0.04503094032406807,-0.05516768619418144,0.5245069861412048,-0.6293683052062988,0.2940749526023865,0.7641934156417847,0.016763444989919662,-0.24861136078834534,-0.10006462037563324,-0.21644015610218048,0.00018885446479544044,0.8159545660018921,-0.7446080446243286,-0.05313471704721451,0.8556889891624451,0.11840632557868958,-0.5682986378669739,0.13817094266414642,0.5882489085197449,0.2870052456855774,-0.4361013174057007,0.12457360327243805,-0.7077255249023438,-0.3016640245914459,0.4474934935569763,-0.35112646222114563,0.1804514229297638,0.013645200058817863,-0.04666706174612045,-0.6062926054000854,-0.0644795149564743,-0.13871948421001434,-0.7880486845970154,0.4841674268245697,-0.573987603187561,0.039002519100904465,0.1106896623969078,0.0015308080473914742,0.3780532479286194,0.6418263912200928,-0.06539855897426605,-0.356534481048584,0.31608179211616516,-0.7929514050483704],[-0.2927553951740265,0.48170438408851624,0.3739427328109741,-0.011035995557904243,0.31449800729751587,0.27862489223480225,0.21243128180503845,0.40716367959976196,0.33913034200668335,-0.22937507927417755,0.02521391399204731,0.2818441390991211,-0.67216956615448,0.026550503447651863,0.4574276804924011,0.2903854548931122,0.7520330548286438,0.4026298522949219,-0.2500549852848053,-0.14407499134540558,0.21713048219680786,-0.6522276401519775,-0.05730222165584564,0.2964135706424713,0.4643712639808655,0.7394655346870422,0.22332221269607544,0.2231302112340927,-0.5279139280319214,-0.4006725549697876,0.05869359150528908,-0.3616584837436676,-0.22495543956756592,-0.06829701364040375,-0.45624321699142456,-0.29655721783638,-0.03589705377817154,-0.03537226840853691,-0.26947179436683655,-0.6717250347137451,-0.0018901671282947063,0.4014028012752533,-0.5621563196182251,0.36100849509239197,0.25359922647476196,0.09747202694416046,-0.31369251012802124,-0.09930510818958282,-0.2995711863040924,0.3393906354904175,0.3625611662864685,-0.5416445136070251,0.7057873010635376,0.08941519260406494],[-0.06087259575724602,-0.07971975207328796,-0.26572278141975403,0.24592068791389465,0.47958993911743164,0.335525244474411,0.3014299273490906,-0.6383797526359558,0.1976342797279358,-0.025162840262055397,-0.06443079560995102,0.09682206064462662,0.23564545810222626,-0.010611911304295063,0.3842943608760834,0.6421852707862854,-0.18589124083518982,0.18227101862430573,-0.06840059906244278,-0.2334747165441513,0.21032410860061646,0.5444262027740479,-0.05731033533811569,0.01203230395913124,0.4724377393722534,-0.02899921126663685,-0.05478819087147713,-0.008521112613379955,0.051679499447345734,0.15980347990989685,-0.3292090594768524,-0.42687055468559265,-0.2433968335390091,-0.1546555459499359,0.5963006019592285,-0.2657567858695984,-0.03904498741030693,-0.036915864795446396,0.2896817922592163,0.6888807415962219,0.43466898798942566,0.3811015784740448,0.46224015951156616,0.6081444025039673,-0.19892702996730804,0.14656895399093628,0.18647326529026031,0.19545350968837738,0.2261631190776825,0.8709282875061035,0.3661819398403168,0.30295735597610474,0.8490240573883057,-0.2317354679107666],[0.018467340618371964,-0.513066291809082,-0.27689236402511597,0.5767117738723755,0.7916385531425476,0.5804733633995056,0.36719587445259094,0.9139081239700317,1.1352119445800781,0.25004953145980835,-0.1698962301015854,-0.018229642882943153,-0.5157859921455383,0.40340518951416016,0.4688091278076172,-0.5017122626304626,0.0497451014816761,0.5705797076225281,0.084686279296875,-0.0061687808483839035,0.23236624896526337,-0.12670031189918518,0.4839657247066498,-0.06146322563290596,-0.41564351320266724,0.23401467502117157,0.3055911958217621,-0.011018532328307629,0.4756111800670624,0.3087289035320282,-0.5396037101745605,-0.7774412035942078,-0.619762659072876,-0.4372161328792572,-0.9866260290145874,-1.1088777780532837,0.25392717123031616,-0.24003472924232483,0.19324125349521637,-0.014897994697093964,0.2848421633243561,-0.13531824946403503,0.04979043826460838,-0.12248636782169342,-0.2664976716041565,0.28918224573135376,0.1450847089290619,0.08766301721334457,-0.044157661497592926,0.533656895160675,-0.012406455352902412,-0.6575983166694641,0.5225334167480469,-0.18224528431892395],[0.002591148018836975,-0.6382426023483276,-0.33429935574531555,-0.020675035193562508,-0.38109076023101807,0.11264049261808395,0.127462238073349,0.10643967241048813,-0.44702082872390747,-0.23009206354618073,0.05829233303666115,-0.22270220518112183,-0.36616238951683044,0.10903608053922653,-0.23265495896339417,-0.16430816054344177,-0.14825308322906494,-0.21941816806793213,-0.22109642624855042,-0.25428229570388794,-0.08267857134342194,-0.00896887294948101,-0.24884045124053955,-0.229483962059021,-0.48906219005584717,0.06328562647104263,-0.0006418086704798043,0.11187863349914551,0.7074418067932129,0.4119109511375427,-0.10088292509317398,0.5220428109169006,-0.18007755279541016,-0.21079598367214203,-0.2170642465353012,0.38130050897598267,-0.16262531280517578,0.15581269562244415,0.0685451552271843,-0.25276175141334534,0.05591514706611633,-0.3570655882358551,-0.13261593878269196,-0.17249032855033875,-0.04257707670331001,0.06289541721343994,0.01569540612399578,-0.057003822177648544,0.5877224206924438,0.32535654306411743,-0.1708194464445114,0.6683350205421448,0.39089927077293396,-0.021250274032354355],[-0.11747128516435623,-0.2940130829811096,-0.011064410209655762,-0.023685161024332047,-0.5910019278526306,1.153573751449585,-0.40704330801963806,-0.14545661211013794,0.18909351527690887,0.01816922426223755,-0.04010283946990967,0.07826694846153259,-0.29935893416404724,0.30252689123153687,0.28968870639801025,-0.005287057254463434,0.6716274619102478,0.07518816739320755,-0.034856244921684265,-0.02772711217403412,0.13352277874946594,0.2525826394557953,0.24852706491947174,0.10712476074695587,0.12212174385786057,0.789355456829071,-0.13536013662815094,0.09308390319347382,0.29029300808906555,-0.04885241761803627,0.06390027701854706,0.6550002694129944,-1.129790186882019,0.348270058631897,0.17122015357017517,-0.23958663642406464,0.018173834308981895,0.2468581646680832,0.07301652431488037,0.199076846241951,0.7343669533729553,-0.15788814425468445,0.037228263914585114,0.4187661111354828,-0.03200257197022438,0.1655469387769699,-0.028860246762633324,0.19027076661586761,-0.13530682027339935,0.7751146554946899,0.16186533868312836,0.13974109292030334,0.6004094481468201,0.016639305278658867],[-0.08945371210575104,0.14712335169315338,-0.09993977844715118,-0.13042761385440826,1.131904125213623,0.14154529571533203,0.09892214089632034,-0.0005483304266817868,0.4388233423233032,-0.2416578233242035,-0.03896620124578476,-0.1846117079257965,-1.0553393363952637,0.660406768321991,-0.12704813480377197,-0.3381751477718353,0.3316689431667328,-0.09588607400655746,-0.17106638848781586,-0.361301988363266,0.024711623787879944,-0.4333583116531372,-0.20821893215179443,-0.3738797903060913,-0.007562257349491119,-0.4246211349964142,-0.09173594415187836,0.10954050719738007,-0.017290784046053886,0.045938581228256226,0.08451884984970093,-1.160247564315796,-0.2284400761127472,-0.10150380432605743,0.07759559899568558,-0.46400365233421326,0.1037362664937973,-0.2350238561630249,-0.25330063700675964,0.1598690152168274,-0.5468023419380188,-0.25305697321891785,-0.18711060285568237,0.42349281907081604,-0.06980336457490921,0.2122562676668167,-0.5841125845909119,-0.05590125918388367,-0.31694671511650085,-0.16826413571834564,-0.21543638408184052,-0.11086719483137131,0.018230197951197624,0.03129243105649948],[-0.16316455602645874,0.6253097057342529,0.016545534133911133,0.41000089049339294,0.7547323107719421,-0.28983601927757263,-0.23707841336727142,0.565078854560852,0.34757548570632935,-0.25311824679374695,-0.17916803061962128,0.03740601986646652,0.24947528541088104,0.20277829468250275,-0.04654338210821152,-0.032827284187078476,-0.239219531416893,0.5026177167892456,-0.15976735949516296,-0.2771156430244446,-0.041379205882549286,0.26787200570106506,-0.0072674863040447235,-0.12320298701524734,0.6114901900291443,0.14912036061286926,-0.09676768630743027,0.2845478355884552,-0.741462767124176,0.052687302231788635,-0.41598275303840637,-0.8405203223228455,0.24809178709983826,0.2291424572467804,-0.7051843404769897,-0.45017170906066895,0.10305823385715485,-0.20395664870738983,0.0037352389190346003,-0.5222622752189636,-0.4207475781440735,0.15891487896442413,-0.29902634024620056,-0.2940058410167694,-0.2786467969417572,0.016611112281680107,-0.24646441638469696,0.11045973002910614,0.3553364872932434,-0.5794180035591125,0.1182732954621315,0.03593843802809715,-0.30293628573417664,-0.27810782194137573],[-0.12343969941139221,-0.24456356465816498,-0.5219336748123169,0.6002588272094727,-0.13434645533561707,-0.06796170026063919,0.6720249652862549,-0.7440875768661499,-0.13219396770000458,0.21821175515651703,-0.027727484703063965,-0.4364352524280548,0.730345606803894,-0.20238660275936127,-0.10645721852779388,0.3810621201992035,0.05831436812877655,-0.23312993347644806,-0.10322707891464233,-0.13335148990154266,-0.09816869348287582,0.5208836197853088,0.09568903595209122,-0.13667303323745728,0.7698848843574524,0.031502172350883484,-0.628904402256012,0.017456291243433952,0.3562220633029938,0.5271691679954529,-0.5237545967102051,0.21997301280498505,0.046301502734422684,-0.644530177116394,0.7174330949783325,0.05379953980445862,0.09594068676233292,-0.0023659197613596916,0.02524716965854168,-0.3460034728050232,0.08673523366451263,0.03305582329630852,0.18528516590595245,0.03941003978252411,0.07673178613185883,-0.05719057470560074,-0.059876300394535065,-0.2475861757993698,-0.5457943677902222,0.772162914276123,-0.11595376580953598,-0.7523305416107178,0.8706096410751343,-0.05447215959429741],[0.21355919539928436,1.119663953781128,0.4291992485523224,0.845488965511322,1.2326819896697998,1.1536589860916138,0.10218330472707748,-0.18163616955280304,0.5584744215011597,-0.25657081604003906,0.17583908140659332,0.17796547710895538,-0.8610408306121826,0.7760760188102722,0.2529948055744171,0.022471940144896507,0.6239078044891357,0.08449066430330276,0.21517354249954224,-0.3508112132549286,-0.01086239144206047,1.2648224830627441,-0.23834824562072754,-0.365960955619812,0.2574652135372162,-0.008587884716689587,-0.1835348755121231,-0.14583659172058105,-1.0399411916732788,-0.3422538638114929,-0.8048290014266968,-1.293069839477539,-1.1764729022979736,-0.2059136927127838,0.3375648558139801,-0.5235073566436768,-0.34084075689315796,0.19697056710720062,-0.0705529972910881,-0.4270985424518585,0.21017754077911377,-0.2758977711200714,-0.44532835483551025,0.36975789070129395,-0.341263085603714,-0.3141428828239441,-0.31978094577789307,-0.0033014065120369196,-0.2517407238483429,-0.09235220402479172,-0.05849532410502434,0.2766016125679016,0.08098170161247253,-0.14227992296218872],[-0.12459206581115723,-0.4287267327308655,0.41880321502685547,0.704243540763855,0.15632405877113342,-0.028305891901254654,0.6348579525947571,0.9331331849098206,-0.014105621725320816,0.024007970467209816,-0.11990625411272049,0.16417907178401947,0.0812273845076561,1.029671311378479,-0.34717705845832825,-0.36454862356185913,0.8781185150146484,-0.33709585666656494,-0.23551642894744873,-0.0033334586769342422,-0.043529950082302094,0.15191256999969482,-0.13303741812705994,-0.9401163458824158,-0.2315959334373474,-0.10059059411287308,-0.40361762046813965,0.090840183198452,0.4111758768558502,-0.3257526457309723,-0.7009710669517517,-0.16915543377399445,-0.05070088058710098,-0.5694482326507568,-0.9980660676956177,0.1223917305469513,0.2750014662742615,-0.040018342435359955,-0.15267165005207062,-0.6063638925552368,0.5573985576629639,-0.028779374435544014,-0.48178020119667053,0.4744977653026581,-0.19071245193481445,0.10648278892040253,-0.09605174511671066,0.014644015580415726,-0.32933539152145386,0.757948100566864,-0.43381360173225403,-0.48475635051727295,0.5291545391082764,-0.29484039545059204],[-0.19332949817180634,0.5294570326805115,-0.04669855535030365,-0.43659430742263794,1.3526113033294678,0.3213837742805481,0.18609143793582916,0.412844181060791,0.20991244912147522,-0.1925152987241745,0.20323772728443146,0.08447302132844925,-1.058237075805664,0.7051771283149719,0.707160234451294,-0.3005412220954895,0.2091665118932724,-0.009650714695453644,-0.11923718452453613,-0.12204664945602417,0.045397233217954636,-0.24096432328224182,-0.20579655468463898,0.5100637078285217,-0.13670532405376434,-0.05996602401137352,-0.02561008371412754,0.11381418257951736,-0.5404154062271118,0.10145652294158936,0.44218406081199646,-1.2945315837860107,-0.4375983476638794,-0.20120100677013397,-0.44675377011299133,-0.2358546108007431,0.022755088284611702,0.17488619685173035,-0.026956506073474884,-0.36932051181793213,0.1788562536239624,-0.032847993075847626,-0.068870909512043,0.2278156280517578,-0.008994906209409237,-0.0479917973279953,-0.08009084314107895,0.008176914416253567,0.7486878037452698,-0.14310063421726227,0.03999791294336319,0.22466833889484406,-0.0832613930106163,0.08067159354686737],[-0.13491219282150269,0.33637797832489014,0.11894239485263824,0.04433499276638031,-0.6328314542770386,0.9519572854042053,-0.21268430352210999,-1.0077530145645142,-0.3293839395046234,-0.3571331799030304,-0.05029849335551262,0.3091477155685425,0.10600932687520981,0.055606406182050705,0.3440036177635193,0.21615613996982574,-0.7887454628944397,-0.14505702257156372,0.07437647134065628,-0.0459323488175869,0.07102939486503601,0.19651785492897034,-0.1662408858537674,0.015402814373373985,-0.0154413478448987,0.02981080487370491,-0.15709352493286133,0.17443661391735077,-0.4014284014701843,-0.04367446154356003,-0.025074295699596405,0.6493608951568604,-0.9828949570655823,0.33368349075317383,0.9607030749320984,0.3875195384025574,0.08886737376451492,-0.004601981490850449,0.15725639462471008,0.1784525364637375,0.870193362236023,-0.11605048924684525,0.3539317548274994,0.144819438457489,0.18500865995883942,0.04152185469865799,0.052708353847265244,0.10549434274435043,0.40706315636634827,0.9806496500968933,-0.21472865343093872,-0.010158061981201172,0.2931835353374481,-0.10283058881759644],[-0.1761552393436432,0.0782756581902504,-0.061963438987731934,1.25173020362854,-0.1918574720621109,-0.19873790442943573,0.7487919330596924,1.087525725364685,0.2700839936733246,-0.21186524629592896,-0.4294073283672333,0.2138264775276184,1.0621367692947388,-0.014545811340212822,-0.25449779629707336,0.1316908448934555,0.9005610346794128,-0.12245824933052063,0.12655194103717804,0.3526975214481354,0.1699402928352356,0.16362640261650085,0.36293551325798035,-0.05380351468920708,-0.38689514994621277,0.8272168636322021,-0.08571469038724899,0.1872134953737259,-0.015148798003792763,-0.07847221940755844,-1.2968883514404297,0.13671354949474335,0.1012149453163147,-0.7882773876190186,-1.116019606590271,-0.16825805604457855,0.3141000270843506,-0.28052687644958496,0.15109005570411682,-0.15337038040161133,0.8028213977813721,0.15521502494812012,-0.8448863625526428,0.8570985198020935,-0.33764412999153137,0.353598952293396,0.2626887857913971,0.11556088924407959,0.039670687168836594,0.02500338852405548,0.187762051820755,-0.841472864151001,0.6029972434043884,-0.1797502636909485],[-0.19254940748214722,-0.5084064602851868,0.06564097106456757,0.023175299167633057,0.5043017268180847,-0.42552271485328674,0.11505162715911865,0.33549001812934875,-0.018935156986117363,-0.036318887025117874,-0.13828200101852417,0.1415371596813202,0.6338712573051453,-0.08049566298723221,0.11026353389024734,0.3982880413532257,0.15842588245868683,-0.1479913592338562,0.11792097985744476,-0.21558843553066254,0.11324416846036911,0.32790952920913696,-0.3733658492565155,0.05002209544181824,0.29346194863319397,0.37454479932785034,-0.2080826461315155,0.25240376591682434,0.3872104287147522,-0.055687278509140015,-0.015438167378306389,-0.522163450717926,0.4367348253726959,-0.2099817395210266,-0.4263756275177002,-0.07699684798717499,0.23732997477054596,-0.05962575227022171,-0.08766667544841766,0.08234401792287827,0.06172839552164078,0.1744166761636734,0.15260642766952515,-0.036820728331804276,-0.0008453679620288312,0.13730351626873016,0.1651381254196167,0.17418430745601654,-0.0315612256526947,-0.3812757134437561,0.0643421933054924,-0.2826211452484131,-0.35834506154060364,0.0008229922386817634],[-0.13196200132369995,-0.5963006615638733,0.11538580060005188,0.8072178363800049,-0.6620957851409912,0.05356981232762337,0.27231210470199585,-0.5611740946769714,0.6080164313316345,0.15698449313640594,0.02979969047009945,0.07320521026849747,1.1378707885742188,0.6828956604003906,0.08111400157213211,0.9241234660148621,0.3076647222042084,0.20215366780757904,0.090760737657547,0.035719357430934906,0.000436727685155347,0.5703544020652771,0.18101145327091217,-0.4095633327960968,1.2347525358200073,0.6315344572067261,-0.10458403080701828,0.12392294406890869,0.5961380004882812,-0.10208029299974442,-0.8807381987571716,0.6756274700164795,-0.04629642143845558,-0.36394691467285156,0.5606075525283813,-0.5822113156318665,0.279208779335022,0.026269031688570976,0.02440892718732357,-0.3068602979183197,0.9450061917304993,-0.29634979367256165,-0.3987990617752075,0.600966215133667,-0.18663389980793,0.3129328787326813,0.34776023030281067,-0.012514530681073666,-0.007373098749667406,0.5222750306129456,-0.667559802532196,0.08626707643270493,0.23723061382770538,-0.32123643159866333],[-0.2327607423067093,0.41525998711586,-0.3245253562927246,0.009492984041571617,0.14441260695457458,-0.08304277807474136,-0.4054897427558899,0.2730952799320221,-0.04658098518848419,-0.41985374689102173,-0.09656309336423874,0.04612093046307564,-0.2779357135295868,0.05931210517883301,-0.1317865550518036,-0.7117025256156921,0.13024160265922546,-0.06047317385673523,-0.42687755823135376,0.11925306916236877,0.08994649350643158,-0.516365110874176,0.036403506994247437,-0.08691283315420151,-0.013837005943059921,-0.7232131958007812,-0.19388310611248016,0.29910385608673096,-0.35043656826019287,0.35402947664260864,-0.13911771774291992,0.0060832304880023,0.1713489145040512,0.3521352708339691,-0.17669333517551422,0.211988165974617,0.011192693375051022,-0.25741034746170044,-0.033796440809965134,-0.4616071581840515,-0.4341660439968109,-0.350297749042511,0.14846263825893402,0.03676820546388626,-0.03785201162099838,0.08699958771467209,-0.4300828278064728,0.0007421558839268982,-0.35749754309654236,-0.20356054604053497,-0.2214708924293518,-0.022035250440239906,-0.5270371437072754,0.0972297340631485],[-0.03892192244529724,-0.2713974714279175,-0.5641656517982483,0.288372278213501,-0.19441761076450348,-0.3420483469963074,0.10555004328489304,-0.4515460431575775,0.09106592833995819,-0.06455713510513306,-0.22233417630195618,-0.12399210780858994,1.003773808479309,-0.35757943987846375,-0.36709335446357727,0.6233202219009399,-0.011328000575304031,-0.1903945356607437,-0.036651063710451126,-0.3080817759037018,-0.09066718816757202,0.5247777700424194,-0.1684483140707016,-0.3310621976852417,0.19380632042884827,0.08743292093276978,-0.3318353593349457,0.017751924693584442,0.2140323668718338,0.423552006483078,-0.2530718743801117,0.22031302750110626,0.3960748016834259,-0.05933716148138046,0.5239601731300354,-0.023570172488689423,0.19072407484054565,0.08128931373357773,0.09913147985935211,-0.17438261210918427,-0.14100733399391174,-0.44244760274887085,0.031052526086568832,0.07885267585515976,-0.49533718824386597,0.16942018270492554,0.24993230402469635,-0.07517825812101364,-0.19443807005882263,0.35462430119514465,-0.28452712297439575,0.38651102781295776,-0.2970854341983795,0.09442692250013351],[-0.05174646154046059,0.13849201798439026,-0.24887393414974213,0.13760200142860413,0.7069981694221497,0.180616557598114,-0.12263739854097366,0.3485627770423889,-0.17634926736354828,-0.21133925020694733,-0.07049914449453354,0.059787213802337646,-0.15560457110404968,0.024640077725052834,0.5075135827064514,0.26856347918510437,0.18597964942455292,-0.11483538895845413,-0.2703852355480194,0.05902457609772682,0.09129756689071655,-0.3685528039932251,-0.0023318235762417316,0.49327680468559265,0.17614875733852386,0.2996828854084015,-0.0006874381797388196,0.10274198651313782,-0.05663370341062546,0.2826346457004547,-0.2669166922569275,-0.6077346205711365,-0.3071969449520111,0.014956249855458736,-0.36924850940704346,0.2711118459701538,0.0923663079738617,-0.18889081478118896,0.2958230674266815,-0.040571797639131546,0.21636471152305603,-0.186364084482193,0.19696341454982758,0.3842756748199463,-0.060762494802474976,-0.031150491908192635,-0.10593041777610779,0.2835610806941986,-0.2579144239425659,-0.1592281013727188,-0.2261757105588913,0.3278445601463318,0.5140042901039124,-0.26885727047920227],[0.022523730993270874,-0.5368338823318481,-0.09742316603660583,1.1818832159042358,-0.9564505815505981,0.20623603463172913,0.651892900466919,-1.3832849264144897,-0.13042156398296356,0.1774330586194992,-0.12023540586233139,-0.01551069226115942,0.08957134187221527,0.5949928164482117,-0.2961170971393585,0.0902530774474144,0.3264480233192444,0.03371688723564148,0.13267774879932404,-0.15492263436317444,-0.06976485997438431,-0.11562507599592209,-0.2245856672525406,-0.08938959985971451,-0.12318411469459534,-0.07195723801851273,0.20072375237941742,0.05942542478442192,0.5553688406944275,-0.0065238624811172485,-1.176171898841858,0.9801672101020813,-0.1975109875202179,-0.5303011536598206,1.3791815042495728,0.19173020124435425,0.25312647223472595,0.002831295831128955,0.053971897810697556,0.12102290987968445,0.6938382387161255,-0.07040590047836304,0.13330137729644775,0.3973674774169922,0.41235554218292236,0.2769346535205841,0.1255083978176117,-0.006028785835951567,-0.26909324526786804,-0.3629005551338196,0.06530135124921799,-0.43405231833457947,0.2482932060956955,0.4601130485534668],[-0.10290966182947159,0.2651875615119934,0.4016495645046234,0.6645218729972839,0.5792154669761658,-0.5539997220039368,0.3098042607307434,-0.09031640738248825,0.02774016000330448,-0.10882113873958588,-0.1795196831226349,0.05767287313938141,-0.4998159408569336,-0.030961647629737854,-0.6085631847381592,-0.07856184989213943,0.0042955586686730385,0.02881613001227379,0.027354061603546143,-0.5036729574203491,0.13558825850486755,-0.6225225329399109,-1.2635670900344849,-0.2983309328556061,-0.03699751943349838,-0.2885327935218811,0.0035727769136428833,0.12923844158649445,-0.1680244505405426,-0.40894824266433716,-0.7805823087692261,-0.6779583692550659,0.5186794400215149,-0.3395210802555084,-0.0038876929320394993,-0.12433457374572754,-0.13957516849040985,-0.12619540095329285,-0.053144197911024094,-0.9315768480300903,-0.042280420660972595,0.15839329361915588,-0.4610101580619812,0.17147892713546753,0.20238730311393738,-0.03592299669981003,-0.43324989080429077,0.12085679918527603,-0.746579110622406,-0.5761473774909973,0.013181900605559349,-0.4638601541519165,0.34804293513298035,-0.17648103833198547],[-0.1384432166814804,0.36169910430908203,-0.19266049563884735,0.4636906087398529,-0.4540322721004486,0.16045793890953064,0.9904307723045349,-0.6498358845710754,0.3917704224586487,-0.07669776678085327,0.12418113648891449,0.03555571287870407,0.11573374271392822,0.2732359766960144,-0.059331364929676056,0.4170618951320648,0.16629505157470703,-0.28993725776672363,-0.3721325397491455,-0.3476368188858032,0.17975273728370667,-0.21516360342502594,-0.15574921667575836,-0.058572594076395035,-0.16093704104423523,-0.10937628149986267,-0.1811438649892807,0.08011198043823242,-0.416504442691803,0.22332118451595306,-0.3888610005378723,0.4254824221134186,-0.2167038917541504,-0.8813586831092834,0.612454354763031,-0.4109261631965637,-0.000768899277318269,0.05457647144794464,-0.006881418637931347,-0.09290969371795654,0.5580432415008545,-0.5156717896461487,-0.3599727153778076,0.46721136569976807,-0.6318264603614807,0.0030938873533159494,-0.12345867604017258,-0.014723718166351318,0.014230551198124886,-0.21648478507995605,-0.20008735358715057,-0.1388879120349884,0.2220430225133896,-0.14029420912265778],[-0.2352343648672104,0.43487420678138733,0.30097559094429016,0.8618634939193726,0.449789822101593,0.20863600075244904,0.2459181547164917,0.21610796451568604,-0.5295445322990417,-0.17023712396621704,-0.10430081188678741,-0.03441386669874191,-0.4855203926563263,0.6684973239898682,-0.03455805405974388,-0.4508262574672699,0.5804135203361511,0.09240123629570007,0.10327958315610886,-0.5441890358924866,-0.1007785052061081,0.8424314856529236,-0.613307535648346,-0.5676369071006775,-0.1547377109527588,-0.33865928649902344,0.14225143194198608,0.21567955613136292,-0.44507259130477905,-0.2951534390449524,-0.8166722059249878,-0.4738101363182068,-0.24720421433448792,-0.28579413890838623,-0.23919060826301575,0.5268534421920776,-0.052633557468652725,-0.10728149861097336,0.037820786237716675,-1.1877268552780151,0.37904760241508484,0.037635575979948044,-0.5417186617851257,0.43683356046676636,0.06700018048286438,0.3731067478656769,-0.2738363444805145,-0.04319574683904648,-0.036084629595279694,0.5935315489768982,-0.20940235257148743,-0.028451867401599884,0.2222900539636612,-0.09560622274875641],[-0.3326094150543213,-0.1654987931251526,0.6881170868873596,-0.27510780096054077,-0.5391069054603577,-0.3848057985305786,-0.36696717143058777,0.3816309869289398,-0.19899705052375793,-0.1272483915090561,-0.23394562304019928,0.39400994777679443,-0.5987808704376221,-0.1584106981754303,-0.4458094835281372,-0.5995264053344727,-0.36868518590927124,-0.30185872316360474,-0.09184441715478897,-0.25151288509368896,0.049724165350198746,-0.5556662082672119,-0.4134652316570282,-0.11806152015924454,-0.4803502559661865,-0.20928074419498444,-0.11007551103830338,0.20602643489837646,0.03272872418165207,-0.662446141242981,0.38085371255874634,0.5527477860450745,0.4206365942955017,0.5157415270805359,-0.26512610912323,0.1646442413330078,0.10704013705253601,-0.14128296077251434,-0.0817803144454956,-0.15149080753326416,0.14124959707260132,-0.09809207171201706,0.454418808221817,-0.3357095420360565,-0.5105295181274414,0.16690364480018616,-0.05464357137680054,0.17677456140518188,0.6506786942481995,0.3181033432483673,-0.11590640246868134,0.4166213870048523,-0.5815362930297852,-0.4718153476715088],[-0.08992386609315872,0.2809007465839386,0.27595269680023193,-0.36049970984458923,1.0185991525650024,0.2698560953140259,-0.3473983108997345,0.1054123044013977,-0.2757551074028015,-0.03415469452738762,0.012041911482810974,0.3085068166255951,-0.5354325771331787,-0.09741603583097458,0.011373654007911682,-0.6547248959541321,-0.14810395240783691,-0.18189102411270142,0.025098267942667007,0.01293729804456234,0.1460757851600647,0.013268804177641869,-0.03383856639266014,-0.616620659828186,-0.8606818914413452,-0.6855752468109131,-0.31148838996887207,0.1114947497844696,-0.1566673219203949,-0.29719623923301697,0.33190375566482544,-0.9174420833587646,-0.32475587725639343,0.4038112163543701,-0.12431412190198898,0.4290377199649811,0.19762995839118958,0.006012055091559887,0.2069830298423767,-0.19266174733638763,-0.3444331884384155,0.36773112416267395,-0.1736939549446106,0.07478370517492294,-0.07061920315027237,-0.029311593621969223,0.0373288169503212,0.14897030591964722,-0.020726950839161873,-0.05813894793391228,0.4877820909023285,0.0837617889046669,-0.018692679703235626,-0.04930758848786354],[-0.1589854657649994,-0.10422586649656296,-0.5347961187362671,-0.8124510645866394,-0.4970199167728424,-0.49191805720329285,-0.1745225191116333,0.029973536729812622,-0.5680124759674072,0.19776660203933716,-0.1436309516429901,-0.13601915538311005,1.7497574090957642,-0.6910993456840515,-0.787907063961029,1.0922675132751465,-0.5465714931488037,-0.33833158016204834,-0.059436194598674774,-0.23035120964050293,0.07442182302474976,0.23697592318058014,-0.7275709509849548,0.4008212387561798,0.4310630261898041,-0.019332725554704666,0.22728319466114044,0.18915298581123352,0.1378568410873413,0.4284107983112335,0.8627636432647705,0.4591066837310791,0.5503666400909424,0.20401862263679504,0.0019227543380111456,0.6305865049362183,0.43803369998931885,-0.19660581648349762,0.3350945711135864,0.974460244178772,-0.15971826016902924,0.2998405992984772,0.11650746315717697,-0.3981822729110718,0.33223968744277954,0.14140628278255463,-0.10510881245136261,0.2727459669113159,0.3535384237766266,-0.399640291929245,0.6396839022636414,0.1490640938282013,-0.011529779061675072,0.20688138902187347],[-0.035208165645599365,0.3968496322631836,-0.2912063002586365,0.005006113089621067,-0.19322502613067627,-0.7473484873771667,0.1861337572336197,-0.43260467052459717,-0.823841392993927,-0.15108926594257355,-0.11970451474189758,0.20766063034534454,0.3705129325389862,0.9913070797920227,-0.5060527324676514,0.4666551649570465,0.20436163246631622,-0.22534039616584778,-0.5472590327262878,0.13599814474582672,0.07392092049121857,-0.4715161919593811,-0.37344881892204285,-0.653137743473053,-0.02076004259288311,0.16501109302043915,-0.1855574995279312,0.11557983607053757,-0.3886665105819702,0.23980508744716644,-0.03522911295294762,0.03117988631129265,0.6445435881614685,-0.18380944430828094,0.549086332321167,0.8498352766036987,-0.04103514179587364,-0.30399036407470703,0.26578840613365173,-0.5533086061477661,0.3603452146053314,0.2275124043226242,-0.24754156172275543,-0.1932166963815689,-0.08470801264047623,0.0730380192399025,-0.35761064291000366,0.23696668446063995,-0.3436504602432251,-0.2963181436061859,-0.007840564474463463,0.06595660001039505,-0.21645312011241913,0.011733596213161945],[-0.3614029586315155,1.165168285369873,-0.5310983061790466,-0.5089569091796875,1.108108639717102,-0.7085250020027161,-0.4690748453140259,0.41712814569473267,-0.35300442576408386,-0.4706875681877136,0.08138059824705124,-0.12437157332897186,-0.8418970704078674,0.5157982707023621,0.05299776419997215,-0.22554859519004822,0.005115666892379522,-0.19649638235569,-0.3729133903980255,-0.12814876437187195,-0.029925115406513214,-0.5579443573951721,0.5952821969985962,0.18177521228790283,-0.5808401703834534,0.4060763120651245,-0.03020913526415825,0.3636755645275116,-1.0635706186294556,0.47434449195861816,0.5788628458976746,-1.19777512550354,0.692271888256073,0.5020505785942078,-0.4415210783481598,0.35470277070999146,0.03884771466255188,-0.009885547682642937,-0.029946863651275635,-0.7380686402320862,-0.1701553612947464,0.5705643892288208,0.1855124533176422,0.06402632594108582,0.13487033545970917,-0.03766424208879471,-0.24707134068012238,0.05141431838274002,0.012096656486392021,-0.2934556007385254,0.04009817913174629,0.3477780818939209,-0.6968225240707397,0.20935562252998352],[0.032831985503435135,0.048956248909235,-0.1901358962059021,0.13152305781841278,-0.4552638828754425,-0.04414696618914604,0.061982348561286926,0.03487224131822586,0.22694148123264313,-0.09914907068014145,0.018144944682717323,-0.03680732473731041,-0.003850210690870881,0.3069334626197815,-0.3506804406642914,0.09081706404685974,-0.05905007943511009,0.03025118075311184,-0.13844896852970123,-0.23321163654327393,0.2079712301492691,-0.2500142753124237,-0.6344485878944397,-0.3413347005844116,0.2500585615634918,0.019919486716389656,-0.18940894305706024,-0.09190972149372101,-0.06339583545923233,0.2975468635559082,-0.11456172168254852,0.4746490716934204,0.07147607952356339,-0.003829328343272209,0.010158637538552284,-0.33196744322776794,0.08112534135580063,0.014111511409282684,-0.06554575264453888,0.41817402839660645,0.341323584318161,-0.07730043679475784,0.046302635222673416,0.165897399187088,-0.13646180927753448,0.32215237617492676,-0.3398638367652893,0.07010943442583084,0.8736685514450073,-0.6025131940841675,0.2104627788066864,0.4976743459701538,0.32441118359565735,0.13900849223136902],[-0.133894145488739,0.2133011817932129,0.36684638261795044,1.0478477478027344,0.4267745018005371,0.05662042275071144,0.7714592218399048,0.14780335128307343,0.312075138092041,-0.2463739961385727,-0.2677578926086426,0.3102218508720398,-0.06967921555042267,0.3277585804462433,0.36198797821998596,0.5245790481567383,0.4252184331417084,0.49875330924987793,0.03212612494826317,0.06463777273893356,0.1319061517715454,0.18343359231948853,0.1551341861486435,0.0606861375272274,0.5805243253707886,0.0323481410741806,0.2805713713169098,0.008740782737731934,-0.17152243852615356,-0.4225409924983978,-1.0084044933319092,-0.3250337839126587,0.07984647154808044,-0.8078963756561279,-0.16175787150859833,-0.33105289936065674,-0.24478720128536224,-0.021489659324288368,0.1426263004541397,-1.0039221048355103,0.47755852341651917,-0.07436147332191467,-0.6516708731651306,0.6677486896514893,0.11167454719543457,-0.22316677868366241,0.1532175987958908,0.011358643881976604,-1.0350273847579956,0.09044815599918365,0.04985857754945755,-0.8337392807006836,0.22539940476417542,0.13768349587917328],[-0.23594814538955688,-0.5538012385368347,0.06660962104797363,-0.41524073481559753,0.9820129871368408,0.46596187353134155,-0.02302625961601734,0.6968520283699036,0.5839225649833679,-0.0649852305650711,-0.10086227208375931,0.3466966450214386,-1.481690526008606,0.5187118053436279,0.42651239037513733,-0.47449636459350586,0.05020774155855179,0.3233409821987152,-0.09925386309623718,0.20776678621768951,0.22666171193122864,-0.6788689494132996,0.48631420731544495,0.27024251222610474,0.02040788158774376,0.08130250871181488,0.06303782761096954,0.20799021422863007,0.6026212573051453,0.029800277203321457,0.33382952213287354,-1.053184151649475,-0.427701473236084,0.17188061773777008,-0.6690521836280823,-0.5691438913345337,0.3121277689933777,0.06633388251066208,0.14928629994392395,-0.27504962682724,-0.6444351673126221,-0.3819984495639801,-0.014889586716890335,-0.09510091692209244,0.050502706319093704,0.22676396369934082,-0.009555917233228683,0.05300179496407509,-0.3625114858150482,-0.8951080441474915,-0.01730513758957386,-0.12306554615497589,-0.2970811128616333,0.17701561748981476],[-0.18455903232097626,0.4556896984577179,0.28400591015815735,0.24597378075122833,-1.0899370908737183,0.06509386748075485,-0.034460827708244324,-0.6254062056541443,0.05370998755097389,-0.28349268436431885,0.08773812651634216,0.13894309103488922,-0.4499801695346832,0.5129537582397461,0.447700172662735,-0.41255390644073486,-0.1017451360821724,0.3518439531326294,-0.3517232835292816,-0.030538257211446762,0.2149372547864914,-0.7755945920944214,0.04402965307235718,0.6750186681747437,-0.7600304484367371,-0.016804954037070274,0.3620339334011078,0.23725347220897675,-0.3982486426830292,-0.17498187720775604,-0.23059511184692383,1.0202910900115967,-0.04972067102789879,-0.1078106015920639,0.6254445910453796,-0.011132515966892242,0.22393064200878143,0.06331215053796768,-0.13309301435947418,0.18999439477920532,0.5521108508110046,-0.26205095648765564,0.24560073018074036,0.31771713495254517,0.37200063467025757,0.1573401540517807,-0.3984520733356476,0.03923935443162918,0.2736375331878662,-0.7650728821754456,-0.06415891647338867,0.47640740871429443,-0.2337150126695633,0.7051970958709717],[-0.17328940331935883,-0.3716592788696289,-0.2528051733970642,0.23702076077461243,-0.5828558206558228,-0.4841437339782715,-0.2316937893629074,0.0668681263923645,-0.2392892837524414,-0.22101086378097534,-0.260153204202652,-0.11822186410427094,0.3657171130180359,0.33777299523353577,-0.21001528203487396,0.049905356019735336,0.10854674130678177,0.1101633608341217,-0.2108740657567978,-0.2206234186887741,-0.0300961434841156,-0.23012086749076843,0.26259520649909973,-0.16236944496631622,-0.8959620594978333,-0.018449755385518074,0.36980926990509033,0.03307958319783211,0.3016313314437866,0.2461899220943451,-0.17877307534217834,0.5534175038337708,0.44816842675209045,0.16658195853233337,-0.1518300175666809,0.38831397891044617,0.14595851302146912,-0.2242840826511383,0.12692858278751373,0.3350364565849304,0.6453233361244202,0.09665782004594803,-0.20773087441921234,0.03574289008975029,-0.10364948213100433,0.2393135130405426,-0.44886207580566406,0.14491063356399536,0.5191565752029419,0.14240016043186188,-0.37614521384239197,0.6806896924972534,-0.09520281851291656,-0.11779321730136871],[-0.17433562874794006,0.16599048674106598,-0.22560177743434906,0.7984949946403503,-1.1570175886154175,0.05573101341724396,0.7899714112281799,-0.6680155992507935,-0.6583911776542664,-0.17295177280902863,-0.060080260038375854,0.24995256960391998,0.3271556496620178,-0.45818954706192017,0.13392916321754456,0.05510081723332405,-0.33680498600006104,-0.6711516976356506,-0.16469836235046387,0.35711732506752014,0.21527834236621857,-0.24103212356567383,-0.11850918084383011,0.5489169955253601,-0.4073081314563751,0.02752431109547615,-0.38510826230049133,0.092422716319561,-0.06592467427253723,0.15159957110881805,-0.8630735874176025,1.0439176559448242,-0.012462228536605835,-0.8901401162147522,0.7669805884361267,0.639618456363678,-0.2051178365945816,0.10982413589954376,0.09669176489114761,-0.6671899557113647,0.19665434956550598,-0.44791147112846375,-0.4724457263946533,-0.3547609746456146,-0.6097039580345154,-0.02382940985262394,0.11659408360719681,-0.08222725987434387,0.3838863670825958,-0.1663428097963333,-0.30424070358276367,0.03941279277205467,-0.8285706639289856,-0.8818255066871643],[-0.06177132576704025,-0.002611450618132949,-0.07643849402666092,-0.3740410804748535,-0.670728325843811,0.2614509165287018,-0.0720992162823677,-0.1420895904302597,-0.23407858610153198,0.022558176890015602,-0.06717167794704437,0.24849608540534973,-0.03144839033484459,0.7981854677200317,-0.2395666390657425,0.20622430741786957,-0.039532873779535294,-0.4894128441810608,-0.25207218527793884,-0.22937962412834167,0.33090245723724365,0.4641050398349762,0.20433971285820007,-0.427970826625824,0.5315309762954712,-0.01849120855331421,-0.4662509262561798,0.1331581324338913,0.0843658372759819,0.05259256064891815,0.3735688626766205,0.6125841736793518,-0.21304960548877716,0.0995386466383934,0.20969229936599731,0.15628382563591003,-0.12689058482646942,0.027236968278884888,0.19233883917331696,0.4453239142894745,0.9726054668426514,-0.21800410747528076,0.23339714109897614,0.008723840117454529,0.2336316704750061,0.06375517696142197,0.12800972163677216,0.09905499219894409,1.2109918594360352,0.433115690946579,0.0009629676351323724,0.44099873304367065,-0.1676260083913803,0.17658038437366486],[-0.07756247371435165,-0.37543755769729614,-0.4244450032711029,0.09137388318777084,0.10077394545078278,0.40750521421432495,0.5391705632209778,-0.02230066806077957,0.705559253692627,-0.003098604502156377,-0.15900647640228271,-0.05448601767420769,-0.05252762511372566,-0.17124542593955994,0.3419575095176697,0.39089712500572205,-0.15533506870269775,0.031822338700294495,-0.057461757212877274,-0.044865094125270844,0.1478433907032013,-0.5219224095344543,0.2250911146402359,0.663236141204834,-0.15758858621120453,-0.07491566240787506,0.061241891235113144,0.06336172670125961,0.27632632851600647,0.3992621898651123,-0.11756185442209244,-0.1097465306520462,-0.40182438492774963,-0.5464379787445068,0.11712251603603363,-0.6371766328811646,0.08709339797496796,-0.09245037287473679,0.21010316908359528,0.15458102524280548,0.5823371410369873,-0.4660094976425171,-0.32031822204589844,0.13495224714279175,-0.34926122426986694,0.19317929446697235,0.1660906970500946,0.11822526156902313,0.9266907572746277,0.061482399702072144,-0.04923015087842941,-0.19390280544757843,0.04323728755116463,-0.07986889034509659],[-0.10495095700025558,-0.15405720472335815,-0.06267023831605911,0.11248818784952164,-0.12368093430995941,0.9022722244262695,0.5962110161781311,-0.453284353017807,0.20164358615875244,-0.013851839117705822,0.048554375767707825,0.07222408056259155,-0.4297643005847931,0.1644216626882553,-0.054025448858737946,0.5380755662918091,0.37263742089271545,-0.07714369893074036,0.05057531222701073,0.11814775317907333,-0.12569476664066315,0.09051583707332611,-0.6321742534637451,-0.11802584677934647,0.3599317669868469,0.024751845747232437,-0.1615341752767563,0.08458831906318665,0.12083039432764053,0.04647792503237724,-0.251186728477478,0.14917708933353424,-1.0143779516220093,-0.5985947847366333,0.36339375376701355,-0.2549334764480591,0.20385557413101196,0.13431574404239655,0.5967889428138733,0.041513003408908844,0.15778601169586182,-0.3501858115196228,-0.2112952172756195,0.21984364092350006,-0.20817869901657104,0.020334992557764053,0.3523452579975128,0.20398399233818054,0.947410523891449,-0.13125433027744293,-0.020874755457043648,0.4270782172679901,-0.20881809294223785,-0.23771558701992035],[-0.10660575330257416,0.4270216226577759,-0.03744066134095192,-0.3202323615550995,-0.6824432611465454,0.4068758189678192,-0.4469155967235565,-0.866925835609436,0.06694835424423218,-0.05347052216529846,-0.0941023975610733,-0.017904797568917274,-0.6354818344116211,-0.8814685940742493,0.07294931262731552,0.00941876508295536,-0.3884689509868622,0.3596867322921753,-0.41383108496665955,-0.4374504089355469,0.1430533230304718,-0.6017136573791504,-0.7391194701194763,-0.06827359646558762,-0.3462262451648712,-0.0696474015712738,0.3222602307796478,0.013324863277375698,-0.4080008566379547,-0.051671888679265976,0.2684327960014343,0.5425124168395996,-0.5363069772720337,0.4573855698108673,0.8885352611541748,-0.1682157963514328,0.011407110840082169,-0.21337169408798218,-0.10943489521741867,0.5257309675216675,-0.014913645572960377,0.043124087154865265,0.27140122652053833,0.21781732141971588,-0.10401669144630432,0.3018496334552765,-0.6239486932754517,0.005038774572312832,0.3300325870513916,-0.6078494191169739,0.18385210633277893,0.1412571221590042,-0.9318143725395203,-0.09810902923345566],[-0.17753568291664124,0.12161102145910263,-0.6573215126991272,-0.47436633706092834,0.22185835242271423,-0.5447896122932434,-0.4542686641216278,0.6419723033905029,-0.1429176777601242,-0.06858751177787781,-0.09967388957738876,-0.012830623425543308,0.024794818833470345,0.26844918727874756,-0.1819002777338028,-0.06262440234422684,0.4081651270389557,-0.3759377896785736,-0.27352356910705566,-0.2060379534959793,-0.016054008156061172,-0.6796855926513672,0.1223752424120903,-0.010752825997769833,-0.7346946001052856,0.5967647433280945,-0.20359429717063904,0.15956968069076538,-0.18236812949180603,