{"config":{"input_dim":54,"hidden_dim":128,"num_layers":1,"dropout":0.0,"state_head_dropout":null,"traj_head_dropout":null,"future_steps":6},"tensors":{"gru.weight_ih_l0":{"shape":[384,54],"data":[[-0.09844600409269333,-0.03254357725381851,0.04357200860977173,-0.06449607759714127,0.35413333773612976,0.4395473301410675,-0.1740553379058838,-0.21989908814430237,0.723746120929718,-0.029415031895041466,-0.16384223103523254,0.21016380190849304,0.00818360410630703,-0.40370282530784607,-0.27075302600860596,-0.04216443747282028,-0.3915547728538513,0.009076034650206566,-0.007575970143079758,-0.2297944873571396,0.14740706980228424,0.0438634492456913,-0.6729978322982788,-0.5535905361175537,0.14187371730804443,-0.23177319765090942,-0.1414918154478073,0.10508500039577484,0.10817552357912064,-0.001059980597347021,0.048440102487802505,-0.3247580826282501,-0.3745325207710266,0.047916002571582794,0.21750783920288086,-0.64506995677948,-0.0693075880408287,-0.18384340405464172,-0.0390813909471035,-0.09128900617361069,0.037966471165418625,0.15840378403663635,-0.010693009942770004,-0.04270346090197563,-0.4026425778865814,-0.031245209276676178,-0.11088073253631592,0.0459454171359539,0.11839471012353897,-0.04502096027135849,0.15813127160072327,0.21189984679222107,-0.026535768061876297,-0.3971276879310608],[0.0850810781121254,0.6801530122756958,0.3191792964935303,0.18144671618938446,-0.6182337999343872,0.2097587287425995,0.09399040043354034,-0.0037729418836534023,0.3824130892753601,-0.21617364883422852,0.19254514575004578,0.17744849622249603,-0.23713260889053345,-0.11562824249267578,-0.1455029845237732,0.2235165387392044,-0.29650652408599854,-0.3269449770450592,-0.0053301178850233555,0.027547312900424004,0.13582582771778107,0.05071333423256874,-0.39975664019584656,-0.19754855334758759,-0.05931057780981064,-0.37064871191978455,-0.2451121211051941,0.027303075417876244,-0.7248839139938354,-0.2608061730861664,-0.19515924155712128,0.6919956803321838,-0.3634744882583618,-0.08837690204381943,-0.052658263593912125,-0.3609684407711029,-0.06888926029205322,-0.037951692938804626,0.0547887347638607,0.22803999483585358,0.0777442529797554,-0.3576435148715973,0.24403759837150574,-0.2824704647064209,-0.25320619344711304,0.14799121022224426,0.11674086004495621,0.300538033246994,0.4353792667388916,0.010777267627418041,-0.34872278571128845,-0.23345895111560822,-0.07393161952495575,-0.20766952633857727],[0.0036740778014063835,-0.08290214836597443,0.16828925907611847,-0.07304218411445618,0.16366110742092133,-0.1361990123987198,0.053722310811281204,-0.2596532702445984,-0.22542648017406464,0.18199071288108826,-0.02267776057124138,-0.1683594137430191,-0.1263258308172226,-0.1454073041677475,-0.5153420567512512,-0.08622833341360092,-0.024804990738630295,-0.18333637714385986,0.04763153940439224,-0.14691230654716492,-0.09565296024084091,-0.14010494947433472,-0.11719849705696106,-0.05463819578289986,-0.06337995082139969,0.02082412876188755,0.06385556608438492,0.07245293259620667,-0.0005723725771531463,-0.1180976927280426,0.06636036932468414,-0.21800962090492249,0.1860005408525467,-0.09915485233068466,0.2946570813655853,0.10028376430273056,0.141478031873703,-0.1724318265914917,-0.15241853892803192,0.3895004093647003,-0.19902876019477844,-0.28191807866096497,0.24923542141914368,0.521666407585144,-0.24190784990787506,0.3142774701118469,-0.21253708004951477,-0.06482332944869995,0.3743067979812622,-0.17854668200016022,-0.24510499835014343,0.3633716106414795,0.38311514258384705,-0.3295603394508362],[0.10214906930923462,-0.05897022783756256,-0.045699525624513626,0.03946380689740181,0.06978177279233932,-0.49984070658683777,-0.02015223167836666,-0.21942491829395294,0.2463778406381607,0.1052478477358818,0.09561225771903992,-0.13080187141895294,-0.029710544273257256,-0.00888670701533556,-0.21288485825061798,0.06713685393333435,0.07602950930595398,0.0152607886120677,0.11626866459846497,0.08548446744680405,-0.060140036046504974,0.07169264554977417,0.11915156990289688,-0.03522256389260292,0.09295550733804703,0.25211697816848755,-0.11044884473085403,-0.053534623235464096,-0.007913078181445599,0.07639911770820618,-0.04456682130694389,-0.023051729425787926,0.4852531850337982,-0.05218945071101189,0.26454827189445496,-0.14723552763462067,0.118697889149189,0.11865618079900742,0.05195976048707962,0.04154425114393234,-0.009571563452482224,0.1441359519958496,-0.16534575819969177,0.15896758437156677,-0.18699945509433746,-0.003858559764921665,0.04169365018606186,0.056994255632162094,-0.15795089304447174,0.23469720780849457,-0.19106069207191467,-0.3757336139678955,0.18175208568572998,-0.18741348385810852],[-0.0519411526620388,0.24830098450183868,0.08741938322782516,-0.10499826818704605,-0.2352873533964157,-0.013689815998077393,-0.4814110994338989,-0.0035510121379047632,0.013931822963058949,-0.024594711139798164,-0.19080454111099243,0.015924202278256416,-0.28547558188438416,0.10031867772340775,-0.03568039461970329,-0.18602457642555237,0.4836195111274719,0.1437813937664032,-0.06702311336994171,-0.4240034222602844,0.02888789214193821,-0.07487856596708298,0.024038078263401985,-0.11182640492916107,-0.15002314746379852,0.2465965747833252,0.028988540172576904,9.565169602865353e-05,-0.24839717149734497,-0.09776313602924347,0.1709917187690735,0.16442763805389404,-0.09124071896076202,0.5076314210891724,-0.09302275627851486,0.12053965032100677,0.007544392719864845,-0.2029450386762619,0.10831185430288315,0.16853956878185272,0.300788015127182,-0.1316048800945282,0.32155123353004456,0.18443210422992706,-0.08182020485401154,0.09534221142530441,-0.009645127691328526,0.2131071537733078,0.20477905869483948,-0.12201575934886932,0.01861458085477352,0.3224637806415558,-0.26440921425819397,-0.0009932032553479075],[0.05833453685045242,0.25316423177719116,0.26845577359199524,0.07765943557024002,0.06197459250688553,0.07328125089406967,-0.2384408563375473,-0.35661590099334717,-0.163969486951828,0.11496187001466751,-0.08367500454187393,0.14625629782676697,0.31055134534835815,-0.09919947385787964,0.20970021188259125,-0.14580455422401428,0.0702834278345108,0.09593934565782547,0.23117613792419434,-0.055635299533605576,-0.0058004967868328094,0.7870530486106873,-0.27912259101867676,0.15753717720508575,0.033906593918800354,-0.0624527633190155,0.18349258601665497,-0.0834701880812645,-0.2606983482837677,-0.1756879985332489,-0.06988339871168137,-0.03611893579363823,0.04537603259086609,0.2091398388147354,0.31851962208747864,0.08049019426107407,0.05668291449546814,0.17114666104316711,-0.19750896096229553,0.18222802877426147,0.14425276219844818,-0.18499518930912018,0.38224858045578003,-0.12184526026248932,-0.3337160646915436,0.04345766082406044,-0.07788357883691788,-0.11384914815425873,0.553816556930542,-0.3145710825920105,-0.47948357462882996,0.3547246754169464,-0.4067206084728241,-0.6306653022766113],[0.025009434670209885,0.1063486859202385,0.3190159499645233,0.16638271510601044,0.2895660400390625,0.4079315662384033,-0.02392120659351349,0.42000362277030945,0.41058796644210815,-0.0459408238530159,-0.08236372470855713,0.009463557042181492,-0.06483704596757889,-0.11826405674219131,0.7576858997344971,-0.08087677508592606,0.01674669422209263,0.5665308237075806,0.09328815340995789,0.0007450482225976884,0.10605332255363464,0.11996744573116302,-0.11556318402290344,0.7872079014778137,0.0251003447920084,0.30516716837882996,0.17514540255069733,-0.08536560088396072,-0.1873599737882614,-0.22327515482902527,-0.11214085668325424,-0.21876388788223267,-0.45354098081588745,0.03975610062479973,-0.40475139021873474,-0.38962727785110474,0.07626616209745407,-0.1008443683385849,-0.0847691148519516,0.38921135663986206,0.026284679770469666,-0.22727997601032257,0.03993212804198265,-0.14139044284820557,-0.03999939188361168,0.2642313838005066,-0.061362721025943756,0.03258150443434715,0.6654471755027771,0.31274524331092834,-0.20483329892158508,-0.007750161457806826,0.18736863136291504,-0.009519923478364944],[-0.023564351722598076,-0.0019495229935273528,-0.04732277989387512,0.06940065324306488,-0.3838699162006378,0.4862288236618042,-0.13890939950942993,0.3519679307937622,0.39051175117492676,0.08593060076236725,-0.12493313103914261,0.09594903886318207,-0.10530831664800644,-0.8310750722885132,0.2881629168987274,-0.269645631313324,-0.018795626237988472,0.5727254748344421,-0.051206354051828384,0.07652418315410614,0.1388247162103653,0.14207440614700317,-0.7453253269195557,0.5532671809196472,-0.09009634703397751,-0.46775349974632263,0.5665081143379211,0.03286750614643097,0.021857354789972305,-0.012983358465135098,-0.1536460518836975,0.3299907445907593,-0.49826958775520325,0.15384799242019653,-0.3737332224845886,-0.3722432851791382,0.05331869423389435,-0.17247091233730316,-0.09720216691493988,0.06333047896623611,-0.4919399619102478,-0.8723133206367493,-0.05547961965203285,-0.10588021576404572,-0.25557416677474976,0.19961874186992645,-0.09650614112615585,0.05444826930761337,0.1883118599653244,-0.9573534727096558,-0.46041208505630493,-0.222908616065979,-0.6138795018196106,-0.052892234176397324],[0.032410357147455215,-0.3595477342605591,-0.17754003405570984,-0.731963038444519,-0.2920507490634918,-0.1893966645002365,-0.046959713101387024,0.6266637444496155,-0.5105307698249817,-0.10560570657253265,-0.08939039707183838,0.03864418715238571,-0.7085379362106323,-0.10846178978681564,-0.3810819685459137,-0.15596388280391693,0.577043354511261,-0.333173930644989,-0.23690365254878998,-0.06954719126224518,-0.0012845670571550727,-0.76915442943573,0.4101995527744293,-0.30709517002105713,-0.05491464585065842,0.7557743787765503,-0.4952135980129242,-0.05958857759833336,0.38212910294532776,0.1587735116481781,0.8206623196601868,0.3213593661785126,0.3476097583770752,0.0939461961388588,-0.7451644539833069,0.5069645643234253,-0.06276343762874603,-0.1152043268084526,0.01673140749335289,0.7762434482574463,-0.21168699860572815,0.1647620052099228,0.3785057067871094,-0.23478564620018005,0.37993302941322327,0.16171403229236603,0.06168832257390022,-0.14488914608955383,0.8523213267326355,0.11464803665876389,0.44290223717689514,0.39892858266830444,0.020130423828959465,0.11429979652166367],[-0.02644488774240017,-0.40137168765068054,-0.29373699426651,-0.05768889561295509,0.091351717710495,-0.015593859367072582,0.38201797008514404,0.03701622411608696,-0.05301520973443985,0.04747091978788376,-0.1567857563495636,-0.09288520365953445,-0.20648245513439178,-0.0010332318488508463,0.06604117155075073,-0.262531578540802,0.48809733986854553,-0.28361451625823975,-0.05850493535399437,-0.054213978350162506,0.030196333304047585,-0.09421201795339584,0.24436484277248383,-0.1373508721590042,-0.32653865218162537,0.2169734090566635,-0.36937057971954346,0.10484488308429718,0.5213630795478821,0.24116478860378265,0.07806943356990814,0.014175808988511562,-0.09728454053401947,-0.25612401962280273,-0.13905800879001617,0.14515486359596252,0.05933079123497009,-0.13005666434764862,0.07603604346513748,-0.07497165352106094,0.19115275144577026,0.19930920004844666,-0.18799223005771637,0.15273861587047577,0.29083290696144104,-0.001677132910117507,0.16428525745868683,0.025469759479165077,-0.02871609292924404,0.4126197099685669,0.07565829157829285,-0.04156580939888954,-0.03054693154990673,0.19858628511428833],[0.09455770999193192,-0.28915730118751526,0.21906033158302307,0.04696732759475708,0.4140471816062927,-0.23411092162132263,0.13165590167045593,-0.12356433272361755,-0.20671765506267548,0.1359558403491974,0.06170123815536499,0.06763797253370285,-0.1696401834487915,0.5156686902046204,-0.08454878628253937,0.043632373213768005,0.055413682013750076,-0.06486711651086807,-0.02605900540947914,0.2036411464214325,-0.1626981943845749,-0.3374413847923279,0.22954048216342926,-0.07608763128519058,0.09521540999412537,-0.0675482451915741,0.2516033351421356,0.07501763850450516,0.2786049246788025,-0.06999945640563965,-0.17955659329891205,-0.3095615804195404,0.2504782974720001,-0.12013676017522812,0.07743503898382187,0.10258815437555313,-0.1832110583782196,0.11520776897668839,-0.08316060155630112,-0.1301000416278839,-0.010543896816670895,0.18369023501873016,-0.0908907949924469,0.0813601091504097,0.11222418397665024,-0.24398955702781677,0.27112191915512085,-0.042518313974142075,0.07740260660648346,0.25327083468437195,-0.22373415529727936,0.004262134898453951,-0.04567887634038925,-0.02934860810637474],[-0.0771673172712326,0.06410238891839981,0.25369566679000854,0.19047705829143524,-0.09804966300725937,-0.6346776485443115,0.5381091833114624,-0.3082011342048645,-0.7058330774307251,-0.048489704728126526,0.005153319798409939,0.21006609499454498,0.19002440571784973,-0.08602753281593323,-0.5510046482086182,0.3886972963809967,-0.19991368055343628,-0.7542596459388733,0.22752155363559723,-0.13507726788520813,0.016690004616975784,-0.06382580101490021,-0.30061307549476624,-0.1810481697320938,0.01002102717757225,0.09826057404279709,-0.7714272141456604,0.08091950416564941,-0.11099839210510254,-0.1608719527721405,-0.1433926820755005,0.12042871862649918,0.5330166816711426,-0.4387879967689514,0.21953503787517548,0.5873967409133911,0.05717740207910538,0.08128516376018524,-0.11645578593015671,-2.0810784917557612e-05,0.08202709257602692,-0.15724541246891022,-0.1636713296175003,0.016287880018353462,-0.03067192994058132,-0.08086364716291428,-0.013829372823238373,-0.007750692777335644,-0.510317325592041,-0.09346381574869156,-0.486880898475647,-0.08387506753206253,0.21628515422344208,-0.402479887008667],[-0.12601415812969208,-0.5954927802085876,0.45847368240356445,-0.4933905005455017,-0.09369233250617981,0.1620500236749649,-0.16255395114421844,-0.009427716955542564,0.12435095012187958,-0.022514749318361282,-0.20027220249176025,0.1587335169315338,-0.6874455809593201,-0.09199005365371704,0.15011753141880035,-0.3672189712524414,-0.042450740933418274,0.12627623975276947,0.01835814118385315,-0.39811888337135315,0.11797862499952316,-0.6360989809036255,-0.34355929493904114,0.4220656752586365,-0.41388139128685,-0.3446611166000366,0.3741103410720825,0.06943951547145844,0.7410548329353333,-0.438441663980484,0.4871612787246704,0.19731049239635468,-0.17977210879325867,0.2230871617794037,0.043966129422187805,-0.005640385206788778,0.09458909183740616,-0.23196393251419067,-0.13049770891666412,0.5428096652030945,-0.2815132737159729,-0.35911935567855835,0.12444309145212173,0.30798423290252686,-0.40873828530311584,0.3018941879272461,-0.45739108324050903,-0.053202372044324875,0.7892017960548401,-0.38932740688323975,0.08901463449001312,0.3281092643737793,0.2598270773887634,-0.36438819766044617],[0.05402866378426552,0.07820241153240204,-0.05704960599541664,-0.00340130808763206,0.13086314499378204,0.13147476315498352,-0.17701447010040283,0.270590603351593,0.03232823684811592,0.2170698642730713,0.003394306870177388,-0.19375057518482208,-0.40015125274658203,-0.31154143810272217,-0.3644409477710724,-0.7487218379974365,0.050547823309898376,-0.14894859492778778,-0.03534706309437752,-0.11214980483055115,-0.0499277338385582,-0.7370871305465698,-0.49069422483444214,-0.07363395392894745,-0.6078401207923889,-0.18236881494522095,0.17934049665927887,0.009102012030780315,-0.013065794482827187,0.012901670299470425,0.1264297068119049,-0.1322239637374878,-0.12515856325626373,0.20107927918434143,-0.3838217258453369,-0.17473910748958588,-0.08265271037817001,-0.08364178985357285,0.012904181145131588,0.11226043105125427,-0.16859476268291473,-0.13841457664966583,0.2532437741756439,0.0731901004910469,-0.018439600244164467,-0.11603187024593353,0.13005340099334717,-0.021167095750570297,-0.2119368016719818,-0.20040130615234375,-0.2760988175868988,0.1397898644208908,-0.35360902547836304,-0.2959323227405548],[-0.0673091784119606,-0.4580727517604828,0.3328915536403656,0.2586090862751007,0.3008783161640167,0.2787672281265259,0.36198076605796814,-0.24221540987491608,0.31627362966537476,-0.026174644008278847,-0.19367918372154236,0.01458706520497799,0.21034352481365204,0.24119248986244202,0.09905032813549042,0.11279761791229248,0.521984338760376,0.30462148785591125,0.07846613228321075,-0.3687342405319214,-0.08293385058641434,0.16194577515125275,-0.06615845113992691,-0.2372242957353592,-0.07914403825998306,0.35848763585090637,-0.04232470318675041,0.014466885477304459,0.5124640464782715,-0.3181687295436859,-0.33152955770492554,-0.35493358969688416,-0.33414703607559204,-0.32515421509742737,0.28424397110939026,-0.373248428106308,0.21988916397094727,-0.12906010448932648,-0.2853417694568634,-0.4009947180747986,0.2316501885652542,-0.22627471387386322,-0.40449729561805725,0.9037683010101318,-0.10551179945468903,0.44533804059028625,-0.10894731432199478,0.017621682956814766,0.017292113974690437,0.05402130261063576,-0.09923657774925232,-0.24104148149490356,0.35276633501052856,-0.33950674533843994],[0.04471312090754509,-0.687605082988739,0.6948797702789307,-0.17834912240505219,-0.9930816888809204,-0.45643600821495056,-0.5019649267196655,-0.3740403354167938,0.06832829117774963,0.050145119428634644,-0.06743739545345306,-0.0396580845117569,0.18933627009391785,-0.31932583451271057,-0.4159683287143707,-0.013008874841034412,-0.7270426750183105,-0.17345848679542542,0.19024890661239624,0.01785433292388916,-0.021821437403559685,-0.40771976113319397,-0.1407775729894638,-0.19182220101356506,-0.2082151472568512,-0.44714102149009705,-0.05144691839814186,0.03651172295212746,0.6549584269523621,-0.7117015719413757,0.08841370791196823,1.0463988780975342,0.48622721433639526,0.4268661141395569,0.39535802602767944,-0.062481481581926346,0.11100371927022934,-0.0009086503414437175,0.02144772745668888,0.47085607051849365,-0.042933594435453415,0.3357652723789215,0.2656850516796112,-0.21833691000938416,0.15954793989658356,0.13177844882011414,0.16139990091323853,0.018943076953291893,0.15226870775222778,0.36509689688682556,0.053728047758340836,0.3793473541736603,0.26310229301452637,0.20439413189888],[-0.0019696964882314205,0.08704936504364014,0.02021985687315464,-0.2730542719364166,0.5242796540260315,0.5108799934387207,-0.26955050230026245,0.31497421860694885,-0.10093770176172256,-0.1307196170091629,-0.12698152661323547,-0.16385191679000854,-0.49110427498817444,-0.1601225584745407,0.07169321179389954,-0.26631960272789,-0.09568284451961517,0.12587976455688477,0.01366876345127821,-0.9571091532707214,-0.21064266562461853,0.022922659292817116,-0.5399889945983887,0.048030346632003784,-0.36126282811164856,0.08907746523618698,0.02636479213833809,0.07603655755519867,-0.05901161953806877,0.03778577595949173,0.22368790209293365,-0.5300284624099731,-0.6246677041053772,0.26589319109916687,-0.37128913402557373,0.0961073487997055,0.010005918331444263,-0.02778906747698784,0.034726906567811966,0.15743215382099152,-0.3115682601928711,0.011772272177040577,0.41339755058288574,-0.21926461160182953,0.3579023778438568,0.03512066602706909,-0.2616121470928192,-0.049802571535110474,0.2018120437860489,-0.3108503520488739,0.5584685206413269,0.26137056946754456,0.1348976343870163,0.4635028839111328],[0.04597950726747513,0.04066973179578781,0.21619021892547607,0.2516428530216217,-0.392624169588089,-0.059613656252622604,0.12861692905426025,0.06136491894721985,-0.13961799442768097,-0.12126488238573074,0.08867054432630539,-0.06003612279891968,-0.24079684913158417,0.489124596118927,-0.26452258229255676,-0.41611167788505554,0.23486584424972534,-0.3466792702674866,-0.2295999675989151,-0.20011477172374725,-0.04340692609548569,-0.27680203318595886,-0.4060329496860504,-0.2601906359195709,-0.47964662313461304,-0.3408066928386688,-0.08552862703800201,0.06560539454221725,-0.011692521162331104,-0.13795453310012817,-0.24853754043579102,0.35403138399124146,0.07884616404771805,-0.18375520408153534,0.10095027089118958,6.58848657622002e-05,0.09123551845550537,-0.03297187387943268,-0.021135445684194565,-0.12408504635095596,-0.24449127912521362,0.06346208602190018,-0.3141653835773468,-0.05233781784772873,0.11153841763734818,0.02365514077246189,0.21111808717250824,0.07676046341657639,-0.0381067655980587,-0.3810679316520691,-0.04692986235022545,-0.028090249747037888,-0.144451305270195,0.18411710858345032],[-0.11689791083335876,0.22891148924827576,0.25033003091812134,0.06304197013378143,0.5190215706825256,0.2422303557395935,0.002611172618344426,0.4662390649318695,0.16252321004867554,-0.18377482891082764,0.10978568345308304,0.15652996301651,-0.4332893192768097,0.26657772064208984,-0.1336926370859146,-0.4121676981449127,-0.06243051588535309,-0.18963052332401276,-0.1614661067724228,0.18567417562007904,-0.04388895630836487,-0.33163487911224365,-0.2987590432167053,-0.21931859850883484,-0.31145942211151123,-0.02660295180976391,-0.04106919467449188,-0.0036885899025946856,-0.27979862689971924,-0.2145610898733139,-0.028035204857587814,-0.5576112866401672,-0.22429159283638,0.11186229437589645,-0.3286251127719879,-0.2061898112297058,0.08893726021051407,0.04600753262639046,0.23711267113685608,-0.5979440808296204,-0.08235957473516464,-0.013424290344119072,-0.003414785722270608,-0.04043110832571983,-0.20300514996051788,-0.06229238584637642,0.1493975818157196,0.05899451673030853,-0.5299081206321716,0.05664833262562752,-0.08829247951507568,0.014407825656235218,0.14045603573322296,-0.37013915181159973],[0.0683123767375946,-0.17434102296829224,-0.221652090549469,-0.18328610062599182,0.2993248701095581,-0.10018935054540634,0.07906494289636612,0.8160909414291382,-0.12386523932218552,-0.09150565415620804,-0.17955166101455688,0.08404216170310974,-0.3484037518501282,0.3829890191555023,0.11958234012126923,0.21670617163181305,0.22065024077892303,0.07027123123407364,-0.1538461446762085,-0.3184957206249237,-0.013801462016999722,-0.10664092749357224,-0.33967623114585876,0.3713109791278839,0.15316970646381378,-0.3071635663509369,0.44888532161712646,-0.0732344463467598,0.15700016915798187,0.1381821185350418,0.10933785885572433,-0.2860265076160431,0.19323047995567322,-0.12981468439102173,-0.817897617816925,0.17665202915668488,-0.09525085985660553,-0.03247350454330444,0.04690707474946976,0.1285209208726883,-0.0029437586199492216,0.31055888533592224,-0.3000181019306183,-0.264723002910614,0.31377458572387695,0.008700710721313953,-0.24933569133281708,0.094540074467659,0.37908604741096497,-0.17676784098148346,0.5139464139938354,-0.16352324187755585,-0.3344339430332184,0.08142063021659851],[-0.10449925810098648,-0.10859204083681107,0.665213406085968,-0.24012942612171173,0.6164171099662781,0.1735081821680069,0.13196071982383728,0.33761098980903625,0.2936626672744751,0.03725552558898926,0.04838277027010918,0.48693186044692993,0.43070223927497864,0.09252108633518219,1.1653711795806885,0.42248979210853577,-0.21006034314632416,0.6133883595466614,0.2625100314617157,0.12450643628835678,0.2721157968044281,0.7476844191551208,0.8509940505027771,1.3692783117294312,0.6990641951560974,0.20078130066394806,0.1294790804386139,0.054731447249650955,0.15784403681755066,-0.6473460793495178,0.32492876052856445,-0.5018576383590698,-0.15255577862262726,-0.2634766697883606,-0.29688212275505066,-0.3018242418766022,-0.07913631200790405,0.14610600471496582,-0.1460409313440323,-0.7150411009788513,-0.19372065365314484,0.01107635535299778,-0.5155320763587952,-0.23301489651203156,0.18240657448768616,-0.12249522656202316,-0.08301620930433273,-0.11028043925762177,-0.5988002419471741,-0.08462416380643845,-0.07187885046005249,-0.3869107663631439,0.03718069940805435,0.13935250043869019],[-0.01413113996386528,-0.16685236990451813,-0.2355092316865921,0.18583035469055176,0.23617403209209442,-0.2684648931026459,0.07066304981708527,0.06378219276666641,-0.3579961061477661,0.0980270504951477,-0.193354070186615,-0.09641201049089432,-0.09703691303730011,0.002396451774984598,-0.42066556215286255,0.02094542235136032,0.06079511344432831,-0.23623459041118622,0.14302490651607513,-0.10770505666732788,-0.04352550208568573,-0.09912723302841187,0.046273235231637955,-0.33846843242645264,-0.1339002400636673,0.43367740511894226,0.006653439253568649,-0.11951494961977005,0.21950706839561462,0.22739621996879578,-0.19839459657669067,-0.20233985781669617,0.25342801213264465,-0.03208562731742859,-0.13002479076385498,0.4534093737602234,0.018833177164196968,0.01158292219042778,0.1981448084115982,-0.05728109925985336,-0.17821669578552246,0.44749128818511963,-0.07025612145662308,0.011830487288534641,0.2996521592140198,-0.12740850448608398,0.0495150089263916,0.047444552183151245,-0.17338252067565918,0.06110866740345955,0.10140043497085571,-0.14625148475170135,0.3479737937450409,-0.0770779624581337],[-0.06703875213861465,-0.24934057891368866,0.08093962073326111,-0.16664497554302216,-0.25392210483551025,0.14744791388511658,-0.12384703010320663,0.36067652702331543,-0.296620637178421,-0.014429224655032158,-0.07079675048589706,-2.101539575960487e-05,-0.39907389879226685,-0.34191104769706726,-0.1743445247411728,-0.4300402104854584,0.33356592059135437,-0.07464467734098434,-0.042442940175533295,-0.47356492280960083,0.03284989297389984,-0.4458191394805908,-0.6199712157249451,-0.05937017872929573,-0.3954811096191406,0.12782330811023712,0.06528271734714508,-0.006424029357731342,0.2088545858860016,-0.24714955687522888,0.018995126709342003,0.3542723059654236,-0.08430369943380356,0.21878445148468018,-0.3603002429008484,0.37993475794792175,-0.0645439550280571,0.07134591788053513,-0.056548431515693665,-0.2922753095626831,0.05537182092666626,-0.389926940202713,-0.18486464023590088,0.1276198774576187,0.12130636721849442,0.05884866788983345,-0.021139662712812424,0.02202514372766018,-0.17203772068023682,-0.2307540327310562,0.01013629324734211,0.22098036110401154,-0.07564383000135422,0.11634376645088196],[0.16788256168365479,-0.15454119443893433,-0.3841378688812256,0.05186082050204277,0.29114946722984314,-0.04952530935406685,0.052739568054676056,-0.0865393579006195,0.028250470757484436,0.07584726065397263,0.08656018227338791,-0.3179362118244171,-0.3707435727119446,0.48508650064468384,0.22701966762542725,0.20328430831432343,0.6701683402061462,-0.10563282668590546,-0.04548059403896332,0.09665463119745255,-0.23511630296707153,-0.30800512433052063,0.14246565103530884,0.2582497000694275,0.09337133914232254,0.418189138174057,-0.2762518525123596,-0.11011338979005814,0.1962982714176178,0.47746169567108154,-0.013921248726546764,-0.2743818163871765,0.047676850110292435,-0.016613978892564774,0.10596678406000137,-0.03534136712551117,-0.018670139834284782,0.047870486974716187,0.05653727799654007,-0.4944131374359131,0.1549588441848755,0.2163989394903183,-0.0775754302740097,0.30655473470687866,0.2685669958591461,-0.16791732609272003,-0.06966955959796906,-0.03655580058693886,-0.1827627569437027,-0.13931436836719513,0.4078126549720764,-0.09897812455892563,0.3848935663700104,0.2973574995994568],[-0.08418767899274826,0.09997408837080002,0.18200744688510895,0.06070316955447197,0.538408637046814,0.23824410140514374,0.18540136516094208,0.4063211679458618,0.35470104217529297,0.07712867856025696,0.08418368548154831,0.05866287276148796,0.12094729393720627,0.25199800729751587,0.043597664684057236,0.2763890326023102,0.150349959731102,-0.060161203145980835,0.35742348432540894,-0.056695714592933655,-0.01756538264453411,0.48239144682884216,-0.1374509334564209,-0.34384769201278687,0.3338233232498169,-0.036716777831315994,-0.3218357264995575,-0.018128179013729095,-0.05654402822256088,-0.1532244235277176,-0.028479112312197685,-0.6049530506134033,-0.28353744745254517,-0.20726628601551056,-0.4146535098552704,-0.2844536602497101,0.00957274530082941,0.1543705016374588,-0.26957830786705017,-0.20456565916538239,0.626868486404419,0.054196324199438095,0.00593831529840827,0.25392547249794006,-0.02169589325785637,-0.18359394371509552,-0.03541764244437218,-0.14849181473255157,0.11759201437234879,0.27206283807754517,0.06833095848560333,0.1605800986289978,0.2068013697862625,0.013472838327288628],[-0.04446564242243767,-0.637915849685669,0.429671972990036,0.18103106319904327,0.341152548789978,0.33404266834259033,0.12024378776550293,0.3613545596599579,0.6300906538963318,-0.01992565393447876,-0.056604448705911636,0.07085523009300232,-0.003618135815486312,-0.18105436861515045,-0.05903623253107071,0.11933395266532898,-0.21404032409191132,0.1742408126592636,0.10926610231399536,-0.3762398064136505,-0.04236314818263054,0.05121273174881935,-0.9368056654930115,-0.11484476923942566,-0.13154035806655884,-0.7302573323249817,0.153233140707016,-0.1030140146613121,0.5005388259887695,-0.41278761625289917,-0.10875800251960754,-0.2692529261112213,-0.371167927980423,-0.16758222877979279,-0.43180543184280396,-0.5686492919921875,-0.04229623079299927,0.14448265731334686,0.1976117640733719,0.20140044391155243,-0.3046257793903351,-0.12826885282993317,0.03549756854772568,-0.3609839081764221,-0.537219226360321,-0.0685465931892395,0.09248210489749908,0.2570602595806122,0.281202107667923,-0.4039299786090851,0.17111514508724213,0.13130861520767212,-0.4198637306690216,-0.3195539712905884],[-0.12045422196388245,0.22614265978336334,0.32749906182289124,0.10648071020841599,-0.7836819887161255,0.3058222234249115,-0.4975493550300598,0.10048722475767136,-0.06321316212415695,-0.19487810134887695,0.12100990116596222,0.22604382038116455,-0.10210471600294113,0.048819057643413544,0.6972659230232239,-0.3854423761367798,0.3147349953651428,0.6672570705413818,0.05474507063627243,0.4084835946559906,0.2608484923839569,0.09206494688987732,0.6614434719085693,1.1291241645812988,-0.266825407743454,0.7171318531036377,0.6883105039596558,0.17632828652858734,-0.17990751564502716,-0.3521605134010315,-0.07535672187805176,0.7636331915855408,-0.2617351710796356,0.3967839777469635,0.04220285639166832,0.017080551013350487,0.09499213844537735,-0.18276850879192352,-0.1982024610042572,0.5480111837387085,0.4156341552734375,-0.12391453981399536,0.3124406039714813,0.4072108268737793,0.02798406034708023,0.008897391147911549,-0.013567970134317875,-0.08215201646089554,-0.5651313066482544,0.34776604175567627,-0.1092531755566597,-0.2136646956205368,0.15739835798740387,0.27761465311050415],[-0.03369589522480965,-0.20788700878620148,0.04720662161707878,-0.16700927913188934,-0.03318541869521141,-0.10463976860046387,-0.07015584409236908,0.42918092012405396,-0.24896931648254395,0.16134510934352875,-0.15514124929904938,0.10281354188919067,-0.12855306267738342,-0.1927538365125656,0.07621477544307709,0.13887648284435272,0.31299930810928345,-0.5689038038253784,0.11855803430080414,-0.07025594264268875,-0.025432562455534935,-0.03571227565407753,-0.3730763792991638,0.03911304101347923,-0.0690775066614151,-0.3495144546031952,-0.49129197001457214,-0.07519852370023727,0.3129512369632721,-0.045583609491586685,0.09833656996488571,0.025958215817809105,0.1567838042974472,-0.011353668756783009,-0.3695569336414337,0.15070860087871552,0.08073610812425613,0.031296804547309875,-0.023786375299096107,-0.11996439099311829,0.18063074350357056,0.0858633890748024,0.19127538800239563,-0.14584805071353912,-0.17567098140716553,0.005273539572954178,0.0986102893948555,0.04129708930850029,-0.3836221694946289,0.5866444706916809,-0.19270050525665283,0.2646294832229614,-0.3048365116119385,-0.4681154191493988],[0.05046188086271286,-0.027499789372086525,0.007645022589713335,0.14244486391544342,0.059103239327669144,-0.15170127153396606,0.01062606368213892,-0.04696549475193024,-0.03813006356358528,0.014996340498328209,0.06761307269334793,0.08488062769174576,0.02353692799806595,0.046534087508916855,0.04083738848567009,-0.07461226731538773,-0.49937358498573303,-0.1140216514468193,0.009393964894115925,0.21030591428279877,0.0068669747561216354,0.030606329441070557,0.08969669789075851,-0.10383893549442291,-0.20851528644561768,-0.38553327322006226,-0.0909886434674263,-0.05206684395670891,-0.03230804577469826,0.007051592227071524,-0.1786341369152069,-0.21948719024658203,-0.0009963017655536532,-0.06239719316363335,-0.012997728772461414,-0.07149778306484222,0.046495676040649414,0.01638001762330532,0.023674512282013893,0.15854336321353912,-0.22609907388687134,0.28002145886421204,0.06368252635002136,-0.32009339332580566,0.13923020660877228,-0.05488099902868271,0.06826484948396683,0.15676714479923248,-0.00881508644670248,0.01643846556544304,0.03278940171003342,-0.05623680353164673,-0.2372744083404541,-0.027175752446055412],[0.0048841917887330055,-0.03865249454975128,0.24526169896125793,0.07203465700149536,-0.5330538749694824,0.14090585708618164,0.12378258258104324,0.07334253191947937,-0.03202883526682854,0.024521896615624428,0.05272389575839043,0.07962922751903534,0.2686895430088043,-0.03704993426799774,0.18068715929985046,0.25595274567604065,0.2552601099014282,-0.17441706359386444,-0.1880415678024292,0.1029229536652565,0.09401153028011322,-0.06213425472378731,0.4159467816352844,0.3442324101924896,0.15306468307971954,0.13853143155574799,-0.0026201773434877396,-0.07116556912660599,0.027217524126172066,-0.1971505880355835,-0.20344342291355133,0.5565093755722046,-0.10523390769958496,-0.019718274474143982,-0.20298664271831512,0.10492364317178726,-0.01010869164019823,0.02462838403880596,-0.022980492562055588,0.19011473655700684,0.47618669271469116,-0.4028395414352417,-0.0043360767886042595,0.053032130002975464,-0.14656835794448853,-0.028228646144270897,0.021547378972172737,0.0939137190580368,0.17035946249961853,0.6993338465690613,-0.46841609477996826,0.0026341292541474104,0.23625651001930237,0.015875689685344696],[-0.024373099207878113,-0.07955888658761978,0.5088552832603455,-0.2744736075401306,-0.6695547103881836,0.13608725368976593,-0.14746303856372833,0.3178326487541199,0.1169065609574318,-0.058420296758413315,-0.04598631709814072,0.18046751618385315,0.06780767440795898,-0.035971976816654205,0.4289492964744568,-0.0524621456861496,-0.07142972946166992,0.15937210619449615,-0.07229302823543549,-0.0035065962001681328,0.16926924884319305,-0.10251418501138687,0.11909954249858856,1.0073760747909546,0.2196156233549118,0.28991222381591797,0.3541252315044403,0.0069135213270783424,0.18370410799980164,-0.44767075777053833,0.189702570438385,0.5362011790275574,-0.16297145187854767,0.24742279946804047,-0.3751601278781891,-0.06755553185939789,0.05745043605566025,-0.16028445959091187,-0.12467009574174881,0.3089383542537689,0.3614554703235626,-0.008053348399698734,0.12527912855148315,0.2869773507118225,0.21840444207191467,-0.012614130042493343,0.0509767010807991,-0.03751581534743309,-0.019115092232823372,0.3706481456756592,0.15451709926128387,0.021093880757689476,0.47216546535491943,0.08644230663776398],[-0.0563553087413311,0.4007958173751831,-0.09991315007209778,-0.07949835807085037,0.2199951857328415,0.19981080293655396,-0.20169131457805634,0.07423683255910873,0.13866780698299408,-0.04657473415136337,-0.14244699478149414,0.18058113753795624,-0.6437827348709106,0.08435921370983124,0.1633548140525818,-0.4913288652896881,-0.007778886705636978,0.10853555053472519,-0.18677006661891937,0.1466342657804489,0.13210920989513397,-0.19072608649730682,-0.3025917410850525,0.20843611657619476,-0.12737354636192322,-0.3938143849372864,0.4968908727169037,0.06588245183229446,-0.35402151942253113,0.03453120216727257,0.1330394446849823,-0.129196435213089,-0.2543429732322693,0.2449125200510025,-0.006484097335487604,-0.11593853682279587,-0.18862035870552063,-0.217824786901474,-0.18660563230514526,0.557790219783783,-0.06928788870573044,-0.16947126388549805,0.46973639726638794,-0.12261953204870224,-0.13737143576145172,0.051165007054805756,-0.34522145986557007,-0.013714694418013096,1.1659947633743286,0.04466776177287102,0.2997441589832306,0.2138388752937317,-0.10393308848142624,0.11263903230428696],[-0.00218060240149498,0.20993360877037048,-0.320010244846344,0.2022182047367096,-0.13551369309425354,0.2565377950668335,0.623933732509613,-0.2830119729042053,0.20027434825897217,-0.15077903866767883,0.031226079910993576,-0.12287363409996033,-0.20521537959575653,0.32412227988243103,0.21308548748493195,0.2691649794578552,0.05898847430944443,-0.18871110677719116,-0.14515839517116547,-0.06479412317276001,-0.009963779710233212,0.2371251881122589,-0.10121271014213562,0.3699014186859131,0.35964447259902954,-0.21335604786872864,-0.24536453187465668,0.10505381971597672,-0.0745374783873558,0.3742258846759796,-0.19014301896095276,0.0868036225438118,-0.32003098726272583,-0.7086116671562195,0.27568408846855164,-0.24472950398921967,0.10940887033939362,0.07526794075965881,0.10789122432470322,-0.2587035298347473,0.3871779441833496,-0.3883320093154907,-0.4570479691028595,0.35496506094932556,-0.6388096213340759,0.10003756731748581,0.08336349576711655,0.11374568939208984,0.2047368586063385,0.004071880131959915,-0.3162914514541626,-0.2311200350522995,0.20093177258968353,-0.8030741810798645],[0.0147428372874856,-0.24530577659606934,0.18059110641479492,0.1298772543668747,0.14092320203781128,0.369276762008667,0.4740385115146637,0.013306641951203346,0.0031464151106774807,0.048562031239271164,-0.10944771021604538,-0.06551545858383179,-0.14189554750919342,-0.11874287575483322,0.5613728761672974,-0.05454198643565178,0.1876743882894516,-0.04921130836009979,-0.21958109736442566,-0.08234206587076187,-0.020834827795624733,0.19763454794883728,-0.04540157690644264,0.4327605366706848,0.1578318178653717,0.0571884959936142,0.00026373067521490157,0.07809001952409744,0.23780395090579987,-0.319523423910141,-0.258615642786026,-0.20645010471343994,-0.3421533703804016,-0.34775200486183167,0.014458240941166878,-0.05905899778008461,0.09342321008443832,0.10045056790113449,0.04807531461119652,-0.11833614856004715,0.20397168397903442,0.07129554450511932,-0.3457407057285309,0.2798174023628235,0.3261382579803467,0.14392320811748505,0.23037420213222504,0.06509985029697418,0.10889512300491333,0.6335042119026184,-0.11289868503808975,-0.23864330351352692,0.2894008755683899,0.1971643716096878],[-0.1551159769296646,-0.20511044561862946,0.16430871188640594,0.25812476873397827,-0.2226022183895111,-0.29541581869125366,0.11955679953098297,-0.3168192505836487,-0.05430594086647034,0.11537501215934753,-0.15883997082710266,0.03955685347318649,-0.14452098309993744,0.18082991242408752,-0.14255578815937042,-0.08640220761299133,0.5589775443077087,-0.016376860439777374,0.11370143294334412,-0.2291245460510254,0.12162277847528458,-0.10063773393630981,-0.2519780695438385,0.10469585657119751,-0.06661054491996765,0.23900021612644196,0.09505050629377365,0.052847616374492645,0.10633832961320877,-0.23550592362880707,-0.13321922719478607,0.17948958277702332,0.40671584010124207,-0.17329518496990204,0.18975576758384705,0.003556714626029134,0.13592755794525146,0.05781026557087898,0.19378067553043365,0.27274489402770996,0.06090114638209343,-0.07487841695547104,0.08361762017011642,0.20785681903362274,0.08434607088565826,-0.05050915479660034,0.13995563983917236,-0.03613116964697838,-0.2990323305130005,-0.08714605867862701,-0.1937149614095688,-0.09701237827539444,-0.07949479669332504,0.06003217026591301],[0.1195979118347168,0.23035278916358948,0.0075523508712649345,-0.06669363379478455,0.011751462705433369,0.7759466171264648,-0.11583320051431656,-0.3290162682533264,0.8907511830329895,0.09013337641954422,0.08123873919248581,0.011135885491967201,-0.14982226490974426,-0.22977471351623535,0.40886765718460083,-0.22013477981090546,-0.11134158819913864,0.29182082414627075,0.08746524155139923,-0.03682318702340126,-0.09086062759160995,-0.11095944792032242,-0.4728304445743561,0.17634789645671844,-0.2697094976902008,-0.2668898105621338,0.1726038008928299,-0.12283716350793839,-0.12897562980651855,-0.015870051458477974,0.12475971132516861,-0.01576121337711811,-0.8187499046325684,0.053937897086143494,0.3687111735343933,-0.9855744242668152,-0.0032047894783318043,0.02325347252190113,-0.06406821310520172,0.006071041338145733,0.1717754304409027,-0.19958429038524628,0.24991680681705475,0.5496104955673218,-0.4259628653526306,-0.18312469124794006,-0.23028050363063812,0.0455029234290123,0.34810584783554077,-0.004668509587645531,0.14402848482131958,0.38381054997444153,0.29884788393974304,-0.06142968684434891],[0.013066000305116177,0.07024555653333664,-0.17524637281894684,-0.012996078468859196,0.1392199546098709,-0.02136034518480301,0.13839443027973175,-0.15471616387367249,0.13747958838939667,-0.06827125698328018,-0.06995833665132523,0.062450774013996124,-0.2693522572517395,0.43074464797973633,0.11675634980201721,0.1314382553100586,0.21566392481327057,0.10458016395568848,-9.349157335236669e-05,0.09353336691856384,-0.056377965956926346,-0.24510954320430756,0.29082971811294556,0.04752931743860245,-0.06022176891565323,0.23000885546207428,-0.07876468449831009,-0.08124125748872757,-0.01649935357272625,0.17163650691509247,-0.07051266729831696,-0.14332906901836395,-0.008853291161358356,-0.13726414740085602,0.11810803413391113,-0.19376994669437408,-0.021924419328570366,0.12189599871635437,0.22763940691947937,0.3530842065811157,0.33486825227737427,0.11629508435726166,-0.053791243582963943,-0.06439682841300964,-0.10432557761669159,0.12153614312410355,0.026195628568530083,-0.013950271531939507,0.2756763696670532,0.19786697626113892,0.2042664885520935,-0.0865555852651596,0.11811739951372147,0.03340747952461243],[-0.01287014875560999,-0.17486155033111572,0.3201287090778351,0.29339951276779175,0.11755069345235825,0.8419181704521179,-0.20612575113773346,0.4550418257713318,0.5783482193946838,0.05363665521144867,-0.02244841307401657,0.20928746461868286,-0.03898842632770538,0.6545923352241516,0.6547546982765198,-0.06762447208166122,0.33395031094551086,0.5982824563980103,-0.05524611100554466,-0.04749896749854088,0.04118802398443222,0.33222976326942444,0.038187768310308456,0.2919808626174927,0.26379984617233276,-0.077827587723732,0.28897449374198914,0.14052240550518036,0.2801268994808197,-0.21352751553058624,-0.13236549496650696,-0.1352207511663437,-0.7306246161460876,0.06556179374456406,-0.4854169189929962,-0.6213812828063965,0.08357144147157669,0.05257764458656311,0.06818672269582748,-0.11914657056331635,0.7904894351959229,-0.9340934753417969,0.31276771426200867,0.28792187571525574,-0.22477437555789948,0.1140623539686203,0.04567742347717285,0.02307714894413948,0.22700555622577667,-0.18959130346775055,-0.724037766456604,0.275160014629364,-0.1267140507698059,0.014090495184063911],[0.00869346596300602,-0.2873406708240509,0.24087722599506378,0.16892024874687195,-0.5080088973045349,0.02731381542980671,0.12326215207576752,-0.46616387367248535,0.028313441202044487,-0.2520797550678253,-0.04878989979624748,-0.007004327606409788,-0.0456467904150486,-0.18887342512607574,-0.28275641798973083,0.08215173333883286,-0.753857433795929,-0.07957430928945541,0.002088491339236498,-0.1439245343208313,-0.0038253881502896547,0.0023047716822475195,-0.35355615615844727,0.1295538991689682,-0.09753502905368805,-0.5036166906356812,0.14322549104690552,0.09129265695810318,0.24666854739189148,-0.22554129362106323,-0.15353739261627197,0.39735156297683716,-0.06405729800462723,-0.0790160596370697,0.30264317989349365,0.021247630938887596,0.1970764398574829,-0.13897080719470978,-0.18104569613933563,0.23058436810970306,-0.2952300012111664,-0.10331884771585464,-0.13456179201602936,-0.3052792549133301,-0.02303539775311947,0.12981745600700378,-0.2825166881084442,-0.046041373163461685,-0.32261738181114197,-0.501022458076477,0.18626569211483002,-0.7791419625282288,-0.5297061204910278,0.26437002420425415],[-0.052893225103616714,0.6692195534706116,0.14809460937976837,-0.2415025383234024,0.27086496353149414,0.026595745235681534,0.01907183788716793,0.055548470467329025,0.05675998702645302,-0.11472396552562714,-0.03921934962272644,0.24164679646492004,-0.6916666030883789,0.4517194628715515,0.3185131847858429,-0.10825131088495255,-0.05674682930111885,-0.17102964222431183,0.007188734598457813,-0.2689637839794159,0.2740768492221832,-0.1704881340265274,-0.19378389418125153,0.5758709907531738,-0.2003432810306549,-0.23488160967826843,-0.017363879829645157,0.0960054025053978,-0.6898312568664551,-0.22760526835918427,0.2433892786502838,-0.32262274622917175,-0.04934085160493851,0.12366122752428055,-0.06712929159402847,-0.07510637491941452,0.06735347211360931,-0.05750512331724167,0.1188967153429985,0.10187576711177826,-0.04979158565402031,-0.06793151050806046,-0.19525901973247528,-0.187716543674469,-0.0849924087524414,0.12635678052902222,-0.2642718553543091,0.23698116838932037,-0.06634454429149628,-0.7734448313713074,0.05789485573768616,-0.26683762669563293,-0.3410313129425049,0.01564304158091545],[0.06719332933425903,-0.27054908871650696,-0.11672324687242508,0.21675992012023926,-0.3344958424568176,-0.0016730012139305472,0.1540278196334839,-0.015164732933044434,0.01053513865917921,-0.017869526520371437,-0.09109209477901459,0.038242775946855545,0.5717493295669556,-0.1441740244626999,0.17430250346660614,0.22617697715759277,0.12393350154161453,0.19529390335083008,-0.02134403958916664,-0.0083074439316988,0.176377072930336,0.0738830640912056,0.2204112410545349,0.1301693618297577,-0.1856968253850937,0.3965527415275574,0.06282729655504227,0.051128633320331573,0.18908663094043732,0.1595398634672165,-0.17773187160491943,0.3633265197277069,0.06839631497859955,-0.09445291012525558,0.09178473800420761,-0.13932017982006073,0.1415938287973404,-0.06031118333339691,0.15590712428092957,-0.279535710811615,0.17399488389492035,-0.14928682148456573,-0.17727620899677277,0.15669913589954376,-0.13789206743240356,0.3048594295978546,0.1415289342403412,0.18063212931156158,-0.13318601250648499,0.3802676498889923,-0.3368220329284668,0.04424836114048958,0.22938866913318634,-0.1495739370584488],[0.034900546073913574,0.12704291939735413,-0.07190216332674026,-0.09055593609809875,0.2737545669078827,0.12404897809028625,0.042719729244709015,0.5012257099151611,0.4828563630580902,-0.035703226923942566,0.075052909553051,-0.07634454220533371,-0.08761655539274216,-0.08621235191822052,0.3692988157272339,0.14163050055503845,-0.006893767975270748,0.27809807658195496,0.017560629174113274,0.24824301898479462,-0.031947892159223557,-0.1631484031677246,-0.07984296977519989,-0.09290885180234909,-0.0066893743351101875,0.17477022111415863,-0.21282905340194702,-0.1507008820772171,-0.03324532508850098,-0.05619106441736221,-0.07518481463193893,-0.2399330884218216,-0.15360836684703827,-0.052369292825460434,-0.539874792098999,-0.3866312503814697,-0.04936416819691658,0.05698709934949875,-0.10414718091487885,-0.4880918860435486,-0.08182807266712189,0.34899985790252686,-0.2218562364578247,-0.5211877226829529,0.0806407481431961,0.06418538093566895,0.2674933671951294,-0.13726554811000824,-0.13272155821323395,0.23149949312210083,0.03462838754057884,0.15130311250686646,-0.00804443284869194,0.49267420172691345],[0.014964447356760502,-0.4195762574672699,0.16967836022377014,0.57944655418396,0.4269493818283081,-0.13247674703598022,0.0964152067899704,0.4039286673069,-0.12395650148391724,0.08603634685277939,0.04058832675218582,-0.06763976067304611,0.1605035811662674,0.48975592851638794,0.15166525542736053,0.5752550959587097,-0.27269232273101807,0.5641862154006958,0.1256699413061142,0.015208699740469456,-0.00690515385940671,0.28746944665908813,0.05268571153283119,0.035446908324956894,0.603298008441925,0.12020203471183777,0.14692836999893188,-0.043598782271146774,0.4318597614765167,-0.1587887406349182,-0.5070176124572754,-0.38599783182144165,0.14436180889606476,-0.15478549897670746,-0.46224427223205566,0.06092572957277298,0.16029368340969086,0.042404111474752426,-0.2566412687301636,0.1226172223687172,0.20052537322044373,-0.2442137748003006,-0.6042619943618774,-0.2550767660140991,0.08628074079751968,-0.05733335018157959,-0.22225992381572723,-0.11642632633447647,-0.16548573970794678,-0.6568388342857361,-0.2713099718093872,-0.6531262397766113,-0.45266202092170715,-0.24709704518318176],[-0.03684179112315178,-0.4251956343650818,-0.23646128177642822,-0.4363258481025696,0.11977005004882812,-0.399152934551239,-0.1919875591993332,0.44160616397857666,-0.44953545928001404,-0.01760539598762989,0.034458380192518234,-0.05420832335948944,-0.1939374953508377,0.024028098210692406,-0.2882138192653656,-0.25948023796081543,0.181484192609787,-0.46789732575416565,-0.369579017162323,0.014848379418253899,0.07597089558839798,-0.35928875207901,-0.09674016386270523,-0.15070609748363495,-0.2099415510892868,0.15571348369121552,-0.008688750676810741,0.01917192153632641,0.5939244031906128,0.2624717652797699,0.5499626398086548,-0.22726678848266602,0.3982757031917572,0.12020070850849152,-0.5098412036895752,0.47441014647483826,0.14216075837612152,-0.016806134954094887,0.40401187539100647,0.8697322607040405,0.8683083653450012,0.63860684633255,-0.027968302369117737,0.41585367918014526,0.3329457938671112,0.04426499083638191,0.13803666830062866,0.16703157126903534,0.3107984960079193,1.325791835784912,0.5007593035697937,0.01889144442975521,0.6638875603675842,0.42213207483291626],[-0.02366398647427559,0.1676775962114334,0.5596616268157959,0.11553847789764404,0.10539619624614716,-0.4682050049304962,-0.4443347156047821,-0.12499775737524033,-0.13067510724067688,0.06695353239774704,0.01317497156560421,0.10210579633712769,-0.0687582790851593,0.4934908151626587,-0.18735699355602264,-0.7399041652679443,-0.26509878039360046,0.19544829428195953,0.25148752331733704,0.029880760237574577,-0.08060124516487122,-0.017018310725688934,0.6189032196998596,0.024870706722140312,-0.2614649832248688,-0.01402866467833519,0.2711680829524994,-0.026266777887940407,-0.022714678198099136,-0.49931684136390686,-0.0966736227273941,-0.07662944495677948,0.35063931345939636,0.4976103603839874,0.061099499464035034,0.1975523829460144,-0.13761399686336517,0.05710044875741005,-0.0759706050157547,0.3243239223957062,0.5043492913246155,0.45701760053634644,0.2748430073261261,0.21417441964149475,0.26259151101112366,0.044361408799886703,0.03796650096774101,-0.15581576526165009,0.013300295919179916,0.48383697867393494,0.23150810599327087,0.3052336275577545,0.10737908631563187,0.11558539420366287],[0.03361869603395462,0.05425509065389633,0.16317111253738403,-0.25550132989883423,0.7996689081192017,-0.14930950105190277,-0.23711630702018738,1.0107853412628174,-0.16743431985378265,0.016016678884625435,-0.07698523998260498,0.021637259051203728,-0.014755820855498314,0.34824758768081665,-0.013065987266600132,-0.16534961760044098,0.12054316699504852,0.19939447939395905,0.07735142111778259,-0.03914302960038185,-0.008338632062077522,0.46324020624160767,0.37859803438186646,-0.1445898562669754,0.16512872278690338,0.21963763236999512,-0.062398046255111694,-0.013305393978953362,0.06412810832262039,-0.1293482631444931,0.24928095936775208,-0.8783516883850098,0.17141273617744446,0.11404755711555481,-1.1214426755905151,0.22052708268165588,0.011845765635371208,-0.08630845695734024,-0.0765465721487999,0.07201887667179108,-0.008555344305932522,0.2734987437725067,0.06625829637050629,-0.17702241241931915,0.30708953738212585,0.024536211043596268,-0.12236052006483078,-0.0518140010535717,0.07227110862731934,0.18172086775302887,0.2465236485004425,0.2030194252729416,0.16888877749443054,0.19977128505706787],[-0.025692235678434372,0.05010521784424782,-0.030006054788827896,-0.06038711965084076,-0.09247471392154694,-0.15571413934230804,-0.28281259536743164,0.22578959167003632,-0.11828859895467758,0.026182495057582855,-0.07335126399993896,0.09514670073986053,0.0963079035282135,0.28990796208381653,0.07599308341741562,-0.13050833344459534,-0.09604039788246155,0.37794768810272217,0.06701608747243881,-0.011994827538728714,0.0005769547424279153,0.40295401215553284,0.19076292216777802,0.1940729171037674,0.051542267203330994,0.15477360785007477,0.4537847936153412,0.12275508791208267,-0.113418348133564,-0.019777940586209297,0.1408250480890274,0.16354455053806305,0.12263141572475433,0.2828652858734131,-0.3190847635269165,0.1543111801147461,0.0893251821398735,0.04121563956141472,-0.0036243093200027943,0.16729691624641418,-0.017482414841651917,0.3129075765609741,0.04568645730614662,-0.7571452856063843,0.3349103033542633,0.027934115380048752,-0.021625760942697525,0.027000702917575836,0.15851464867591858,-0.1477566957473755,0.3397265076637268,0.07356496155261993,-0.5405760407447815,0.44869866967201233],[0.06918466091156006,-0.13760963082313538,0.23742392659187317,0.4807175397872925,-0.12791387736797333,0.18316401541233063,-0.134923055768013,0.08813093602657318,0.06463129073381424,0.21799297630786896,0.1287802904844284,-0.029650360345840454,0.3118921220302582,0.6732304096221924,-0.42183202505111694,-0.002799723530188203,0.0846409797668457,0.157161146402359,0.004537757486104965,0.14089782536029816,-0.08016274124383926,0.13238222897052765,-0.03482316806912422,-0.4804788827896118,0.07354690134525299,-0.12411857396364212,-0.07245387881994247,-0.12189355492591858,0.17405684292316437,-0.31729385256767273,-0.4977893531322479,0.09209522604942322,-0.17902202904224396,0.09066400676965714,-0.05791531875729561,-0.046312473714351654,-0.13335616886615753,0.10101506859064102,-0.2430989146232605,-0.17613518238067627,0.321147084236145,-0.39215072989463806,0.2525862753391266,0.09479253739118576,-0.1573234349489212,0.07898321747779846,0.05479467287659645,-0.11407206952571869,0.12224390357732773,-0.42290160059928894,-0.4471985101699829,0.16404786705970764,-0.11205413192510605,-0.21799656748771667],[0.11047117412090302,0.14895707368850708,-0.12935422360897064,0.15592516958713531,-0.08852104097604752,0.6102680563926697,-0.08515946567058563,-0.49384409189224243,0.10097266733646393,0.07572116702795029,-0.0937873125076294,0.05675564333796501,0.12431299686431885,-0.2684115469455719,0.2690967917442322,-0.04613610729575157,-0.025775795802474022,-0.1438339203596115,-0.013971514068543911,0.11097247898578644,0.09064040333032608,0.2858348488807678,0.06571280211210251,-0.14541968703269958,-0.1038682758808136,0.09146549552679062,-0.08523454517126083,-0.005733002908527851,-0.15570390224456787,0.057013846933841705,-0.2683027684688568,-0.02467998117208481,-0.6078917384147644,0.12193284928798676,0.49456489086151123,-0.164063960313797,-0.0653998851776123,0.009918018244206905,-0.047516096383333206,0.01829451695084572,0.2791960537433624,-0.3433968424797058,0.2182956337928772,0.318388432264328,0.14853888750076294,-0.07566692680120468,0.07170454412698746,-0.04734088107943535,0.08787601441144943,0.1854947805404663,-0.31661176681518555,0.24211764335632324,0.1921491026878357,0.003934595268219709],[0.17470672726631165,0.3542068302631378,-0.05605525150895119,0.09972067922353745,0.41938772797584534,-0.1679455190896988,0.06304240226745605,0.06848806142807007,0.24050775170326233,0.016264908015727997,0.23062072694301605,-0.22236040234565735,0.13752861320972443,-0.1091233417391777,-0.036005642265081406,-0.03348968178033829,0.29416194558143616,0.21895372867584229,-0.06884118914604187,0.33082008361816406,-0.190737783908844,0.1388949155807495,0.4297248423099518,0.020077133551239967,-0.006371238734573126,0.6510557532310486,-0.06663727760314941,-0.18330304324626923,-0.41863813996315,0.031806133687496185,-0.044792816042900085,-0.47548577189445496,0.11078999191522598,-0.07927773892879486,-0.07087306678295135,-0.37232911586761475,-0.12172575294971466,0.0914444699883461,0.06828588992357254,-0.25116097927093506,-0.4056249260902405,-0.18715931475162506,-0.017413247376680374,0.1707879900932312,-0.3122612237930298,-0.03738350421190262,-0.13664904236793518,-0.015078097581863403,-0.2144498974084854,0.0781407579779625,-0.4045361578464508,-0.08864078670740128,0.32572564482688904,-0.08361270278692245],[-0.012205316685140133,0.09314586967229843,0.15388374030590057,0.16537505388259888,0.010072984732687473,-0.26538869738578796,0.11586903780698776,-0.23461808264255524,-0.2070137858390808,-0.1484510451555252,-0.04581241309642792,0.08602138608694077,-0.2810731530189514,0.17412656545639038,-0.10697274655103683,0.08516629040241241,-0.11070284247398376,-0.011262590996921062,-0.20644940435886383,-0.06352701783180237,0.10800759494304657,-0.5115095973014832,0.5193077325820923,-0.23763836920261383,-0.09021454304456711,0.21123948693275452,-0.0015154728898778558,0.1203770563006401,-0.09437783062458038,-0.2938636839389801,-0.20199528336524963,-0.09041962027549744,0.21885466575622559,-0.036307357251644135,0.24090351164340973,0.12834422290325165,0.18643158674240112,-0.08689066022634506,-0.02959870547056198,-0.11792558431625366,0.42093077301979065,0.05412107706069946,-0.12169787287712097,0.3609825074672699,0.3678532838821411,0.4062187075614929,-0.3078611493110657,0.002808959223330021,0.04917953535914421,0.9474917650222778,-0.19932343065738678,-0.12856708467006683,0.49237707257270813,0.15479040145874023],[-0.12437774240970612,0.08901803195476532,0.014375309459865093,-0.35021263360977173,0.6830848455429077,0.1885923594236374,-0.4218374788761139,0.5640987753868103,-0.1947614699602127,0.030983461067080498,-0.05944336950778961,-0.032159414142370224,-0.3355575501918793,0.2572326362133026,0.22960583865642548,-0.6712260246276855,0.6458082795143127,0.17386378347873688,-0.1285344511270523,-0.19684065878391266,0.10735030472278595,-0.14673103392124176,0.07476205378770828,0.003186057321727276,-0.4753958284854889,0.7309671640396118,-0.05738230049610138,0.09713926911354065,-0.05732186883687973,0.08489595353603363,0.4604969620704651,-0.6988717913627625,-0.11017785221338272,0.4514402747154236,-0.6190307140350342,0.11098537594079971,0.09377390146255493,0.055345356464385986,-0.007646132260560989,0.07835777848958969,0.3416335880756378,0.17793279886245728,0.5687894821166992,0.24949799478054047,0.260410338640213,-0.1371183693408966,-0.011655366979539394,0.048333730548620224,0.3646421730518341,0.27313828468322754,0.18777839839458466,0.9464222192764282,0.4346987307071686,0.16164672374725342],[0.018331600353121758,0.025323636829853058,-0.03948339447379112,-0.13533508777618408,-0.32298749685287476,-0.10785796493291855,-0.14771850407123566,-0.22587452828884125,0.05067211762070656,0.0379737988114357,-0.01478488463908434,0.17205411195755005,0.34998568892478943,0.16702879965305328,-0.025568541139364243,0.42292898893356323,0.045246414840221405,-0.03811945393681526,-0.10159910470247269,0.06357219815254211,0.04829854890704155,0.41426894068717957,0.2876777946949005,0.17788606882095337,0.41360607743263245,0.07701555639505386,-0.11968827992677689,-0.014052716083824635,0.009423170238733292,0.05160411074757576,0.00047968674334697425,0.3572167158126831,0.11071793735027313,0.14205606281757355,0.10452105104923248,0.10064063221216202,0.10624269396066666,-0.037192024290561676,-0.052578605711460114,0.6713724732398987,0.11358319967985153,0.15274468064308167,0.26937776803970337,-0.08238194137811661,-0.0596700944006443,0.24496957659721375,-0.2818645238876343,0.03912590444087982,0.5726025104522705,-0.12330535799264908,-0.03116527944803238,-0.03692234680056572,-0.07522374391555786,0.0005684658535756171],[0.040077295154333115,-0.06705877184867859,0.31744810938835144,-0.1672135591506958,-0.2783043086528778,-0.21397094428539276,0.15211737155914307,-0.15480270981788635,-0.19029821455478668,-0.012260450050234795,-0.01824202388525009,0.05933797359466553,-0.09697870165109634,-0.057648103684186935,-0.11692753434181213,-0.021087827160954475,-0.5116355419158936,0.01861528865993023,0.05214044079184532,0.11031471192836761,-0.04065180942416191,-0.3237355053424835,0.1914876103401184,-0.019487451761960983,0.06021464616060257,-0.09408935904502869,-0.35870352387428284,-0.08554557710886002,0.03234707936644554,-0.3707922697067261,0.15363670885562897,0.39227163791656494,0.06381923705339432,-0.15800723433494568,0.2982989251613617,0.195557102560997,-0.11531790345907211,0.011171103455126286,-0.31648802757263184,0.7798706293106079,0.6414933204650879,0.2855830192565918,0.4389752745628357,-0.055403932929039,0.1716916561126709,-0.040732935070991516,0.11107424646615982,-0.12498171627521515,0.3104022443294525,0.5386502146720886,0.14758925139904022,0.35861170291900635,0.1717451512813568,-0.0329480804502964],[0.06466685980558395,0.2307727187871933,0.27616530656814575,0.05113128945231438,-0.5449236631393433,-0.38896384835243225,-0.3259860873222351,-0.40605348348617554,-0.10737193375825882,-0.2726573646068573,0.1110033392906189,0.12095097452402115,0.17371982336044312,0.1263664811849594,0.5955002903938293,0.29769566655158997,-0.29394739866256714,0.4942505359649658,-0.06615439802408218,0.10186230391263962,0.21925878524780273,0.3344782292842865,1.2003217935562134,0.9186522364616394,0.35883474349975586,0.718398928642273,0.22499440610408783,-0.06582225859165192,-0.22528216242790222,-0.3316943943500519,0.05451205372810364,0.6135764122009277,0.3473215103149414,0.35014885663986206,0.38049042224884033,0.15824714303016663,0.06382714211940765,0.09202060848474503,-0.045816026628017426,0.5436341762542725,0.055709391832351685,0.5131882429122925,-0.00042806845158338547,-0.13729961216449738,0.5417519211769104,0.3508789539337158,0.007015450857579708,0.1962261199951172,-0.5161886215209961,0.9453645348548889,0.7088307738304138,-0.673328161239624,0.8632645606994629,0.6805477142333984],[0.17665712535381317,-0.0027926466427743435,-0.019138360396027565,0.14989840984344482,-0.0998128205537796,-0.18800686299800873,-0.2995087802410126,-0.5171135067939758,-0.07524418830871582,0.08459269255399704,-0.006561578251421452,-0.20427438616752625,0.2460182011127472,-0.8170289993286133,-0.45309528708457947,0.06596758216619492,-0.10609634965658188,-0.13029912114143372,0.07646523416042328,0.0023337043821811676,-0.17829403281211853,-0.22381117939949036,-0.6883485913276672,-0.6092950701713562,0.0024646599777042866,-0.5589664578437805,-0.13558931648731232,-0.0790083035826683,-0.005196455866098404,0.09253595024347305,-0.21428629755973816,0.11605969816446304,0.14141005277633667,0.16554273664951324,0.43674883246421814,0.17881248891353607,-0.04773556813597679,-0.09918729215860367,-0.1340247392654419,-0.12228568643331528,-0.37442490458488464,-0.056844573467969894,0.6442092061042786,0.14264822006225586,0.2616671323776245,-0.06997831165790558,-0.0505894273519516,-0.07101316004991531,-0.20569126307964325,-0.04255468398332596,-0.22351790964603424,0.13470003008842468,0.0034922456834465265,0.02317635342478752],[-0.03953009471297264,0.029740869998931885,0.0012889966601505876,-0.5260640382766724,0.559211015701294,-0.2727535665035248,-0.10850854218006134,-0.17777517437934875,-0.015617390163242817,0.07893472164869308,-0.20337706804275513,0.17590802907943726,-0.13129939138889313,-0.1528850644826889,0.14929138123989105,0.028949718922376633,-0.14525724947452545,0.10072164982557297,0.15632855892181396,-0.13880465924739838,0.13733279705047607,-0.1026763841509819,-0.7219458222389221,0.40240538120269775,0.027912279590964317,0.08931104838848114,0.1357581466436386,0.04594369977712631,-0.056073665618896484,-0.06958073377609253,0.5095927119255066,-0.6317244172096252,0.18223439157009125,0.05488238483667374,0.036461614072322845,0.02197628654539585,-0.02400253713130951,-0.09527824819087982,-0.029840081930160522,-0.02615814097225666,-0.27990463376045227,0.3079383373260498,-0.029901083558797836,-0.3194634020328522,0.2693735957145691,-0.07261323183774948,-0.165114626288414,0.17233651876449585,-0.040104735642671585,-0.4575609564781189,0.4170588254928589,-0.3249969482421875,-0.2142181247472763,0.17762301862239838],[0.11735173314809799,-0.6462393999099731,0.31914472579956055,0.5273527503013611,-0.7734108567237854,-0.3477518558502197,0.2564485967159271,-0.14877362549304962,0.35399171710014343,0.27472805976867676,-0.06486532837152481,0.01865054853260517,1.0570169687271118,0.020102662965655327,-0.43762320280075073,0.259230375289917,-0.32885730266571045,0.16029302775859833,0.21237708628177643,0.3629688024520874,0.02010280266404152,0.16066695749759674,-0.20238524675369263,-0.03533533960580826,-0.023114793002605438,-0.5052454471588135,0.20225758850574493,-0.12173328548669815,0.6258535385131836,-0.20596380531787872,-0.6044553518295288,0.8987573981285095,0.28696057200431824,-0.26479339599609375,0.2119084596633911,-0.2568016052246094,0.002721425611525774,0.035822514444589615,-0.2085309773683548,-0.2007361501455307,0.9474090337753296,-0.02339416928589344,-0.8461803793907166,-0.056229960173368454,-0.12926587462425232,0.23503713309764862,0.021907681599259377,-0.06506551802158356,-0.16194561123847961,0.7296229004859924,-0.5334384441375732,-0.7963659167289734,0.04887670278549194,0.012233839370310307],[0.02321769669651985,-0.19639936089515686,-0.3516457676887512,-0.3398398160934448,0.0748344287276268,0.38505038619041443,-0.04500267282128334,0.5235717296600342,0.18550947308540344,0.008992363698780537,0.09110937267541885,-0.015172362327575684,-0.29470551013946533,0.43195515871047974,0.3795751929283142,-0.1579192727804184,0.011460109613835812,0.167560875415802,-0.021810851991176605,-0.10740021616220474,-0.2767295837402344,0.3187081813812256,0.09092386066913605,0.17574885487556458,0.07314728200435638,-0.25728338956832886,0.13706578314304352,-0.027590284124016762,0.239328995347023,0.24047008156776428,0.3405151665210724,-0.09149246662855148,-0.22430013120174408,0.15672601759433746,-0.5787557363510132,-0.18502669036388397,-0.09340588748455048,0.2575337886810303,0.0922522023320198,0.4506627321243286,0.5828591585159302,0.2363332211971283,0.2017417699098587,0.07306592166423798,0.5501247644424438,-0.1281905621290207,-0.1502956748008728,-0.1235223263502121,0.1490846872329712,0.28919535875320435,0.35333216190338135,-0.10862790048122406,0.01701439544558525,0.7172604203224182],[0.03627299144864082,-0.035583510994911194,-0.023991011083126068,-0.020709726959466934,0.6497847437858582,-0.14187031984329224,0.22154292464256287,0.19276604056358337,-0.44867002964019775,-0.07453776895999908,0.08257020264863968,0.1426551342010498,-0.7364739179611206,0.0005746727110818028,0.03858743980526924,-0.2604893445968628,-0.4023088216781616,-0.07214153558015823,-0.047046005725860596,0.11868428438901901,-0.10294606536626816,-0.3079817295074463,-0.3157198131084442,0.12016832083463669,-0.4990465044975281,-0.29128775000572205,0.20512010157108307,-0.15588413178920746,-0.09062884002923965,-0.022192921489477158,-0.013717925176024437,-0.6825428605079651,0.19650079309940338,-0.24332047998905182,-0.09522546082735062,0.5394531488418579,-0.30727654695510864,0.12672992050647736,-0.14644083380699158,0.16595838963985443,-0.8923429250717163,0.2091066986322403,0.28997623920440674,-0.6584376096725464,0.17425531148910522,-0.30629903078079224,-0.25555846095085144,-0.10867905616760254,-0.06213180348277092,-1.0323762893676758,0.34301844239234924,-0.06879853457212448,-0.8820011615753174,0.18305790424346924],[0.09693962335586548,0.31140872836112976,0.013864217326045036,0.2955675721168518,-0.5096189379692078,0.16083145141601562,0.35455840826034546,-0.365730881690979,0.06262201070785522,0.13340051472187042,0.003740554442629218,0.02691817656159401,0.04580524191260338,-0.1279970109462738,0.013386602513492107,0.17389973998069763,-0.013553370721638203,0.19401933252811432,0.1736164093017578,-0.11185310035943985,-0.0985746681690216,0.16693943738937378,0.19316677749156952,-0.14699071645736694,0.2374245524406433,0.22303663194179535,0.08354316651821136,0.030429068952798843,-0.30332234501838684,0.00514227245002985,-0.17670542001724243,0.3592758774757385,-0.22713541984558105,-0.3635878562927246,0.26896312832832336,-0.17973360419273376,-0.009734670631587505,-0.04809568449854851,0.16948719322681427,0.020298762246966362,0.3734426498413086,-0.12861227989196777,-0.236290842294693,0.3317294418811798,-0.11519023030996323,0.049219317734241486,-0.45967236161231995,0.07976479083299637,-0.08452806621789932,0.09858094900846481,-0.35521256923675537,-0.4803735613822937,0.17099089920520782,-0.20612609386444092],[0.05510953068733215,-0.1405947208404541,-0.2812494933605194,-0.22252821922302246,-0.1992177963256836,0.03810422122478485,-0.13710562884807587,-0.07786141335964203,-0.3313961625099182,0.03702123463153839,-0.009762095287442207,-0.35841837525367737,-0.39881259202957153,0.3393450975418091,-0.26646488904953003,-0.33931979537010193,0.467639297246933,-0.26772722601890564,-0.02549082227051258,-0.2599477469921112,-0.19765985012054443,-0.40658828616142273,0.1284523904323578,-0.009204232133924961,-0.6095997095108032,0.6558095216751099,-0.13994677364826202,0.022742733359336853,0.2494376003742218,0.23379865288734436,0.3652871549129486,0.29292070865631104,-0.06851924955844879,0.23641331493854523,0.11171252280473709,0.32600075006484985,0.0025427304208278656,-0.14118488132953644,0.10815343260765076,0.4527076184749603,0.18430539965629578,0.24213510751724243,0.5202197432518005,0.03693588450551033,0.3351646959781647,0.16601593792438507,0.11935736238956451,0.14156140387058258,0.14965592324733734,0.40357640385627747,0.24698209762573242,0.33670157194137573,-0.01636357046663761,0.12918566167354584],[-0.09508289396762848,-0.12417221069335938,0.2160729318857193,0.04993623495101929,-0.0719214603304863,0.02159939706325531,0.2564883530139923,-0.21578219532966614,0.08639465272426605,0.10605380684137344,-0.13208723068237305,0.15525376796722412,-0.29883819818496704,0.16410961747169495,0.1332283616065979,0.0912189930677414,0.25488871335983276,0.24680422246456146,-0.057312432676553726,-0.20409706234931946,0.0384652353823185,-0.013150444254279137,0.002941255457699299,0.1666022539138794,0.4389522075653076,0.20265178382396698,0.08233631402254105,0.09711413830518723,0.086261086165905,-0.14828510582447052,-0.13857221603393555,0.10805580019950867,0.025883320719003677,-0.18166418373584747,0.27399876713752747,-0.014192810282111168,0.12999407947063446,-0.1251378357410431,0.03656335547566414,-0.04929031431674957,0.03696533292531967,0.07073745131492615,-0.05981168895959854,0.4134313464164734,-0.10102444887161255,0.1254444122314453,-0.08143088221549988,-0.06199647858738899,-0.05648393929004669,0.2637702226638794,0.0916377380490303,-0.2131606638431549,0.7507968544960022,-0.32389944791793823],[-0.13204947113990784,0.15128971636295319,-0.21649876236915588,-0.24469423294067383,-0.4293956458568573,-0.11068834364414215,0.10718946158885956,-0.09700299054384232,0.2711432874202728,-0.3448319435119629,0.03896741941571236,-0.08517435938119888,0.12750880420207977,-0.5563828349113464,-0.4854218661785126,0.11587643623352051,-0.35673001408576965,0.1492902934551239,-0.30434009432792664,-0.3415287137031555,0.23216232657432556,0.00394993694499135,-0.6395710110664368,0.1027437224984169,-0.01697659306228161,-0.1554037183523178,0.20458634197711945,0.014501404017210007,-0.1742522418498993,0.14567695558071136,0.2272673100233078,0.4209855794906616,0.1334598958492279,-0.11597287654876709,0.08065332472324371,-0.3621682822704315,0.08804827183485031,-0.15885880589485168,-0.21365287899971008,-0.21831302344799042,-0.6073785424232483,-0.535768985748291,-0.10900042951107025,-0.3324968218803406,-0.1770351529121399,0.14293214678764343,-0.45760390162467957,-0.022830190137028694,0.19975318014621735,-1.1120373010635376,-0.5903360247612,0.12316007912158966,-0.3928181827068329,-0.1384998857975006],[0.018793325871229172,-0.10375122725963593,-0.00941442046314478,0.4420405328273773,-0.9076220989227295,-0.0548657551407814,0.32137882709503174,0.050783392041921616,0.09880144149065018,-0.07396069914102554,0.15884682536125183,-0.2161252200603485,0.28339311480522156,0.36959004402160645,-0.1538628786802292,0.3810170292854309,-0.13923867046833038,0.22468243539333344,-0.011253315024077892,0.025499163195490837,-0.13066129386425018,0.0063358391635119915,-0.3414337635040283,0.28315672278404236,-0.004797492641955614,-0.5550107359886169,0.3199109733104706,0.027630144730210304,0.12322555482387543,-0.004066566936671734,-0.2802013158798218,0.9600300788879395,0.03263681009411812,-0.4667337238788605,-0.07414819300174713,-0.009947470389306545,0.102256178855896,0.13496509194374084,0.004220784176141024,0.27444928884506226,0.8723926544189453,-0.2057138830423355,-0.5014215111732483,0.32347816228866577,0.010292702354490757,0.25252455472946167,0.06378989666700363,-0.09957245737314224,0.21590015292167664,0.5233933925628662,-0.394811749458313,-0.43678024411201477,-0.07003547251224518,-0.057531554251909256],[-0.10082625597715378,-0.5240150690078735,0.08440492302179337,-0.4095669388771057,-0.7436959743499756,-0.3479944169521332,-0.22494935989379883,-0.23888935148715973,0.3399392366409302,-0.0002681937476154417,-0.08427217602729797,0.012143234722316265,0.06948250532150269,-0.47907403111457825,-0.21353939175605774,0.006626415997743607,-0.49323558807373047,0.25727009773254395,0.09495122730731964,-0.24102714657783508,0.10138005763292313,-0.06358054280281067,-0.5673730969429016,0.035791583359241486,-0.04249988868832588,-0.4453464150428772,-0.04723019152879715,0.08725936710834503,0.5213910937309265,-0.08705398440361023,0.38215500116348267,0.8648285865783691,0.2271469533443451,0.2078637033700943,0.2166251242160797,-0.44055289030075073,0.05699755251407623,-0.10867807269096375,0.2017509937286377,0.2511514127254486,-0.2917870581150055,0.4281497299671173,-0.24889259040355682,-0.24504980444908142,-0.024603325873613358,0.028401155024766922,-0.014687268063426018,0.05711229518055916,-0.4392302930355072,0.2660389542579651,0.4701208174228668,-0.167632058262825,0.0004953453317284584,0.21562325954437256],[0.19702474772930145,0.2038462609052658,0.12018520385026932,-0.44770076870918274,0.017714744433760643,-0.08512458950281143,-0.20544485747814178,0.23770958185195923,-0.3716524541378021,-0.014706783927977085,0.152018204331398,-0.02734217420220375,-0.3128716051578522,-0.31437432765960693,0.11416291445493698,-0.05199974402785301,-0.16937129199504852,-0.16606028378009796,-0.15476296842098236,0.24470657110214233,0.026976248249411583,-0.16922937333583832,-0.3622652292251587,0.49181482195854187,-0.10374967753887177,0.13729774951934814,0.01586139015853405,-0.060697101056575775,-0.1696164458990097,-0.14696258306503296,0.2743707001209259,0.022877216339111328,0.22637303173542023,0.2427685260772705,-0.28352561593055725,0.28153616189956665,0.04292719438672066,0.20682579278945923,0.11855044215917587,0.3077576756477356,-0.05299309641122818,0.3451482355594635,0.03447103127837181,-0.2335662543773651,0.07225321233272552,0.23114533722400665,0.17154942452907562,-0.07237906008958817,0.33608466386795044,0.2423216998577118,0.11059758067131042,-0.12226195633411407,-0.06711670756340027,0.06326780468225479],[-0.14343926310539246,0.40348607301712036,0.03946153447031975,-0.10279865562915802,0.5025742650032043,-0.10403721779584885,-0.2378857135772705,-0.15903373062610626,-0.15671129524707794,-0.17073862254619598,0.03770486265420914,0.2595977783203125,-0.3130021393299103,0.27361029386520386,-0.0679427906870842,-0.17186512053012848,-0.15509554743766785,0.15225982666015625,-0.18524910509586334,0.1691359281539917,0.1821824014186859,-0.6247715353965759,0.11267336457967758,0.041411906480789185,-0.17161062359809875,0.1331009417772293,0.32042160630226135,0.08776447921991348,-0.3366016447544098,-0.07534714043140411,0.24388213455677032,-0.3759925961494446,0.0974125862121582,0.19296887516975403,0.13558484613895416,0.09847907721996307,0.019442474469542503,-0.18098673224449158,0.024748459458351135,0.017781922593712807,0.024026356637477875,-0.017779633402824402,0.31701385974884033,0.5045153498649597,0.141403928399086,0.21784822642803192,0.1735316812992096,-0.0023973830975592136,0.08056264370679855,0.16766752302646637,-0.22150900959968567,-0.008938973769545555,0.5505593419075012,-0.13493962585926056],[-0.12681880593299866,-0.10427917540073395,0.32780155539512634,0.3620467185974121,0.4692123234272003,0.0426529198884964,0.3617796301841736,-0.3468260169029236,0.31956416368484497,0.07039067894220352,-0.021976014599204063,0.2648555636405945,0.2255023866891861,-0.02882222644984722,0.024905432015657425,0.29071706533432007,0.10843419283628464,0.2497994601726532,0.04954638332128525,0.0850510522723198,0.030690371990203857,0.23920482397079468,0.3374549448490143,-0.2903006970882416,0.21813447773456573,0.04622652009129524,0.177021324634552,0.007719441782683134,-0.0032362723723053932,-0.3015638589859009,-0.22811134159564972,-0.42512616515159607,0.08649978041648865,-0.405977338552475,0.38889816403388977,-0.23840922117233276,0.11095806956291199,-0.033608898520469666,0.04283643513917923,-0.3080025315284729,-0.2780735194683075,0.19767412543296814,-0.34873050451278687,0.15239988267421722,-0.16837424039840698,0.05960385873913765,0.039521872997283936,0.08000428974628448,-0.23097079992294312,0.12207429856061935,-0.10806490480899811,-0.22429989278316498,0.06680930405855179,-0.22939248383045197],[0.0067468979395926,0.30456027388572693,0.06571247428655624,0.07166790217161179,0.29840871691703796,-0.09861249476671219,0.035237304866313934,-0.30700254440307617,0.22794675827026367,-0.11295834183692932,-0.04709915816783905,0.18246521055698395,0.21236811578273773,-0.1975022405385971,-0.13906025886535645,0.09328466653823853,-0.3085513114929199,-0.09909437596797943,0.09468921273946762,0.07540678232908249,0.0999964252114296,0.41671547293663025,-0.3275352418422699,-0.17342913150787354,0.3976934552192688,-0.5453172922134399,-0.11490243673324585,0.07681810855865479,-0.279094398021698,-0.11210712790489197,-0.018187645822763443,-0.30750560760498047,0.13608917593955994,-0.06514550745487213,0.418789803981781,-0.3050002455711365,-0.1823597252368927,-0.03366198390722275,-0.018480008468031883,-0.007630359381437302,0.09991578757762909,0.42224612832069397,0.19673775136470795,0.23186931014060974,0.10122981667518616,-0.20211127400398254,-0.03352554887533188,0.09669993072748184,-0.0012719184160232544,-0.06507797539234161,0.30263322591781616,0.3438621759414673,0.12638571858406067,0.16158674657344818],[0.023411625996232033,-0.22387343645095825,-0.04569201543927193,0.004197080619633198,0.0013848600210621953,-0.020826509222388268,-0.059311144053936005,0.33341163396835327,-0.9081704616546631,-0.05705031380057335,-0.07980602979660034,-0.07905904203653336,0.06720089167356491,-0.07278598845005035,-0.3681661784648895,-0.3349654972553253,0.39810898900032043,-0.4853331744670868,-0.23036086559295654,-0.28338584303855896,-0.11825109273195267,0.16111668944358826,-0.423825740814209,-0.3656092584133148,-0.5155079960823059,0.22072209417819977,-0.19461947679519653,-0.05033382028341293,0.20599223673343658,0.11903677135705948,0.017414504662156105,0.006992130074650049,0.10673856735229492,0.18417271971702576,-0.37886330485343933,0.7504530549049377,-0.061474546790122986,-0.08332725614309311,0.08172544836997986,-0.1394946575164795,0.1753614842891693,0.36018434166908264,0.28920403122901917,0.253936767578125,0.9144265651702881,-0.15844950079917908,0.016616584733128548,0.1734989732503891,-0.2415914088487625,0.20040790736675262,0.3234707713127136,-0.27918773889541626,0.2543877363204956,0.7839183807373047],[-0.09899234771728516,0.03702271729707718,0.05372657999396324,-0.11508208513259888,-0.3436756730079651,-0.0603773295879364,-0.2842661142349243,0.08904602378606796,0.27493149042129517,-0.23028679192066193,0.007030683569610119,0.07314582169055939,-0.5966801643371582,-0.08696508407592773,-0.060239095240831375,-0.3409537076950073,-0.47990840673446655,0.24888619780540466,-0.19079183042049408,-0.1491696536540985,0.14746136963367462,-0.7944471836090088,-0.4016388952732086,0.7420347332954407,-0.42394745349884033,-0.3362775444984436,0.5211700797080994,-0.00135364243760705,-0.11836698651313782,-0.11949042975902557,0.18010127544403076,0.48899659514427185,0.13880951702594757,0.1794615089893341,-0.01291943620890379,-0.28877341747283936,-0.023257369175553322,-0.23438473045825958,-0.24141696095466614,-0.21139881014823914,-0.10895854979753494,-0.18358114361763,0.047720398753881454,-0.505555272102356,0.23347842693328857,0.05179064720869064,-0.2501582205295563,0.04867997020483017,-0.4549452066421509,0.0915600135922432,-0.2914429306983948,-0.016281185671687126,0.028801480308175087,0.3885882794857025],[0.07820554822683334,-0.36075180768966675,-0.19408828020095825,0.2728766202926636,-0.4756697118282318,-0.1455277055501938,-0.2537943124771118,-0.0014017188223078847,0.0075945076532661915,-0.0412437729537487,-0.16980695724487305,0.06786942481994629,-0.039573583751916885,-0.2863365113735199,0.21788239479064941,-0.22477741539478302,-0.17040330171585083,0.13646188378334045,-0.008035686798393726,-0.32505694031715393,0.12790487706661224,0.37219202518463135,-0.2028866559267044,0.2697467803955078,-0.1128787249326706,-0.30758532881736755,0.13363496959209442,-0.02012302353978157,0.3279302418231964,0.086702860891819,-0.2528095841407776,0.4182705581188202,0.1287730634212494,0.09248721599578857,0.020244423300027847,-0.03251706063747406,-0.1495712399482727,-0.05994158610701561,0.2219746857881546,-0.07760198414325714,0.2601294219493866,0.43911752104759216,0.0938672125339508,0.5952427387237549,0.23509635031223297,-0.2700057327747345,-0.12808391451835632,0.21884192526340485,-0.32755348086357117,0.07614678889513016,0.1705179512500763,-0.1523616760969162,0.2729613780975342,0.09216918051242828],[-0.04762760549783707,-0.3539632558822632,0.1024828627705574,0.27072441577911377,-0.6750773191452026,0.3288203477859497,-0.24077750742435455,0.028096791356801987,0.21519486606121063,-0.13533896207809448,0.058832623064517975,-0.1530783623456955,-0.25427886843681335,0.023648906499147415,0.14876502752304077,-0.477482408285141,0.06442351639270782,0.13007159531116486,-0.08534995466470718,-0.44694891571998596,-0.04730825498700142,-0.2570808231830597,-0.7048868536949158,0.48450252413749695,-0.31252917647361755,-0.33664003014564514,0.6218258142471313,0.056485895067453384,0.3026297390460968,-0.17616036534309387,-0.24786441028118134,0.5660149455070496,-0.40480589866638184,0.17551930248737335,0.04460939019918442,-0.20505291223526,0.14835482835769653,0.05782443284988403,0.05900032818317413,0.5040328502655029,0.5093672871589661,-0.31324678659439087,0.27473312616348267,0.07675565034151077,-0.29608091711997986,-0.06260477751493454,-0.05926354229450226,0.18858306109905243,0.11731972545385361,0.007004056591540575,0.1513388752937317,0.42292580008506775,-0.2724387049674988,0.02295047789812088],[0.029982175678014755,-0.18148192763328552,0.3269886076450348,0.04739319905638695,0.20676550269126892,0.7458202838897705,-0.07425796240568161,1.1584491729736328,0.20434969663619995,-0.027980072423815727,0.012292721308767796,0.0061380499973893166,-0.39519017934799194,0.5065405368804932,0.31744828820228577,-0.2085791677236557,0.6080789566040039,0.3254909813404083,0.05341679975390434,-0.21111628413200378,0.05882207676768303,0.1084652841091156,0.08920514583587646,0.4520321488380432,0.05755654349923134,0.507597029209137,0.13166065514087677,-0.05251817777752876,0.10933104157447815,-0.4014075994491577,0.015810122713446617,-0.20526915788650513,-0.7359713912010193,0.14775942265987396,-1.042838215827942,-0.18926756083965302,-0.014138377271592617,0.002042673761025071,-0.34000760316848755,0.17984609305858612,0.2773340344429016,-0.41763606667518616,-0.034138116985559464,-0.15999504923820496,-0.08923579007387161,-0.09617326408624649,-0.09933687001466751,-0.13449300825595856,0.2814320921897888,-0.44962891936302185,-0.15404605865478516,-0.09016764163970947,-0.1939251869916916,0.01601121388375759],[-0.09549141675233841,-0.49162089824676514,-0.5219137668609619,0.25919005274772644,-0.6492723226547241,-0.037345364689826965,-0.05011497065424919,-0.983153223991394,0.7135378122329712,0.12126708030700684,-0.2684517204761505,-0.25008949637413025,0.602362334728241,-0.547448992729187,-0.06697401404380798,0.552647054195404,-0.5456240773200989,0.5946118831634521,0.03292224183678627,-0.3596646785736084,0.07980812340974808,0.268449991941452,-0.2819660007953644,0.08508458733558655,0.31195908784866333,-0.3819367289543152,0.3893759548664093,0.023038668558001518,0.33002516627311707,0.53672856092453,-0.22807544469833374,0.5073042511940002,0.20793622732162476,0.021482639014720917,0.8419044017791748,-0.7741666436195374,0.10424315184354782,-0.07529912143945694,0.24805305898189545,-0.39360737800598145,-0.10108300298452377,-0.1055053249001503,0.0558970645070076,-0.3196062445640564,-0.5381993055343628,-0.003106331452727318,-0.16801829636096954,0.21770647168159485,-0.12414500117301941,-0.014479849487543106,-0.2741343677043915,0.06471879035234451,-0.26138603687286377,-0.42780569195747375],[0.08706814050674438,-0.2899359464645386,0.11344142258167267,-0.1517646759748459,0.3877427577972412,0.5120850801467896,-0.2443602979183197,0.6686485409736633,0.16799604892730713,0.17069971561431885,0.12348077446222305,-0.1316259801387787,-0.11469393223524094,-0.07604886591434479,0.24181339144706726,-0.42603006958961487,0.17223519086837769,0.431310772895813,0.1041141152381897,-0.07391121983528137,-0.13255737721920013,-0.006403780542314053,-0.3502659797668457,0.0953502282500267,-0.18013472855091095,0.003310448955744505,0.3375021517276764,-0.088507741689682,0.19267582893371582,-0.16766661405563354,0.07331204414367676,-0.4258723556995392,-0.54937344789505,0.21511748433113098,-0.6647250056266785,-0.2894429862499237,-0.16333861649036407,0.1523139476776123,-0.21528655290603638,-0.07506795227527618,-0.06127600371837616,-0.22818653285503387,0.14725948870182037,-0.07723566889762878,-0.19761604070663452,-0.02908298932015896,0.20364923775196075,-0.13466539978981018,0.24350972473621368,-0.0385359525680542,-0.08199277520179749,0.1019962877035141,-0.14452779293060303,-0.019262582063674927],[-0.02293667197227478,-0.07628867775201797,-0.296123206615448,-0.2175513356924057,-0.7685754895210266,0.5828518867492676,-0.33886876702308655,0.008958382532000542,0.11136598885059357,-0.03197653964161873,-0.07282721251249313,-0.11242751777172089,0.02617746777832508,-0.8130180239677429,1.022578477859497,-0.32280585169792175,-0.15060462057590485,0.6671183109283447,0.1307915598154068,-0.39666804671287537,0.11959893256425858,0.3001203238964081,-0.17630738019943237,0.7649704813957214,-0.1413383036851883,0.5413084030151367,0.6281001567840576,-0.05156047269701958,0.07821829617023468,0.42069002985954285,0.22026501595973969,0.8448988199234009,-0.5461559295654297,0.3904968500137329,-0.045182786881923676,-0.09999913722276688,0.14412178099155426,-0.08494081348180771,0.05524264648556709,0.03229562193155289,0.22972354292869568,-0.7206457853317261,-0.42186105251312256,-0.13318175077438354,-0.1544358879327774,-0.016371097415685654,-0.2195114940404892,0.05523447319865227,0.21268460154533386,0.183268204331398,-0.22075419127941132,0.023509621620178223,-0.0979711040854454,-0.06860305368900299],[-0.033018775284290314,0.2151348888874054,0.0657312273979187,-0.2583405673503876,-0.4295347332954407,0.012386579066514969,-0.47971752285957336,-0.16699530184268951,-0.2884366810321808,-0.15756496787071228,-0.006266379728913307,0.07549498230218887,-0.4092637598514557,0.07991713285446167,-0.18624486029148102,-0.4274524450302124,0.3469386100769043,0.18826942145824432,-0.09024109691381454,-0.1733533889055252,0.06466753035783768,-0.8122758865356445,-0.4111982583999634,0.0977543294429779,-0.6590583920478821,-0.0913693904876709,0.519402801990509,0.0567573644220829,-0.10834167152643204,-0.05062905699014664,0.2137756049633026,0.43787166476249695,-0.003803683677688241,0.5338327884674072,0.060695111751556396,0.2877265512943268,-0.04556875303387642,-0.05687972530722618,-0.12585371732711792,0.3454665243625641,0.17817182838916779,-0.0867953971028328,0.43566930294036865,0.3613021969795227,0.56983882188797,-0.1584782749414444,-0.14597542583942413,-0.02211940288543701,0.18639050424098969,-0.36273130774497986,0.14171035587787628,-0.0979609563946724,-0.09096039831638336,0.6073450446128845],[0.09541847556829453,0.24528749287128448,-0.1515510082244873,0.17338043451309204,-0.4743438959121704,0.1802380234003067,-0.2528740167617798,0.6221242547035217,-0.251006156206131,0.0017771342536434531,0.0044183917343616486,-0.20246951282024384,0.4198112487792969,-0.08210626244544983,-0.48553767800331116,0.041208989918231964,0.16480356454849243,-0.16631995141506195,-0.15914790332317352,-0.1817946434020996,-0.16456474363803864,0.3574088513851166,0.04721752181649208,-0.6551225781440735,0.4317103624343872,0.5718392133712769,-0.31064584851264954,0.011690567247569561,-0.2468344122171402,0.17803709208965302,-0.19466687738895416,0.42905718088150024,-0.09708486497402191,0.38370099663734436,-0.5529829263687134,0.24490876495838165,-0.0630386620759964,-0.02454407326877117,0.13067851960659027,0.05981644615530968,0.6586161255836487,-0.4997493624687195,0.329287588596344,0.034451670944690704,0.13135583698749542,-0.3450055420398712,-0.054983027279376984,0.09980908036231995,-0.08573128283023834,0.4275735914707184,-0.2689690887928009,0.0105710094794631,0.47884899377822876,0.33453017473220825],[0.008743522688746452,-0.4941277503967285,0.20437191426753998,0.1616494506597519,-0.28177621960639954,0.7407047152519226,-0.02668965421617031,-0.3607078790664673,0.3749299943447113,-0.01578381285071373,-0.25644978880882263,0.11867272853851318,0.12738628685474396,-0.3444679379463196,-0.025820637121796608,0.051816750317811966,-0.3028094172477722,-0.37769994139671326,-0.29371213912963867,-0.22328993678092957,0.07397951930761337,-0.2056203931570053,-0.5142164826393127,-0.2609398365020752,-0.2027704119682312,-0.6121562719345093,-0.3546585440635681,0.030934292823076248,0.45245400071144104,-0.09345701336860657,-0.1962379515171051,0.4136507213115692,-0.8029780387878418,0.004629663657397032,0.34193819761276245,-0.28841766715049744,-0.11838293820619583,-0.2833332419395447,-0.11077055335044861,0.29771268367767334,-0.16825249791145325,-0.8711454272270203,0.39045262336730957,0.35027599334716797,-0.03954858332872391,-0.10420827567577362,-0.11893554776906967,-0.017906038090586662,0.37522146105766296,0.11055999994277954,-0.4868498742580414,0.27962687611579895,0.23000119626522064,-0.12613242864608765],[0.010258827358484268,-0.139214888215065,-0.06624383479356766,0.3766006827354431,-1.1722782850265503,-0.2737429738044739,0.24681712687015533,-0.15585416555404663,0.003041143761947751,0.016862772405147552,-0.16151756048202515,-0.13460595905780792,0.12239386886358261,0.25553667545318604,-0.3299615979194641,-0.19432224333286285,-0.2837379574775696,0.012477547861635685,0.13280706107616425,-0.19302435219287872,0.08960461616516113,-0.0423673652112484,0.13962721824645996,-0.3314683437347412,-0.3049212098121643,-0.1687256395816803,0.28232941031455994,0.10681432485580444,0.09499778598546982,0.06931313872337341,-0.31379249691963196,1.0799996852874756,0.11596348881721497,-0.2107475847005844,0.1401319056749344,0.010062376968562603,0.0021738125942647457,-0.1563962697982788,0.20814090967178345,0.11608311533927917,0.3558987081050873,0.06984516978263855,0.028734061866998672,0.1993403136730194,0.21159343421459198,-0.10688861459493637,-0.18216902017593384,0.19658099114894867,-0.27330663800239563,0.2030719816684723,-0.2704624533653259,-0.261129766702652,0.2982606887817383,0.14946050941944122],[0.04119771718978882,0.2054750770330429,0.011559073813259602,0.13438327610492706,0.1618388295173645,0.34966716170310974,0.16390246152877808,-0.011575328186154366,0.5952386856079102,0.13526380062103271,-0.032004889100790024,-0.07569187879562378,0.19888322055339813,0.09102504700422287,0.12721014022827148,0.1272142231464386,-0.1426020711660385,0.1962723433971405,0.30189067125320435,0.03768409043550491,-0.05953187122941017,0.3073253035545349,-0.37508636713027954,-0.11644433438777924,-0.0251068864017725,-0.2804812490940094,-0.05661783367395401,0.06452631205320358,-0.07495930045843124,-0.006136531941592693,-0.1367335170507431,-0.23779401183128357,-0.3114166259765625,-0.0530320405960083,0.04896077141165733,-0.5082489252090454,0.029767045751214027,-0.1255156397819519,-0.08735235780477524,-0.12425075471401215,0.3056107461452484,-0.17036914825439453,-0.07813069224357605,0.28473469614982605,-0.06954178959131241,0.05450398847460747,-0.21958091855049133,0.018536310642957687,0.023013681173324585,0.31350693106651306,-0.22085461020469666,0.04551304131746292,0.3392546772956848,0.03220490738749504],[0.1453724205493927,0.4540221691131592,-0.07882379740476608,-0.11359257251024246,0.1975739747285843,0.20359796285629272,-0.15424750745296478,-0.3841494619846344,0.2799014747142792,0.131600484251976,0.10836760699748993,0.08700450509786606,0.0061582401394844055,-0.08707178384065628,0.11627817898988724,0.17119348049163818,-0.6004422307014465,-0.17543835937976837,0.20966610312461853,0.23540541529655457,-0.012843080796301365,0.051741134375333786,-0.5621680021286011,-0.2721559703350067,0.3944324851036072,-0.2025080919265747,-0.22787219285964966,-0.017364023253321648,-0.4724704921245575,0.02366165816783905,0.07991021871566772,-0.2763417065143585,-0.07316455990076065,0.15217439830303192,0.3496044874191284,-0.22671955823898315,-0.0032755453139543533,-0.14772774279117584,0.14005418121814728,0.027846062555909157,-0.059820014983415604,-0.009345518425107002,0.16993796825408936,-0.03818622976541519,-0.28858059644699097,-0.0761532187461853,-0.1046576201915741,0.0036340467631816864,0.2391844391822815,0.04113375023007393,0.18122512102127075,0.1742933690547943,0.029900459572672844,-0.09230074286460876],[0.09071287512779236,0.07510063052177429,0.18879856169223785,0.287030965089798,-0.37393131852149963,0.05011938139796257,0.004569735378026962,-0.08306961506605148,0.42894574999809265,0.009013532660901546,-0.11612534523010254,-0.08665716648101807,-0.1770305186510086,0.0656873807311058,0.011293690651655197,-0.22719208896160126,0.044982586055994034,0.5189523100852966,-0.051930028945207596,-0.31189632415771484,0.03257931396365166,-0.3169706165790558,-0.47180673480033875,0.08371306955814362,0.1292983889579773,0.10998977720737457,0.43098336458206177,0.0094258738681674,0.02403516136109829,-0.23432505130767822,-0.18441233038902283,0.37743932008743286,0.0385836586356163,0.019881021231412888,0.07478555291891098,-0.35183706879615784,0.09484176337718964,-0.1418764591217041,-0.16341933608055115,-0.372795045375824,0.2920137941837311,-0.18524408340454102,-0.28747862577438354,-0.11324110627174377,-0.34727591276168823,0.06141180172562599,-0.20785534381866455,0.08414549380540848,-0.2254732996225357,-0.07358524203300476,-0.34051513671875,0.07848058640956879,-0.19974857568740845,-0.42970407009124756],[-0.17395609617233276,0.01319653820246458,-0.18130293488502502,0.1546497941017151,-0.27694445848464966,-0.5905798673629761,0.07389067113399506,-0.28206026554107666,-0.6394455432891846,-0.25867974758148193,-0.24401825666427612,0.016580022871494293,-0.2896254062652588,-0.0012597909662872553,-0.2778679430484772,0.01587156392633915,0.048726800829172134,0.1403103917837143,-0.1165277436375618,-0.407162606716156,0.1264171600341797,0.16324667632579803,0.26629406213760376,0.005200870335102081,-0.1774992197751999,0.26727765798568726,0.4410012364387512,0.09473492950201035,0.09820237010717392,0.2213071584701538,-0.08921695500612259,0.31122449040412903,0.6778797507286072,-0.14241096377372742,0.22288081049919128,0.626015305519104,0.1470053344964981,-0.20919473469257355,0.05576569586992264,0.43104568123817444,-0.17933021485805511,0.41290488839149475,-0.06486444175243378,0.12478237599134445,0.42995139956474304,0.26727810502052307,-0.1916695386171341,0.10145895183086395,-0.009243998676538467,0.3107631504535675,-0.10802190005779266,-0.5621923208236694,0.5472949147224426,0.14304612576961517],[0.013547926209867,-0.3883573114871979,0.42290130257606506,0.11369894444942474,-0.5239936709403992,0.13243414461612701,-0.18559619784355164,0.12728463113307953,-0.13347023725509644,0.12825031578540802,0.0400223545730114,-0.0603858083486557,0.28619006276130676,-0.09696858376264572,0.2901339530944824,-0.08001679927110672,0.18864864110946655,0.08625733852386475,0.24632884562015533,0.17713917791843414,-0.04975675791501999,0.06369480490684509,0.44141438603401184,0.3745449185371399,0.261458158493042,0.3611755669116974,0.10757395625114441,-0.011067952960729599,0.4158092439174652,-0.39383161067962646,-0.016826070845127106,0.4120813310146332,-0.22746872901916504,0.2585027813911438,-0.05271536111831665,0.20995590090751648,0.04129902273416519,0.20432148873806,-0.10092916339635849,0.39430785179138184,0.30639344453811646,-0.4217027425765991,-0.11896291375160217,0.224331334233284,-0.20747911930084229,0.008470140397548676,0.34276047348976135,0.057433050125837326,0.0339384600520134,0.5692183375358582,-0.26921090483665466,-0.006707852706313133,0.47616755962371826,-0.271865576505661],[-0.011990475468337536,-0.01386670209467411,0.0932312086224556,0.12455694377422333,-0.371774286031723,0.3113628923892975,-0.06293739378452301,-0.2990467846393585,0.23463700711727142,-0.06433609127998352,0.008309113793075085,0.04509783536195755,-0.16939401626586914,0.1832539290189743,-0.13654844462871552,0.1441228985786438,0.2534075975418091,0.09111769497394562,-0.04961423575878143,-0.12314321845769882,-0.012370700016617775,-0.08880634605884552,-0.4309524595737457,-0.2051784098148346,0.06518889963626862,-0.1682633012533188,0.06848317384719849,-0.09764795750379562,0.0856858491897583,-0.16098888218402863,-0.1266847550868988,0.3762050271034241,-0.23493868112564087,0.09714683145284653,0.3525291681289673,-0.18498805165290833,0.14624358713626862,-0.05316748842597008,-0.105381540954113,0.2366107553243637,0.06829431653022766,-0.37119260430336,0.20791220664978027,-0.016571763902902603,-0.11988763511180878,0.009141184389591217,-0.0048828767612576485,-0.09341264516115189,0.0658109039068222,-0.06385716795921326,-0.6267381906509399,0.26624923944473267,-0.23249150812625885,-0.28599607944488525],[-0.0391530767083168,-0.5791986584663391,-0.012412668205797672,-0.31824392080307007,0.7495385408401489,0.03786561265587807,0.04578360170125961,0.6117358207702637,-0.13492555916309357,0.06581658869981766,-0.24872633814811707,0.06891227513551712,-0.15605849027633667,0.5733750462532043,0.33769097924232483,0.09372270107269287,0.27447283267974854,-0.2188710868358612,-0.1548575460910797,0.17683491110801697,0.01929180696606636,-0.010001270100474358,0.4820343255996704,0.4265865683555603,0.1401165872812271,0.062081191688776016,0.18723200261592865,0.08981752395629883,0.5375173091888428,0.07844178378582001,0.35825008153915405,-0.7314558029174805,-0.017266126349568367,-0.037826452404260635,-0.5914925932884216,0.19252701103687286,0.04578528553247452,-0.14925043284893036,-0.0299068670719862,0.7728214263916016,0.31131184101104736,0.10555313527584076,0.3954216539859772,0.14277711510658264,-0.004779641050845385,0.027338258922100067,0.035242170095443726,-0.059007566422224045,0.5801665782928467,0.5304983854293823,0.044944342225790024,0.2736569046974182,-0.15031440556049347,-0.15583696961402893],[-0.08584476262331009,-0.6521891951560974,-0.259223073720932,0.18676798045635223,-0.9040313363075256,-0.9130221009254456,-0.07105372101068497,-0.028827674686908722,-0.15833643078804016,-0.09248167276382446,-0.15245546400547028,0.04793879762291908,0.5331900715827942,-0.49519890546798706,-0.5625805258750916,0.24206754565238953,-0.7857438921928406,0.009889477863907814,0.006368774920701981,-0.10940404236316681,0.09777802228927612,0.10418430715799332,-0.5841549038887024,-0.26069700717926025,-0.035261839628219604,-0.8737216591835022,-0.20293521881103516,-0.05359768122434616,0.7355344295501709,0.17490516602993011,-0.1448647826910019,0.9498329162597656,0.9586658477783203,0.0004409457033034414,0.05399640277028084,0.1963273584842682,0.0851202979683876,-0.10860995203256607,0.2292584329843521,-0.11927168816328049,-0.20530933141708374,0.7486793994903564,-0.2800927460193634,-0.2523644268512726,0.03718506544828415,-0.02057350054383278,-0.36779865622520447,0.14907358586788177,-0.7497050762176514,-0.0526437908411026,0.34763526916503906,-0.3753397762775421,0.2818529009819031,0.10744663327932358],[-0.05876268818974495,-0.20898687839508057,0.04646868258714676,0.46984270215034485,-0.21897827088832855,0.5927210450172424,0.05936726927757263,0.4601080119609833,0.44868502020835876,-0.06764911860227585,-0.007990873418748379,-0.0037781198043376207,0.3833220303058624,0.08132358640432358,0.06609295308589935,0.46910062432289124,-0.4676651656627655,0.23980368673801422,0.02839457429945469,-0.07678298652172089,-0.13060106337070465,0.8446994423866272,0.1519671231508255,-0.6063835620880127,0.6931943297386169,-0.15429478883743286,-0.15330876410007477,0.12076864391565323,0.2813330590724945,-0.01944434642791748,-0.37869787216186523,0.2282237857580185,-0.5727351307868958,-0.1172199472784996,-0.46754562854766846,-0.3572933077812195,0.0853429064154625,-0.06509749591350555,0.23384182155132294,-0.2767365872859955,0.5071435570716858,-0.40185895562171936,-0.6391622424125671,0.044005997478961945,-0.22295820713043213,-0.01962447352707386,-0.29044973850250244,0.021876050159335136,-0.14045590162277222,-0.2783566117286682,-0.22832603752613068,-0.31420430541038513,-0.011024165898561478,-0.23843449354171753],