{"config":{"input_dim":54,"hidden_dim":128,"num_layers":1,"dropout":0.0,"future_steps":6},"tensors":{"gru.weight_ih_l0":{"shape":[384,54],"data":[[-0.05957702919840813,-0.20296218991279602,0.04724619537591934,0.060927845537662506,-0.10740365087985992,-0.07910457998514175,0.14843519032001495,-0.16406124830245972,0.013062285259366035,-0.09531832486391068,-0.02804974839091301,0.1269996464252472,-0.16017012298107147,0.2537814974784851,-0.44074174761772156,-0.1303868442773819,0.12913089990615845,-0.10419342666864395,-0.09452953934669495,0.08472560346126556,-0.03082706779241562,-0.38707002997398376,-0.09715385735034943,-0.2951939105987549,-0.1680765002965927,0.07981459051370621,-0.12919707596302032,-0.09566278755664825,0.2592553496360779,-0.07660190761089325,-0.06081003695726395,0.07560864090919495,-0.03599473461508751,-0.14545540511608124,0.18159952759742737,0.03868919610977173,-0.048904649913311005,0.04383876547217369,-0.08282511681318283,-0.021467750892043114,0.46775582432746887,-0.02824990078806877,-0.005540398880839348,0.40432822704315186,-0.15804235637187958,0.13573910295963287,0.12144418805837631,-0.04851051792502403,-0.147801473736763,0.22467607259750366,0.0215182863175869,-0.06200338900089264,0.23471109569072723,-0.08336971700191498],[0.03312216326594353,0.39758074283599854,-0.4293057322502136,-0.19632524251937866,-0.12077929824590683,-0.2186020165681839,0.09325884282588959,0.04395841434597969,0.02345152571797371,-0.006491316482424736,-0.03280145674943924,0.031098736450076103,-0.4164751470088959,0.06943224370479584,-0.053096309304237366,-0.08865881711244583,0.10206351429224014,-0.19304995238780975,-0.17508026957511902,0.2022843360900879,0.10620197653770447,-0.10206376761198044,0.15006937086582184,-0.017960621044039726,-0.23247820138931274,-0.15110085904598236,-0.17966240644454956,0.027844958007335663,-0.3848963975906372,0.4247342646121979,0.26134824752807617,0.1392597258090973,0.12379341572523117,-0.14447440207004547,-0.04776683449745178,-0.12636524438858032,0.06662671267986298,-0.215497225522995,0.23042814433574677,0.07420359551906586,-0.0099533312022686,0.2536464333534241,-0.09295780956745148,-0.07932893931865692,-0.3771410584449768,-0.06037118658423424,-0.1694108247756958,0.04768944904208183,-0.0026355814188718796,0.02563483454287052,0.2517308294773102,-0.1846534013748169,-0.23864364624023438,-0.39503249526023865],[-0.047295667231082916,0.2598814070224762,-0.2797412872314453,0.046964358538389206,-0.16482266783714294,-0.06353005021810532,0.00021865199960302562,-0.29628410935401917,-0.10958392173051834,-0.18017899990081787,0.07819028198719025,-0.014363756403326988,0.05685241147875786,-0.09586874395608902,-0.04735895246267319,-0.3176356256008148,-0.2521257698535919,-0.024534793570637703,-0.1993524730205536,0.03599051386117935,0.105445496737957,0.04270927235484123,0.15820428729057312,-0.034176912158727646,-0.1926865130662918,-0.22124354541301727,0.23476673662662506,0.08633103221654892,-0.1462523639202118,0.2742457389831543,-0.13446296751499176,0.1600761115550995,0.08641847968101501,-0.011126694269478321,0.32517126202583313,0.09933220595121384,0.12700779736042023,-0.0972490906715393,0.15182943642139435,0.22711624205112457,0.1154167652130127,-0.016822488978505135,0.06529383361339569,-0.047636792063713074,0.7365390658378601,0.0019438761519268155,0.012112054042518139,0.09337503463029861,-0.11552592366933823,0.15314052999019623,0.05993258208036423,-0.0005633822875097394,-0.029660670086741447,0.7031072378158569],[0.07089169323444366,0.3088371157646179,-0.29323533177375793,-0.06880833953619003,0.12680484354496002,-0.16481900215148926,-0.026055969297885895,-0.0051347981207072735,-0.3352958858013153,0.0387953482568264,0.09553004801273346,-0.12432800978422165,-0.35592731833457947,0.021076124161481857,-0.43706580996513367,-0.15160664916038513,-0.007704185321927071,-0.35259437561035156,0.005514549557119608,0.1957557648420334,0.003411879064515233,-0.29581770300865173,0.06220824271440506,-0.3439010977745056,-0.24154919385910034,-0.22211337089538574,-0.24589136242866516,0.03057236410677433,-0.29026365280151367,0.3304922580718994,0.01913088746368885,-0.10622205585241318,0.252163290977478,-0.01629061996936798,-0.06489181518554688,0.278557687997818,-0.14985300600528717,-0.10872594267129898,-0.008595738559961319,-0.016444800421595573,0.07690267264842987,-0.3149521052837372,-0.02013728767633438,-0.222849041223526,-0.05809479206800461,-0.06381123512983322,-0.01439189724624157,-0.11260318011045456,-0.09571925550699234,-0.06058517098426819,-0.322226345539093,-0.17590539157390594,-0.43196937441825867,-0.20937030017375946],[-0.02921283431351185,0.1145644411444664,-0.17129379510879517,0.09636109322309494,0.47130224108695984,0.0667923092842102,0.3260364234447479,-0.026570670306682587,-0.07373695820569992,0.09656580537557602,0.06419327855110168,0.03374864533543587,-0.12492876499891281,0.3820568025112152,-0.13178658485412598,0.28013384342193604,-0.04563617706298828,-0.35170501470565796,-0.005348398815840483,0.25838714838027954,0.008131475187838078,0.14904293417930603,0.2591555416584015,-0.28170493245124817,0.2435186505317688,0.1854764074087143,-0.4703250527381897,-0.03192565217614174,-0.1403234302997589,0.19169147312641144,-0.21200336515903473,-0.4976150393486023,-0.052269529551267624,-0.3715483844280243,0.007886283099651337,-0.006584658287465572,0.029614077880978584,-0.030188513919711113,0.04589559882879257,-0.5268430113792419,-0.22084710001945496,-0.40077802538871765,0.06541526317596436,-0.07665952295064926,-0.2060878723859787,-0.04597371071577072,-0.13475002348423004,-0.17733228206634521,0.008124103769659996,-0.3221254050731659,-0.27230802178382874,0.42114973068237305,0.0602329783141613,-0.07735101878643036],[-0.025815218687057495,0.32168421149253845,-0.29786401987075806,-0.08809556812047958,0.1744670420885086,-0.37841489911079407,-0.024699749425053596,-0.34448695182800293,-0.3130492568016052,0.019910847768187523,0.013208051212131977,-0.05023576691746712,-0.20509302616119385,0.09724093973636627,-0.31130269169807434,0.17619231343269348,0.21146026253700256,-0.334743857383728,-0.027421768754720688,0.2646371126174927,-0.09356975555419922,-0.015521231107413769,0.4314311146736145,-0.2774237096309662,0.2081638127565384,0.37519344687461853,-0.2155808061361313,0.131535142660141,-0.28387388586997986,0.30188894271850586,0.10153932124376297,-0.17551465332508087,0.44162192940711975,-0.0774194598197937,0.31322646141052246,0.4194844365119934,0.045257702469825745,-0.12428682297468185,0.0936935767531395,-0.07571113109588623,-0.0374058373272419,0.07636953890323639,0.1252935230731964,0.2773021459579468,0.038297198712825775,-0.05187511071562767,-0.1600339561700821,0.05948436260223389,-0.295748770236969,0.059542857110500336,-0.12598870694637299,-0.26927003264427185,0.2579326331615448,-0.3649745583534241],[-0.007165620569139719,0.07355143874883652,0.21912282705307007,0.030291782692074776,0.1956012099981308,-0.14954876899719238,-0.013809775933623314,-0.6046820878982544,0.02217790111899376,-0.1009669229388237,0.04115401208400726,0.02628861553966999,0.24245406687259674,0.38739538192749023,0.001441692584194243,0.24817855656147003,-0.0971117839217186,0.0973210483789444,0.06114669516682625,0.15138734877109528,-0.007080292794853449,0.4667985737323761,0.8115280866622925,-0.28095683455467224,0.11058993637561798,0.0764274150133133,0.08482939749956131,-0.03095654584467411,0.02135557495057583,-0.08103395253419876,-0.13938963413238525,-0.20218795537948608,0.23286204040050507,-0.06941647827625275,0.5311071276664734,0.07615222036838531,0.02676156349480152,0.04894299432635307,-0.06924901157617569,-0.2347661554813385,-0.002680470235645771,0.1203322634100914,-0.3457666337490082,0.09415332973003387,0.3193291425704956,0.13651582598686218,0.014109322801232338,-0.0834055095911026,-0.1312595158815384,0.4558902978897095,-0.07664327323436737,-0.48785489797592163,0.47632482647895813,0.37933549284935],[-0.1967703104019165,0.13596341013908386,0.21282127499580383,-0.18742364645004272,-0.18500502407550812,-0.1775873452425003,0.09633728116750717,-0.19319845736026764,-0.1301949918270111,0.007285565137863159,-0.10307251662015915,0.26031413674354553,0.16015063226222992,-0.1449848860502243,-0.3273613750934601,0.07928290218114853,0.009268717840313911,-0.1338789463043213,-0.009360246360301971,-0.0571846142411232,0.09765934199094772,0.3855975866317749,-0.07706862688064575,-0.17807921767234802,-0.043575718998909,-0.22457706928253174,-0.1729947030544281,0.1558665633201599,-0.06932348757982254,-0.1981426328420639,0.23088949918746948,0.1600070297718048,0.20201840996742249,-0.013975583016872406,0.11987205594778061,0.24603204429149628,0.09616781026124954,-0.10058264434337616,-0.07269261032342911,-0.02244935929775238,-0.5555873513221741,-0.10981755703687668,0.0679781585931778,-0.13531480729579926,0.13586683571338654,0.1428288221359253,-0.09285308420658112,-0.08901821821928024,0.09685487300157547,-0.4618246555328369,-0.15461188554763794,-0.03628677502274513,-0.10338176041841507,0.11138926446437836],[-0.12542250752449036,-0.042136192321777344,0.4544786214828491,0.015065287239849567,0.09871036559343338,0.13321299850940704,0.04180804267525673,0.042210180312395096,-0.31420716643333435,-0.018773049116134644,-0.1849248856306076,0.25063255429267883,0.4778924584388733,-0.49670830368995667,0.11929122358560562,0.15684956312179565,-0.044464774429798126,-0.4867323040962219,-0.05124860256910324,-0.50880366563797,0.1352245956659317,0.24011610448360443,-1.0139997005462646,0.0030913681257516146,-0.28606393933296204,-0.8472241759300232,-0.17750374972820282,0.10686898976564407,0.028875727206468582,-0.3933194577693939,0.032933447510004044,-0.168737530708313,-0.1123012900352478,-0.04308014735579491,0.022561397403478622,0.3420928716659546,0.07660667598247528,0.02653479389846325,-0.07788196951150894,-0.7795930504798889,-0.313507080078125,-0.10984019190073013,-0.39875081181526184,-0.085160993039608,-0.2841797173023224,0.1485583335161209,0.12100671976804733,0.12329232692718506,-0.39610451459884644,-0.20392738282680511,0.14241307973861694,-0.3776908814907074,-0.18139557540416718,-0.28662505745887756],[-0.07868298143148422,-0.19195130467414856,0.29913821816444397,-0.38100743293762207,0.36817553639411926,0.301999568939209,0.05737024545669556,0.7875821590423584,0.3474666178226471,0.04652949422597885,0.0645490512251854,0.09683392941951752,0.051205553114414215,0.3978334665298462,0.060392603278160095,0.3256092369556427,0.2679944336414337,0.18770301342010498,0.020323874428868294,0.1943480521440506,0.07330254465341568,0.3790586292743683,0.31207191944122314,0.14778757095336914,0.4093836843967438,-0.05420222878456116,0.1357593685388565,0.005063253920525312,0.22037164866924286,-0.23509936034679413,0.33420926332473755,-0.25500357151031494,-0.24338799715042114,-0.1378214806318283,-0.7193400263786316,-0.23176512122154236,-0.10641330480575562,0.042223259806632996,-0.060231469571590424,0.10527671873569489,0.09445682913064957,-0.38247641921043396,0.009956437163054943,-0.33355027437210083,-0.25041112303733826,0.23607833683490753,0.28644296526908875,-0.05920356884598732,0.42266660928726196,0.14709694683551788,-0.1850111484527588,-0.06860153377056122,-0.38515082001686096,-0.18356940150260925],[-0.009236980229616165,0.025418197736144066,0.12892895936965942,-0.14624494314193726,-0.08692432940006256,0.09429417550563812,0.01682347059249878,-0.08383321017026901,-0.11990383267402649,0.011350016109645367,-0.08515011519193649,0.031898513436317444,0.30833399295806885,-0.3306505084037781,0.29640111327171326,0.5108085870742798,-0.09622766822576523,0.0006847251206636429,-0.07377609610557556,-0.20125074684619904,0.15692287683486938,0.048113588243722916,-0.6583554744720459,0.2740344703197479,-0.030615661293268204,-0.6391593217849731,0.05328111723065376,0.16274262964725494,-0.12937934696674347,-0.1675432324409485,0.10801642388105392,0.01786383055150509,-0.11911395192146301,-0.05893845111131668,0.041813548654317856,0.2151230424642563,0.07232268154621124,0.04723609983921051,-0.1029762551188469,-0.06330575793981552,0.2882061302661896,-0.24219077825546265,-0.055465999990701675,0.08582916110754013,-0.09714727848768234,0.11791345477104187,0.19048663973808289,0.043251145631074905,0.2590048313140869,0.19059130549430847,-0.10382738709449768,0.07535641640424728,0.05457151681184769,-0.12434389442205429],[0.04341805726289749,0.2005068063735962,-0.5624329447746277,-0.3323900103569031,-0.14067575335502625,-0.18357858061790466,-0.0870579332113266,-0.16517004370689392,-0.3023965656757355,-0.08301220834255219,0.13040663301944733,-0.26252231001853943,-0.32831260561943054,0.1349378228187561,-0.5331787467002869,-0.10584025084972382,-0.08570622652769089,-0.2632954716682434,-0.2555891275405884,0.10037390887737274,-0.004143415484577417,-0.25541430711746216,-0.0621216855943203,-0.22852012515068054,-0.22280602157115936,-0.16012942790985107,-0.0028185416013002396,-0.004587418865412474,-0.25850024819374084,0.5942485928535461,0.32207298278808594,0.14197111129760742,0.21861085295677185,0.03995715454220772,0.18186618387699127,0.27557530999183655,0.17460328340530396,-0.09390292316675186,0.09380882978439331,0.8945034742355347,-0.2360433042049408,0.21879220008850098,0.15318910777568817,0.09881439059972763,0.2653306722640991,0.0173159409314394,-0.14815692603588104,-0.043688077479600906,0.24457761645317078,-0.3325492739677429,0.16189487278461456,-0.07456336915493011,0.004068656824529171,0.08309994637966156],[-0.0773114338517189,0.037924282252788544,0.03684169054031372,0.2204163521528244,-0.5627396702766418,-0.208989217877388,-0.03252791240811348,-0.12291485071182251,-0.13433559238910675,-0.2097884565591812,-0.15852870047092438,0.19629761576652527,0.008720309473574162,-0.0607849583029747,0.047953348606824875,0.11115040630102158,-0.5190995335578918,-0.13202854990959167,-0.24074611067771912,-0.12174694240093231,0.2119692862033844,-0.04074302688241005,0.02678644470870495,-0.01175475213676691,0.04704336076974869,-0.1316755712032318,-0.0650828406214714,0.17562253773212433,-0.12464223057031631,0.0710640400648117,-0.26957711577415466,0.500243067741394,0.2816949486732483,0.021337218582630157,-0.0017925387946888804,0.24875110387802124,0.0030363143887370825,-0.11175140738487244,0.06348969042301178,-0.3391004800796509,0.21551819145679474,-0.18031932413578033,-0.017079662531614304,-0.3309757113456726,0.1957426369190216,0.040726788341999054,0.007107787765562534,-0.02921936847269535,-0.24113988876342773,0.058372147381305695,-0.3614521622657776,-0.030400529503822327,-0.05273177847266197,0.05623627454042435],[0.01433114055544138,0.42852696776390076,-0.3625442683696747,0.11718304455280304,0.10195796936750412,-0.49041759967803955,0.12221679836511612,-0.01447160542011261,-0.06806984543800354,-0.14574235677719116,0.0036162303294986486,0.09363950043916702,-0.22591961920261383,0.42867887020111084,-0.15728820860385895,-0.0423528216779232,0.4183974862098694,0.19945064187049866,-0.11132744699716568,0.2718135714530945,-0.011429687030613422,-0.2641260325908661,0.7188932299613953,0.11245480924844742,-0.10960382968187332,0.32965442538261414,0.20972371101379395,0.11044181138277054,-0.36020588874816895,0.259463369846344,-0.10452210903167725,-0.025807639583945274,0.5819571614265442,-0.034212905913591385,0.12545350193977356,0.09655717760324478,0.0013563440879806876,-0.15903188288211823,0.22152723371982574,0.0042960066348314285,0.06813506036996841,0.16736574470996857,-0.12645182013511658,0.22204096615314484,-0.12095462530851364,-0.03944634273648262,-0.10446029156446457,0.056915052235126495,-0.026115596294403076,0.2020559459924698,-0.11683531850576401,-0.19144755601882935,0.006910091731697321,-0.2843564450740814],[-0.18187706172466278,0.33941230177879333,0.495545357465744,-0.225662961602211,0.49244868755340576,0.04742154851555824,-0.06372062861919403,0.10626395046710968,-0.27570703625679016,-0.15824474394321442,-0.18767419457435608,0.35440686345100403,-0.1879110485315323,0.22192993760108948,0.46647924184799194,0.18108339607715607,0.05457489565014839,0.08303238451480865,0.08802103996276855,0.111322320997715,0.18354198336601257,0.2682229280471802,0.4620039761066437,0.38134267926216125,0.18156296014785767,0.14141221344470978,0.12870022654533386,0.14851488173007965,-0.24083325266838074,-0.45397821068763733,0.15088330209255219,-0.48602423071861267,-0.03319021314382553,0.0264408141374588,-0.08154869824647903,0.18132135272026062,-0.018777012825012207,-0.21077212691307068,-0.07699507474899292,-0.202151358127594,0.36909857392311096,0.2206563502550125,-0.12201540172100067,0.16593798995018005,0.37796878814697266,0.1163409873843193,-0.03615754470229149,0.10349425673484802,-0.04170157387852669,0.4514380991458893,0.2024773359298706,-0.250696063041687,0.4036651849746704,0.03340741619467735],[0.13809464871883392,-0.006842037662863731,0.2779141962528229,-0.361722856760025,0.2888559401035309,0.1344912052154541,0.172870472073555,0.09514201432466507,-0.37200024724006653,0.1531836986541748,-0.0344567708671093,0.04990273341536522,-0.38544711470603943,-0.11045638471841812,-0.1676943600177765,-0.273283988237381,0.052436552941799164,0.07819579541683197,0.18869280815124512,0.05606130138039589,-0.1461886167526245,-0.5103945732116699,-0.2936381697654724,0.04583137109875679,-0.6317412853240967,-0.02938203141093254,0.2971343994140625,0.017042506486177444,0.03507368266582489,-0.27286699414253235,0.3917289078235626,-0.2601196765899658,-0.025548923760652542,-0.14271868765354156,-0.08571445941925049,0.4017926752567291,-0.07035371661186218,-0.008237496018409729,-0.04448075592517853,-0.010849441401660442,-0.18716557323932648,-0.041860856115818024,-0.11899175494909286,0.20403672754764557,-0.2971791625022888,-0.03509054705500603,0.36705896258354187,0.0231652669608593,-0.08648140728473663,-0.06288020312786102,0.31943926215171814,-0.10527808219194412,0.18430951237678528,-0.16601307690143585],[-0.10865149646997452,0.1919562667608261,-0.2242346704006195,-0.09958405047655106,0.14349579811096191,-0.33068424463272095,-0.006212541367858648,-0.525682270526886,-0.34109005331993103,0.059085626155138016,-0.14789454638957977,-0.0002553689118940383,-0.02715073525905609,0.08801891654729843,-0.06069125980138779,0.04547295719385147,-0.29884979128837585,0.4258244037628174,-0.06347659230232239,0.2475178986787796,-0.012317980639636517,0.04078823700547218,0.961211085319519,-0.23938068747520447,0.3418278098106384,0.09464680403470993,0.44244518876075745,0.13600482046604156,-0.2770419716835022,0.1985040009021759,0.0964125245809555,-0.12055803090333939,0.339027464389801,0.04916490241885185,0.6215247511863708,0.2873932123184204,-0.020819291472434998,-0.12750306725502014,-0.013637303374707699,0.05284057557582855,0.17011180520057678,0.09359404444694519,-0.09169786423444748,0.17528389394283295,0.06722507625818253,0.048605188727378845,-0.21665699779987335,0.11010148376226425,-0.15038783848285675,0.31308215856552124,-0.42302942276000977,-0.24280844628810883,0.2292117178440094,-0.0075501855462789536],[-0.06745050847530365,0.009944994933903217,0.020036589354276657,0.30967122316360474,0.04306880757212639,-0.12146653234958649,0.12123909592628479,0.3793281018733978,-0.081083744764328,-0.04093477874994278,0.0121949203312397,0.13674874603748322,-0.32764843106269836,0.5097134709358215,-0.05717402696609497,-0.2890627384185791,0.39306366443634033,-0.3079465925693512,-0.048591285943984985,0.09894194453954697,0.01846548169851303,-0.33695730566978455,0.03830080106854439,0.12026715278625488,-0.3462010324001312,-0.12117906659841537,-0.17944397032260895,-0.014720043167471886,-0.07639375329017639,-0.1823764592409134,-0.3323708176612854,-0.17335636913776398,0.07188325375318527,-0.16382896900177002,-0.3384132385253906,0.21289321780204773,-0.02933412790298462,-0.079828180372715,0.028517097234725952,-0.2442779690027237,0.1766297072172165,-0.13704456388950348,-0.0016335787950083613,0.3996732234954834,-0.0863477811217308,-0.05064096674323082,-0.013347198255360126,-0.07739818841218948,-0.28463995456695557,-0.04270840063691139,-0.34710586071014404,0.03293483704328537,0.17451633512973785,-0.1986730694770813],[-0.0468093566596508,0.0914982408285141,-0.4214296042919159,-0.03856154903769493,0.34199997782707214,0.08527063578367233,0.14981317520141602,-0.2660905420780182,-0.2776367664337158,0.031913504004478455,0.035790082067251205,-0.09113652259111404,-0.2840295732021332,-0.043263256549835205,0.22176575660705566,-0.016383863985538483,-0.05256306007504463,0.06355639547109604,-0.1358056366443634,0.3888586461544037,0.07076340913772583,0.1669532060623169,0.2052803933620453,0.1599554866552353,0.21277844905853271,0.447589635848999,-0.05527667701244354,0.13793277740478516,-0.14938995242118835,0.4148741662502289,0.10700226575136185,-0.23263780772686005,-0.03561778739094734,-0.0983867272734642,0.367700457572937,0.23989716172218323,0.11030257493257523,-0.12177564948797226,0.04485419765114784,-0.16899973154067993,-0.10134625434875488,-0.382699191570282,0.07087446004152298,0.17244510352611542,0.059591490775346756,-0.0543130524456501,-0.06824562698602676,-0.09330563247203827,-0.20411764085292816,-0.26383456587791443,-0.5065919756889343,0.07042308151721954,0.10980317741632462,-0.15307730436325073],[-0.046993665397167206,0.05040756240487099,0.37527036666870117,-0.29144319891929626,0.5294341444969177,-0.30043384432792664,-0.13372142612934113,-0.293368399143219,-0.9136974215507507,0.10670343041419983,-0.16885440051555634,0.20784872770309448,-0.2328699380159378,-0.1865064948797226,0.14072337746620178,-0.030893415212631226,-0.6348554491996765,0.0043847826309502125,0.2009093463420868,0.03621495142579079,0.09890741109848022,-0.2547761797904968,-0.033022258430719376,0.3649471402168274,-0.29137131571769714,-0.22055506706237793,0.16604655981063843,0.07094346731901169,-0.09760908782482147,-0.4420734941959381,0.2572045922279358,-0.5777072310447693,0.24227914214134216,0.16770239174365997,0.277188777923584,0.9249729514122009,0.09158843755722046,-0.1553104817867279,-0.12116460502147675,-0.0868232473731041,-0.16108298301696777,0.17662052810192108,-0.4087725281715393,-0.13187798857688904,0.4654991924762726,0.15858019888401031,-0.09187594056129456,0.022737620398402214,-0.2717086374759674,0.29986143112182617,0.13083036243915558,-0.479846328496933,0.4455564022064209,0.2516302168369293],[-0.21145841479301453,0.30522236227989197,-0.0010113195748999715,0.10274478793144226,-0.17505954205989838,-0.6145424246788025,0.2891957461833954,-0.0036508222110569477,-0.22179558873176575,-0.25970807671546936,-0.1705552488565445,0.13604412972927094,0.1341775357723236,-0.2529052495956421,-0.46233898401260376,0.2484564483165741,-0.06832730770111084,-0.4855726957321167,-0.2575639486312866,-0.10240848362445831,0.21261711418628693,-0.013082868419587612,-0.03849022090435028,-0.17180447280406952,0.11403492093086243,-0.11904023587703705,-0.4230310618877411,0.21582087874412537,-0.36227020621299744,0.07278332114219666,0.030745476484298706,0.1025887131690979,0.6137621402740479,-0.2883540689945221,-0.022351743653416634,0.3462093770503998,-0.008088033646345139,-0.1944063901901245,0.14885753393173218,0.09393620491027832,-0.14271195232868195,0.2993328273296356,-0.2228320688009262,-0.06363333016633987,0.25373321771621704,-0.035554297268390656,-0.07255060970783234,0.09249018132686615,-0.3280043601989746,-0.07977669686079025,-0.0006187199614942074,-0.14360541105270386,-0.05913810059428215,0.04146932065486908],[-0.07749360799789429,0.02575237676501274,0.10444614291191101,0.025740476325154305,-0.4290652275085449,0.12096989899873734,0.04213534668087959,-0.36743298172950745,0.12021295726299286,0.030891701579093933,-0.04856382682919502,-0.02833656221628189,0.2561344504356384,-0.5119073987007141,0.051001112908124924,0.03978256508708,0.13639098405838013,-0.19959025084972382,-0.002707851119339466,-0.14552122354507446,-0.04531944915652275,0.04655078053474426,-0.59938645362854,-0.1654316782951355,0.024759260937571526,-0.19291527569293976,-0.19315595924854279,0.135342076420784,-0.11859898269176483,-0.19502116739749908,0.0528862327337265,0.4099912941455841,-0.14912518858909607,-0.07917113602161407,0.22177211940288544,-0.055034320801496506,-0.06998597085475922,0.019450131803750992,-0.10039136558771133,-0.36325955390930176,0.2383691817522049,-0.1436035931110382,0.019946560263633728,0.2651386260986328,-0.1882942020893097,0.03804795816540718,0.2325281947851181,-0.11628049612045288,-0.048612043261528015,0.13312241435050964,0.14365921914577484,0.07656165212392807,0.06908288598060608,-0.13571903109550476],[-0.011076720431447029,0.13849899172782898,-0.1343764066696167,0.20077109336853027,-0.2047160267829895,0.13024452328681946,0.15936881303787231,-0.014690619893372059,-0.2856016159057617,-0.17253391444683075,-0.13151982426643372,0.2034895420074463,-0.12074200063943863,0.0672450140118599,0.026890840381383896,0.08877366781234741,-0.16271916031837463,-0.001824470004066825,-0.07997380197048187,0.05782473087310791,0.09354204684495926,0.06970582902431488,0.253010094165802,-0.21190695464611053,-0.03928571194410324,-0.3864585757255554,0.060025591403245926,0.12885500490665436,-0.1964060664176941,0.08342236280441284,-0.30026280879974365,0.2563907504081726,-0.14680571854114532,-0.09240599721670151,0.07118452340364456,0.242573544383049,0.030873989686369896,-0.04534422978758812,0.04760506749153137,-0.09578581154346466,0.3205251395702362,-0.3029954433441162,-0.4118252992630005,-0.21716424822807312,0.030157295987010002,0.12143968790769577,-0.1277492195367813,0.013731921091675758,0.2229263335466385,0.3480360209941864,-0.45112454891204834,-0.385075181722641,-0.07941852509975433,-0.04029062017798424],[-0.03096492774784565,0.04570120945572853,-0.2557416558265686,-0.4337507486343384,0.13603681325912476,-0.20555932819843292,-0.20441389083862305,-0.10334839671850204,-0.3148963451385498,0.06468800455331802,-0.03644384816288948,-0.15733684599399567,-0.5168946385383606,0.0003915881097782403,-0.312696248292923,-0.20666088163852692,-0.09017254412174225,-0.169801726937294,-0.07275912165641785,0.08748709410429001,-0.04403385519981384,-0.7082647085189819,-0.12467872351408005,-0.1942117065191269,-0.5575254559516907,0.015835262835025787,-0.09415112435817719,-0.011801212094724178,-0.05099049210548401,0.24255546927452087,0.4226751923561096,-0.13225892186164856,0.19874338805675507,0.20932023227214813,0.008830413222312927,0.20852158963680267,0.14280788600444794,0.04505263641476631,0.1620284467935562,0.15114423632621765,0.1298300325870514,0.10013792663812637,0.13222086429595947,0.05363784357905388,0.22312039136886597,0.09393739700317383,0.11521906405687332,-0.058175407350063324,0.12071706354618073,-0.18545320630073547,0.12745574116706848,0.004950369708240032,0.14356069266796112,0.1917625218629837],[-0.0861273929476738,-0.19638140499591827,-0.27302849292755127,-0.33271726965904236,-0.10380908846855164,0.033451177179813385,-0.03177912160754204,0.0046618604101240635,-0.2471219003200531,0.03629380837082863,-0.1307106614112854,-0.015866253525018692,-0.07929211854934692,-0.264984130859375,0.15017107129096985,-0.32165950536727905,0.056328773498535156,-0.12284533679485321,-0.021321194246411324,-0.006430908106267452,0.14456073939800262,0.27217674255371094,0.05895039811730385,-0.13120242953300476,-0.2371450513601303,0.05919609218835831,-0.1514395773410797,0.12463624775409698,0.24711579084396362,0.2897905707359314,0.2404448539018631,0.13960705697536469,-0.016295230016112328,0.18020685017108917,0.04593905061483383,0.27797505259513855,0.2481229603290558,-0.08061337471008301,0.19105762243270874,0.13533101975917816,0.12648852169513702,-0.23538833856582642,-0.05196954682469368,0.2987736463546753,0.12043129652738571,0.04470639303326607,0.09884670376777649,-0.023655498400330544,0.21917106211185455,-0.031520213931798935,-0.24565650522708893,-0.03479577228426933,0.24198481440544128,0.029828330501914024],[-0.17371979355812073,0.3008827865123749,-0.26325011253356934,-0.324114590883255,-0.24236495792865753,-0.4120763838291168,0.05376289784908295,0.016264092177152634,0.08605662733316422,-0.2684311866760254,-0.2036544680595398,0.024333560839295387,-0.03829530254006386,-0.027833828702569008,-0.15182146430015564,-0.02187809906899929,-0.002057424047961831,-0.06407025456428528,-0.38534244894981384,-0.10912876576185226,0.2089698761701584,-0.04005470126867294,-0.14331920444965363,0.1451706737279892,0.015438523143529892,-0.062146320939064026,-0.3240920603275299,0.18253841996192932,-0.37728479504585266,0.16850435733795166,0.2659604847431183,0.2418362945318222,0.34759724140167236,0.01817651093006134,0.11257635056972504,-0.20914393663406372,0.08820927888154984,-0.11049814522266388,0.27536168694496155,0.15443897247314453,-0.018426071852445602,0.6608079671859741,0.09559708088636398,0.07550168037414551,-0.09095405787229538,0.2149774432182312,-0.12817548215389252,0.09089475125074387,-0.2893141210079193,0.1694715917110443,0.6368045806884766,0.20884083211421967,0.18467742204666138,-0.28820112347602844],[-0.14296621084213257,0.08781586587429047,0.2517280578613281,-0.2881493866443634,0.04527624323964119,0.31568896770477295,0.1456911712884903,0.1780620962381363,0.12336163967847824,-0.06639964133501053,-0.00285202544182539,0.041117336601018906,-0.23981134593486786,0.2521219849586487,0.3700808584690094,-0.018485229462385178,-0.06764627993106842,0.19912907481193542,-0.07896064221858978,-0.1970459371805191,0.11184822767972946,-0.010161456651985645,-0.0039207120425999165,0.4075109660625458,0.0878438800573349,0.2986794710159302,0.11761793494224548,0.025572003796696663,-0.02330285869538784,-0.208036407828331,0.1749345064163208,-0.2163533866405487,-0.3042585849761963,0.014455907046794891,-0.08743961155414581,-0.17618411779403687,-0.030778665095567703,-0.12792453169822693,0.0170865710824728,0.14351171255111694,0.05531225726008415,-0.09005266427993774,0.13417427241802216,0.4281831383705139,0.040658000856637955,-0.09144420921802521,0.0066285207867622375,-0.03844916447997093,0.20008066296577454,0.08097957819700241,-0.06085247918963432,0.20528404414653778,0.8095592260360718,0.0767303854227066],[-0.040818389505147934,0.05702720209956169,-0.33945199847221375,-0.03909602388739586,0.01642349548637867,-0.4667874872684479,-0.013248266652226448,0.022729409858584404,-0.5202932357788086,-0.14964522421360016,-0.12717470526695251,-0.2148309350013733,-0.21917389333248138,-0.17295359075069427,-0.12822748720645905,-0.17431211471557617,-0.032559480518102646,0.004537557251751423,-0.43453243374824524,-0.04609411582350731,-0.007221814710646868,-0.4618839621543884,-0.3363100588321686,0.11181633174419403,-0.09686047583818436,-0.045964669436216354,-0.009764453396201134,0.07937848567962646,-0.040385570377111435,0.3549208343029022,0.09808556735515594,0.08535555005073547,0.42219623923301697,-0.04287237673997879,0.02786453627049923,0.5126078724861145,0.012911730445921421,-0.1385193020105362,0.1555907130241394,0.03564155474305153,0.055344387888908386,0.34850504994392395,-0.09259659796953201,0.17796167731285095,0.4575483202934265,-0.09727597236633301,-0.13890935480594635,0.016784675419330597,-0.2914730906486511,0.08852705359458923,0.3263033330440521,-0.31851258873939514,0.3173031806945801,0.2083209604024887],[-0.1060660108923912,0.03179258108139038,0.03293337672948837,-0.00122240767814219,-0.0411543995141983,-0.16325274109840393,0.09575841575860977,-0.07115887850522995,0.03661171346902847,-0.06395422667264938,-0.15654681622982025,0.04128628969192505,-0.2074281871318817,-0.43728384375572205,-0.32972389459609985,0.019291631877422333,-0.20895004272460938,0.27702903747558594,-0.03470880538225174,-0.17584408819675446,0.09113731235265732,-0.16044557094573975,-0.17221257090568542,0.11233754456043243,0.10789136588573456,0.1303447186946869,0.4313603341579437,0.11153489351272583,-0.03478043153882027,-0.07563145458698273,0.008329145610332489,-0.028331801295280457,0.26270508766174316,0.008322593756020069,0.01553945243358612,-0.15026380121707916,0.2162580043077469,-0.2453581988811493,0.0796576589345932,-0.22467121481895447,-0.23424135148525238,0.21326087415218353,-0.2927912771701813,0.2324514389038086,-0.18925832211971283,0.2755768299102783,-0.2214590311050415,0.19954082369804382,-0.4101983904838562,0.018083499744534492,0.20106522738933563,-0.2501221299171448,0.37450188398361206,-0.241340771317482],[-0.12382365018129349,0.4310607612133026,-0.26085034012794495,-0.2783452868461609,0.28278183937072754,-0.3791000545024872,0.2917400896549225,-0.05143183842301369,-0.3905414342880249,-0.04303118214011192,0.029346052557229996,0.11435528844594955,-0.2319432944059372,0.039230406284332275,0.08978387713432312,0.09161327034235,-0.10819341242313385,-0.12905144691467285,-0.24040789902210236,0.29609158635139465,0.005502881482243538,0.1976778209209442,0.5024128556251526,0.08864358067512512,0.005815994460135698,0.07183835655450821,-0.24983060359954834,0.1604289561510086,-0.47354018688201904,0.270609974861145,0.371064156293869,-0.24424009025096893,0.4791073501110077,-0.4125773310661316,0.15487174689769745,0.32834339141845703,-0.0722859650850296,-0.1600387841463089,0.3077223002910614,-0.02537757158279419,-0.2638695538043976,-0.07680590450763702,-0.3025866746902466,0.07904418557882309,-0.0913642942905426,-0.06814223527908325,0.05420682579278946,0.11677667498588562,-0.0990019217133522,-0.2004031091928482,-0.03517962247133255,-0.22018484771251678,-0.09864552319049835,-0.4761992394924164],[-0.01940709725022316,0.14919541776180267,0.017746809870004654,0.1269322782754898,-0.35234078764915466,-0.49861007928848267,-0.06808648258447647,-0.6180901527404785,-0.3652673661708832,0.11159732937812805,-0.00551016116514802,0.09748344123363495,-0.10194390267133713,0.36693915724754333,-0.304229736328125,-0.18967631459236145,-0.0005729128606617451,-0.1080499142408371,0.03792659565806389,0.1659029722213745,0.026756227016448975,-0.21977299451828003,0.7817118763923645,-0.348077654838562,-0.03189824894070625,0.16648107767105103,0.01926136575639248,-0.08264954388141632,-0.06437929719686508,-0.09058689326047897,-0.2645646333694458,0.41013672947883606,0.4912607669830322,0.14346645772457123,0.647424042224884,0.2272116243839264,-0.11046337336301804,0.05130521580576897,-0.0963907316327095,-0.3761653006076813,0.47423627972602844,0.2014370858669281,-0.16721047461032867,0.1400502771139145,0.13188444077968597,0.1254916936159134,-0.0749247595667839,-0.14837981760501862,-0.35332515835762024,0.4906831383705139,-0.3917781114578247,-0.13385696709156036,0.17035317420959473,-0.21813739836215973],[-0.07981162518262863,0.02485496923327446,0.284184992313385,-0.13530376553535461,-0.10643365234136581,0.2941698133945465,-0.01471009012311697,-0.029590783640742302,0.13380032777786255,-0.04655153304338455,-0.1286245435476303,0.1554868221282959,0.5384089350700378,-0.5220857858657837,0.027052076533436775,0.42385587096214294,-0.5356067419052124,-0.18753758072853088,-0.054500170052051544,-0.09844069927930832,-0.02082751877605915,0.8551459908485413,-0.3520435094833374,-0.1255386769771576,0.3508290946483612,-0.8268686532974243,-0.17502711713314056,0.09491029381752014,-0.040487032383680344,-0.324910044670105,0.041091278195381165,0.029295071959495544,-0.30397865176200867,-0.04504198580980301,0.14554712176322937,-0.03819718956947327,-0.04829290136694908,-0.0269346684217453,0.08024882525205612,-0.4775684177875519,-0.5492466688156128,-0.016024593263864517,-0.13912919163703918,-0.583434522151947,0.13424977660179138,0.041856132447719574,-0.018972521647810936,0.13724027574062347,-0.1124037504196167,-0.4389786720275879,0.2412688434123993,-0.00223917025141418,-0.5427617430686951,0.4021649658679962],[-0.08122511208057404,0.11544244736433029,0.09426651149988174,0.031544625759124756,0.10794603079557419,0.21886977553367615,0.08787741512060165,0.2417551726102829,0.25354278087615967,-0.24175676703453064,0.004547428339719772,0.21317772567272186,-0.2092936635017395,0.6036727428436279,0.4723539352416992,0.07060404866933823,0.14775706827640533,0.02696298249065876,-0.19036062061786652,0.037471871823072433,0.17246006429195404,-0.09859392791986465,0.304462194442749,0.20229285955429077,-0.23440349102020264,0.35982590913772583,-0.16427730023860931,0.013760081492364407,-0.09477704763412476,-0.12119562178850174,-0.027905292809009552,-0.1765141636133194,-0.3462047278881073,-0.11864801496267319,-0.10013572126626968,-0.28993773460388184,-0.032063212245702744,-0.07247419655323029,0.09994219243526459,-0.037673648446798325,0.5459811687469482,-0.2248934656381607,-0.005042959935963154,0.05865867808461189,-0.3289381265640259,0.014216951094567776,0.018868450075387955,-0.026549143716692924,0.13138750195503235,0.36991655826568604,-0.3857713043689728,0.14937768876552582,0.13954728841781616,-0.23755419254302979],[0.036755602806806564,0.11748272180557251,-0.19874978065490723,-0.14614397287368774,0.4046737253665924,0.07168389111757278,-0.07855688035488129,0.17329014837741852,-0.25542864203453064,0.07250288873910904,0.13685521483421326,-0.19038055837154388,-0.031830549240112305,0.02077740617096424,0.22926479578018188,-0.1932862401008606,0.26087939739227295,-0.0652899518609047,0.03361254930496216,0.13178245723247528,-0.10685869306325912,-0.09638369828462601,0.04412561282515526,0.18874230980873108,-0.16308167576789856,0.49542102217674255,-0.22316518425941467,-0.13175761699676514,-0.12292544543743134,0.24989643692970276,0.03400195389986038,-0.3509618043899536,-0.11316057294607162,0.0989282876253128,-0.1259213387966156,0.183498814702034,-0.04163234308362007,0.15069405734539032,-0.04456518962979317,-0.24796666204929352,-0.1904732584953308,-0.0699378252029419,0.1315491497516632,0.3702402412891388,0.19380104541778564,-0.196808323264122,0.10187099874019623,-0.13742253184318542,-0.14234164357185364,0.06468909978866577,0.3022975027561188,0.30447858572006226,0.47171634435653687,0.08700715005397797],[-0.12377939373254776,0.08927285671234131,-0.5489243865013123,-0.3060168921947479,-0.19112911820411682,-0.3004434108734131,0.2999154329299927,-0.12317629903554916,-0.039066191762685776,-0.05737750977277756,-0.1635063737630844,0.01935248076915741,-0.021916816011071205,-0.19603662192821503,-0.13315913081169128,0.6063714027404785,-0.23853006958961487,-0.10368375480175018,-0.22492313385009766,0.3681524693965912,0.06053771451115608,-0.3685275614261627,-0.02250128984451294,0.204556405544281,0.5731676816940308,-0.32609614729881287,-0.1830856055021286,0.17952418327331543,0.05228962376713753,0.45408910512924194,0.3289191424846649,0.15374884009361267,0.28774577379226685,-0.32819825410842896,0.18222540616989136,0.09475962817668915,0.010087951086461544,-0.1725672334432602,0.47117313742637634,0.5583903789520264,0.11965128034353256,0.2799818217754364,-0.6386111974716187,0.00947980023920536,-0.13222113251686096,-0.012816228903830051,0.12338398396968842,0.2297772765159607,0.3061554729938507,0.1338101178407669,0.32117167115211487,-0.4682897627353668,0.04577089473605156,-0.22683630883693695],[-0.19449126720428467,0.07095326483249664,0.15000133216381073,0.18082326650619507,-0.23787078261375427,-0.0806797593832016,0.04717063903808594,-0.13730764389038086,-0.2729087769985199,-0.21307975053787231,0.023927701637148857,0.5562487840652466,0.09792657941579819,-0.1554134488105774,0.11445678025484085,-0.31382033228874207,-0.032901499420404434,-0.05909829959273338,-0.2198839634656906,0.11323884129524231,0.4339764714241028,0.10084797441959381,-0.09266986697912216,0.11793270707130432,-0.2549923062324524,-0.175938680768013,0.005130535922944546,0.03050314635038376,-0.1291862279176712,-0.21810001134872437,-0.027408946305513382,0.17447400093078613,0.19206629693508148,0.003996377810835838,-0.013926394283771515,0.13163664937019348,0.14974665641784668,-0.030528966337442398,-0.14061671495437622,-0.17874903976917267,0.2842903435230255,0.2344929724931717,-0.5967267751693726,0.2892352342605591,0.1946338713169098,0.2205623984336853,-0.05678997561335564,0.011471289210021496,-0.16338364779949188,0.40986543893814087,-0.12005248665809631,-0.4164259135723114,0.24945224821567535,-0.0980525016784668],[0.060414623469114304,0.30397874116897583,-0.014804566279053688,-0.005304057151079178,0.21321502327919006,-0.06614996492862701,0.08963404595851898,0.006935107056051493,0.27254340052604675,-0.07633399218320847,-0.00612860219553113,0.05999508500099182,-0.15206880867481232,0.2567847967147827,0.19872649013996124,0.10292188823223114,-0.0020983873400837183,0.3511391282081604,-0.0769803449511528,0.25472280383110046,0.06406596302986145,0.1421622931957245,0.2382441908121109,0.03658653050661087,0.06265246868133545,0.16279494762420654,0.04828466847538948,0.09069190919399261,-0.26631343364715576,0.09005063772201538,-0.027291422709822655,-0.13996200263500214,0.15140414237976074,-0.14740236103534698,0.036178190261125565,-0.29475119709968567,0.009050638414919376,0.01834297738969326,0.07940983772277832,-0.28000375628471375,0.13666751980781555,0.028258902952075005,-0.190180242061615,0.04027144983410835,-0.07304093986749649,-0.15075339376926422,0.10000865161418915,-0.08740605413913727,-0.014791660010814667,0.21111980080604553,-0.051105864346027374,-0.024505535140633583,0.27029410004615784,-0.18800581991672516],[0.011521969921886921,-0.09142647683620453,-0.14764077961444855,0.019118094816803932,-0.6408516764640808,-0.20606526732444763,0.20709854364395142,-0.4424874484539032,-0.013932274654507637,0.022186141461133957,0.03235134854912758,-0.09327992796897888,-0.17266349494457245,-0.2200317233800888,-0.22583171725273132,0.18970854580402374,-0.10602652281522751,-0.004501137416809797,0.05399774760007858,-0.21348470449447632,0.003259123768657446,-0.3118330240249634,-0.37157735228538513,-0.23383751511573792,0.09988266229629517,-0.30202367901802063,-0.23750805854797363,0.019903698936104774,0.17119655013084412,0.22712193429470062,0.039381347596645355,0.6705293655395508,0.2560615539550781,-0.1301153302192688,0.400716096162796,-0.1364426612854004,0.17151892185211182,-0.004864032845944166,0.01578230783343315,0.1895962357521057,0.3538498878479004,0.35385143756866455,-0.11225228011608124,0.25888875126838684,0.06793411821126938,-0.05673947557806969,-0.17325346171855927,-0.13550600409507751,-0.24889662861824036,-0.07838677614927292,0.32718604803085327,0.05237288028001785,0.24387137591838837,0.04160219058394432],[-0.14031681418418884,0.42581474781036377,-0.2129725068807602,0.0480765774846077,-0.08114093542098999,-0.25101539492607117,-0.1788717359304428,-0.24587732553482056,-0.31200456619262695,-0.11499234288930893,-0.10412444174289703,0.09586428105831146,-0.4829324185848236,0.027945680543780327,-0.06571090221405029,-0.407890647649765,-0.017897604033350945,-0.14558930695056915,-0.00830471608787775,0.32489004731178284,0.11894332617521286,-0.28092271089553833,0.38250741362571716,-0.011229490861296654,-0.5640861392021179,-0.00894104316830635,0.07274124771356583,0.047135431319475174,-0.48118382692337036,0.1591932326555252,-0.006662472151219845,0.107631154358387,0.3651350438594818,0.1900135725736618,0.1405593305826187,0.292793333530426,0.05863633751869202,-0.19736182689666748,0.08015067130327225,-0.04473491758108139,0.09454894810914993,-0.006744578015059233,0.17971991002559662,0.15150892734527588,0.07499772310256958,0.025378042832016945,-0.09415499120950699,-0.04684969782829285,-0.26510247588157654,0.14288699626922607,-0.12784886360168457,-0.008920153602957726,-0.0060770222917199135,-0.05265701562166214],[-0.17964744567871094,0.21209277212619781,0.017884427681565285,0.06374131143093109,0.34130656719207764,0.7117466926574707,0.045395657420158386,-0.19580885767936707,-0.10546251386404037,0.0025368202477693558,-0.17219242453575134,0.05652999132871628,-0.32817453145980835,0.20092396438121796,0.23267953097820282,-0.02626672014594078,-0.21417945623397827,-0.29075849056243896,-0.2916472256183624,-0.031000720337033272,0.0978647843003273,0.15857955813407898,-0.022168535739183426,-0.10593415051698685,-0.0685942992568016,-0.12949664890766144,-0.28665831685066223,0.11420544981956482,-0.18057368695735931,0.020234281197190285,-0.14203210175037384,-0.404954195022583,-0.5905026197433472,-0.10996939986944199,0.09990451484918594,0.19737590849399567,0.060819435864686966,-0.17705054581165314,-0.0032788857351988554,0.023779524490237236,0.105302594602108,-0.4819345772266388,0.026771092787384987,0.32063597440719604,0.20120874047279358,0.08328927308320999,-0.19104130566120148,-0.048098932951688766,0.4950868785381317,0.19373874366283417,-0.31884658336639404,-0.08878850191831589,0.4319308400154114,0.18653061985969543],[0.07967758178710938,0.1877269148826599,-0.44451916217803955,0.1584472954273224,-0.08411894738674164,-0.1838751882314682,0.03545883670449257,-0.3432247042655945,-0.09765040129423141,-0.015386596322059631,0.10307306796312332,-0.2696334719657898,-0.02843812294304371,0.22947339713573456,0.3309876620769501,0.14527758955955505,-0.08136165887117386,0.12482057511806488,-0.16810168325901031,-0.011253859847784042,-0.0320870578289032,0.09048294275999069,0.4173627495765686,0.2813761532306671,0.09141192585229874,0.17197345197200775,0.032572709023952484,0.03616930544376373,-0.1364631950855255,0.36606788635253906,-0.06453639268875122,0.10598691552877426,0.09480102360248566,-0.16982558369636536,0.43651795387268066,0.0020076995715498924,-0.0417686402797699,-0.030296456068754196,0.0626322478055954,-0.06693192571401596,0.25279486179351807,0.1819475144147873,-0.12283212691545486,0.07834874093532562,0.3269800841808319,-0.15840394794940948,-0.05903596058487892,-0.061353642493486404,0.1263289898633957,0.20708750188350677,0.05421542003750801,0.00013068814587313682,0.3979150354862213,0.40267202258110046],[0.08627405017614365,0.06728514283895493,0.06111564487218857,-0.020723318681120872,-0.40783756971359253,-0.4439457058906555,0.4264068901538849,0.19156840443611145,-0.7278098464012146,0.01660514809191227,0.014229577966034412,0.12095385044813156,-0.6320803165435791,-0.008448319509625435,-0.05328405275940895,0.0004323239845689386,0.17184089124202728,-0.07843144237995148,0.356821209192276,-0.1585315465927124,-0.10982661694288254,-0.1821065992116928,-0.12515473365783691,0.21297386288642883,0.0781671479344368,0.5011179447174072,-0.07416822761297226,-0.009146870113909245,-0.03514101356267929,-0.14006270468235016,0.15182043612003326,0.3772614896297455,0.5391711592674255,-0.3557190001010895,-0.25773149728775024,0.6159656643867493,-0.04798266664147377,0.007818770594894886,0.04642339050769806,-0.03127007186412811,0.28316831588745117,0.07891231030225754,-0.6194542050361633,-0.19707795977592468,0.36008772253990173,-0.14606641232967377,0.11535956710577011,-0.05626504868268967,-0.0004712348454631865,-0.16749824583530426,0.08799505978822708,-0.2586939334869385,-0.10739025473594666,0.2096894085407257],[0.029707882553339005,0.226338192820549,-0.1573820263147354,-0.20882435142993927,-0.09139324724674225,-0.26979026198387146,0.056412048637866974,-0.6804620623588562,0.05776192992925644,-0.049198124557733536,0.023797906935214996,0.11125827580690384,-0.12219197303056717,-0.026606136932969093,0.060338906943798065,0.34461304545402527,-0.6344908475875854,0.45029404759407043,-0.11436256766319275,0.3133279085159302,0.10612988471984863,0.1350676715373993,0.39418599009513855,0.14750804007053375,0.7326448559761047,-0.20840851962566376,0.2699882984161377,-0.033264756202697754,-0.24290888011455536,0.2228803187608719,0.0961502343416214,0.0870680958032608,0.29897764325141907,-0.04263535514473915,0.5989193916320801,-0.03379487618803978,0.028397424146533012,-0.15552157163619995,0.1953243613243103,0.02347324788570404,0.1922721117734909,-0.06422599405050278,-0.041884951293468475,0.055079568177461624,0.10287544131278992,0.0949796661734581,0.013366608880460262,0.15730491280555725,-0.14973653852939606,0.27916988730430603,-0.11436039954423904,-0.09138523787260056,0.1353580802679062,0.20501084625720978],[-0.14722295105457306,-0.12899884581565857,0.03978400677442551,-0.08805974572896957,-0.04564814269542694,-0.017697714269161224,0.02018081583082676,-0.1554795354604721,-0.14117953181266785,0.031653475016355515,-0.19937582314014435,-0.10982568562030792,0.524312436580658,-0.42431825399398804,0.16185149550437927,0.32338064908981323,-0.17693009972572327,0.017131205648183823,0.05797065421938896,-0.22792547941207886,-0.049914825707674026,0.46587440371513367,-0.31074339151382446,0.20564228296279907,0.269137978553772,-0.5839012861251831,0.20651333034038544,0.05944293737411499,0.16437755525112152,-0.10161121934652328,0.08403053879737854,0.0019320978317409754,0.15458549559116364,0.06114759296178818,0.21325653791427612,0.11108840256929398,0.18207333981990814,-0.039241865277290344,0.1469801664352417,-0.24378730356693268,0.00674589304253459,-0.0057650599628686905,-0.5397424101829529,0.09364085644483566,0.005283765960484743,0.07226492464542389,0.08183388411998749,0.12844428420066833,0.033725447952747345,0.20665116608142853,0.17001299560070038,-0.2312513291835785,-0.06841397285461426,0.058419257402420044],[0.05872396007180214,0.5113880038261414,-0.186435267329216,0.10816476494073868,0.2430528998374939,0.3906799256801605,0.04931386560201645,0.1782035529613495,0.18728001415729523,-0.1750357300043106,-0.019963376224040985,0.019070720300078392,-0.03048958070576191,0.18063409626483917,0.18935492634773254,-0.12918449938297272,0.3563900291919708,-0.25808101892471313,-0.2370038628578186,0.070603147149086,0.031842634081840515,0.12886810302734375,0.40767571330070496,-0.23257963359355927,-0.024566255509853363,0.4402218759059906,-0.49301788210868835,0.07358977943658829,-0.40939411520957947,0.08636576682329178,-0.14701837301254272,-0.18118657171726227,-0.34805727005004883,-0.0680665671825409,-0.29145583510398865,-0.24513287842273712,0.06472045928239822,-0.09104984998703003,-0.03207320347428322,-0.3131803870201111,0.3457263708114624,0.045442838221788406,-0.013178163208067417,0.19993306696414948,-0.1032341867685318,-0.0425126850605011,-0.2025647759437561,0.041822388768196106,-0.1304161250591278,0.4375045597553253,-0.13600237667560577,-0.019598206505179405,0.5614587068557739,-0.154477059841156],[-0.08980713039636612,0.2843968868255615,-0.21920046210289001,0.09669148176908493,0.11707180738449097,-0.12729889154434204,0.1371510624885559,-0.2735554873943329,-0.1257319450378418,-0.18054461479187012,-0.10799803584814072,0.031987495720386505,-0.2288682460784912,0.09405729919672012,0.1368473619222641,0.020933136343955994,-0.2700812518596649,0.014097477309405804,-0.1531355082988739,0.1949465125799179,0.04987019672989845,-0.059247978031635284,0.30712148547172546,0.024048343300819397,0.22527779638767242,-0.08682557195425034,0.1387876719236374,0.05575372278690338,-0.29965609312057495,0.3090957701206207,-0.04148713871836662,-0.049434926360845566,0.18431273102760315,0.007354323752224445,0.3042769134044647,0.035466860979795456,0.06857328116893768,-0.19608277082443237,0.12765364348888397,-0.06637248396873474,0.09727778285741806,0.010977650061249733,-0.09594157338142395,0.09074799716472626,-0.02581017091870308,0.06509561091661453,-0.15616127848625183,0.20126089453697205,-0.04304158687591553,0.18313252925872803,-0.039920344948768616,-0.011869456619024277,0.03918462619185448,-0.07275933027267456],[-0.018804006278514862,0.18925350904464722,-0.10697802901268005,0.005591505207121372,0.28775349259376526,-0.06204678863286972,0.050106123089790344,-0.3939948081970215,0.16256751120090485,-0.09887737035751343,0.04463425278663635,0.11136029660701752,-0.12982814013957977,0.10462876409292221,-0.26564615964889526,-0.06526905298233032,-0.05569712072610855,-0.05254943668842316,-0.0821315124630928,0.009505920112133026,-0.03289856016635895,-0.16508819162845612,-0.11761859059333801,-0.2240220010280609,-0.42284807562828064,-0.19460950791835785,0.11798585206270218,0.04524572566151619,-0.2564089000225067,-0.007699865382164717,0.007008617278188467,-0.30541348457336426,0.005322923418134451,-0.11165700107812881,0.3552969992160797,-0.0705430880188942,0.01202003937214613,0.01281869038939476,-0.02468430995941162,-0.033107612282037735,-0.1574583649635315,0.02875569649040699,-0.14114069938659668,0.08163850754499435,-0.1459992527961731,0.011832606047391891,-0.1789522022008896,0.08565670996904373,0.17107778787612915,-0.05840776115655899,0.021063508465886116,-0.041005685925483704,0.33215340971946716,-0.14175090193748474],[-0.08397693932056427,-0.4824250042438507,0.4809842109680176,-0.1358465552330017,-0.844045102596283,-0.2203175127506256,-0.4144764840602875,0.2165641188621521,-0.38951483368873596,0.06957961618900299,-0.13312266767024994,0.19160716235637665,-0.27292343974113464,0.0068326713517308235,-0.08671706914901733,-0.5468667149543762,-0.017536642029881477,0.2631389796733856,-0.037072502076625824,-0.14744935929775238,0.14833779633045197,-0.558323323726654,-0.3138470947742462,0.32643967866897583,-0.2853560745716095,-0.1826910525560379,0.4709157645702362,0.15638065338134766,0.534238338470459,-0.3243984282016754,0.16670392453670502,0.8947268128395081,0.281866192817688,0.45330050587654114,-0.26373711228370667,0.3391163945198059,0.17587724328041077,0.08796844631433487,-0.03658754378557205,0.20813924074172974,0.6065025329589844,0.03942323103547096,0.2999408543109894,-0.006207682657986879,0.141465425491333,0.22184984385967255,0.07908280938863754,0.057108525186777115,0.08936963230371475,0.21447867155075073,0.1363418996334076,0.13923458755016327,-0.007657725363969803,0.37453582882881165],[-0.13972333073616028,0.4905330538749695,0.14313651621341705,0.4803713858127594,0.19742581248283386,0.028524737805128098,0.22911164164543152,-0.3689045011997223,-0.03123227134346962,-0.2724774479866028,-0.10640150308609009,0.15221190452575684,-0.013994465582072735,-0.051649194210767746,0.14392688870429993,0.38922128081321716,-0.461160808801651,-0.09079648554325104,-0.18772943317890167,-0.1531757414340973,0.23510344326496124,0.4026159644126892,0.24952934682369232,-0.05394955724477768,0.37958356738090515,-0.006766411941498518,-0.06938794255256653,0.20589618384838104,-0.4865143299102783,0.006615346763283014,-0.47626492381095886,-0.15712741017341614,0.009430688805878162,-0.3207732141017914,0.37462443113327026,0.11390971392393112,0.09356500953435898,-0.2559450566768646,0.01804966852068901,-0.21085314452648163,-0.0074907573871314526,-0.13548046350479126,-0.4247486889362335,-0.3015790581703186,0.1552366316318512,0.19945195317268372,-0.2094646543264389,0.03221501037478447,-0.07490243762731552,0.23890069127082825,-0.20196124911308289,-0.437288761138916,-0.16694526374340057,0.04390282556414604],[-0.03236396983265877,0.09035002440214157,0.14591485261917114,0.5744579434394836,-0.05376044660806656,0.2614341974258423,-0.00029188988264650106,-0.17455442249774933,0.5129347443580627,-0.20952479541301727,-0.03180346265435219,0.14266237616539001,0.041448645293712616,0.07158774882555008,0.2584410607814789,-0.19462314248085022,0.09342771768569946,0.21438917517662048,-0.19151738286018372,-0.2685413658618927,0.19124522805213928,0.2429800182580948,-0.034433912485837936,0.19108358025550842,-0.0715891420841217,0.11429723352193832,-0.049669213593006134,0.06124093383550644,-0.18197262287139893,-0.10803794860839844,-0.5435919761657715,0.07319420576095581,-0.34253889322280884,-0.07218855619430542,0.11913404613733292,-0.429659366607666,0.014741405844688416,-0.12678122520446777,-0.013608882203698158,-0.5367976427078247,0.2683107256889343,-0.45154452323913574,-0.2674783766269684,0.39167770743370056,-0.5399569869041443,0.013977617025375366,-0.11724650859832764,0.0016751772491261363,-0.24298812448978424,-0.08488892018795013,-0.6691826581954956,0.015763983130455017,0.4251176118850708,-0.4106001853942871],[-0.09066801518201828,0.44100385904312134,-0.24176475405693054,0.10451991111040115,-0.409254252910614,-0.2244112491607666,0.05583019554615021,-0.49397099018096924,0.10157620161771774,-0.1380661278963089,-0.03624945506453514,0.07705626636743546,0.10529167950153351,0.08824101835489273,-0.2330651730298996,0.3105299174785614,-0.16916686296463013,-0.0917949229478836,0.03510225564241409,0.3957809805870056,-0.004648178815841675,0.16145795583724976,0.29320797324180603,-0.4312528073787689,0.07560469955205917,-0.18449358642101288,-0.2570134103298187,0.14258809387683868,-0.3115863800048828,0.21342062950134277,0.020374203100800514,0.37294989824295044,0.22585558891296387,-0.1675575226545334,0.4763161838054657,-0.15633758902549744,-0.04099813103675842,-0.1297595202922821,0.23671792447566986,0.2513030171394348,0.4336792528629303,-0.38376694917678833,0.012269346043467522,0.2973025143146515,-0.5201772451400757,-0.039504341781139374,-0.002923174761235714,0.12083455920219421,0.03842566907405853,0.2902944087982178,-0.5879590511322021,0.24698595702648163,0.04547765851020813,-0.5853500962257385],[-0.014621949754655361,0.19845211505889893,-0.5304267406463623,-0.0737246572971344,0.3745894134044647,-0.42547741532325745,0.3014817237854004,-0.27005907893180847,-0.34865835309028625,0.05859367921948433,-0.09284500032663345,-0.16443075239658356,-0.10394817590713501,0.23559021949768066,-0.4041275978088379,-0.05582644045352936,-0.1443047672510147,-0.33301106095314026,-0.021636463701725006,0.21459294855594635,-0.0038090392481535673,-0.17557989060878754,0.10704294592142105,-0.3855721354484558,-0.5094726085662842,-0.29999759793281555,-0.3432215750217438,0.07710330933332443,-0.2091471254825592,0.49944889545440674,-0.02643403969705105,-0.48849958181381226,0.43128642439842224,-0.2647634744644165,0.32337048649787903,0.3126240074634552,-0.12097669392824173,-0.12926581501960754,0.09084528684616089,-0.1597440391778946,0.1467314213514328,-0.03214259073138237,-0.2151903510093689,0.23878082633018494,-0.21792834997177124,-0.09321097284555435,-0.09892230480909348,0.07702907919883728,-0.06495323032140732,-0.11271876841783524,-0.23655889928340912,-0.18916866183280945,-0.15105609595775604,-0.4166484773159027],[-0.13492733240127563,0.7223711609840393,-0.19954919815063477,-0.17552784085273743,-0.5215171575546265,-0.35640859603881836,-0.02390805259346962,-0.2396126091480255,0.3049412965774536,-0.21864037215709686,-0.1361672282218933,0.04733269661664963,-0.361089289188385,0.09929758310317993,-0.29515817761421204,0.030067920684814453,0.19172339141368866,-0.024204839020967484,-0.2569718658924103,0.10804497450590134,0.2261049449443817,-0.46987372636795044,-0.11843443661928177,-0.13768097758293152,0.14238695800304413,-0.354238897562027,0.09908296912908554,0.1512669026851654,-0.7169533371925354,0.2870994508266449,0.032036326825618744,0.46745869517326355,0.3249460458755493,-0.06981954723596573,0.20683026313781738,-0.28392452001571655,-0.04669908806681633,-0.1984190195798874,0.0530286468565464,0.6884834170341492,0.15997780859470367,0.2709392011165619,0.12170066684484482,0.11541350930929184,-0.10758212208747864,0.16415898501873016,-0.34128808975219727,0.050360050052404404,0.14928466081619263,0.10560531914234161,0.049437958747148514,0.05021430179476738,-0.02411895990371704,0.05510370433330536],[0.08421869575977325,0.09035041928291321,0.06133170425891876,-0.4637046456336975,-0.1286744624376297,-0.5506893396377563,-0.25591734051704407,0.5594409108161926,-0.31292620301246643,-0.1674586683511734,0.02187873236835003,-0.124722421169281,-0.8096551895141602,0.3378412425518036,-0.291758269071579,-0.3560135066509247,0.5301932096481323,-0.021320413798093796,-0.1634620577096939,-0.1826288402080536,-0.09279424697160721,-0.6055412888526917,-0.12231134623289108,0.31345346570014954,-0.1858784556388855,0.5741158127784729,0.27479714155197144,-0.08084641396999359,-0.03704017773270607,-0.04817631095647812,0.47864019870758057,0.1564965695142746,0.62823086977005,0.17734798789024353,-0.6635860800743103,0.3775724172592163,0.04963282495737076,-0.020747853443026543,-0.0839134156703949,0.023165198042988777,0.15640398859977722,0.2801497280597687,0.40103116631507874,0.2485189288854599,0.19365742802619934,-0.1263417750597,0.03293843939900398,-0.0037606791593134403,-0.13324394822120667,-0.023324016481637955,-0.01739552989602089,0.4163478910923004,0.3727567195892334,0.08117485791444778],[-0.051024094223976135,0.24986980855464935,-0.266489714384079,-0.10288776457309723,-0.23972102999687195,-0.4207550287246704,-0.03423456475138664,-0.04052576422691345,0.21216817200183868,-0.0731561928987503,-0.046816106885671616,0.007584645412862301,-0.17251814901828766,0.07919985800981522,-0.3459368646144867,-0.1793549358844757,0.18245865404605865,0.24411895871162415,0.0003280703676864505,-0.008006718941032887,0.01764300838112831,-0.2598309814929962,-0.14880725741386414,0.06924606114625931,-0.1851750612258911,-0.01584242470562458,0.2274288386106491,-0.020075727254152298,-0.15817588567733765,0.1941550076007843,0.0405433215200901,0.33368125557899475,0.5126110911369324,0.008795811794698238,0.075259730219841,-0.21175067126750946,-0.17243999242782593,-0.12006492167711258,0.0173142421990633,0.4503340423107147,0.26156336069107056,0.22408387064933777,0.2614005208015442,0.55922532081604,-0.23410244286060333,-0.3679496943950653,-0.14428845047950745,-0.17556828260421753,0.40087294578552246,0.41388237476348877,0.3339104652404785,0.3325984477996826,0.6760087609291077,-0.21004541218280792],[0.013504430651664734,0.35641515254974365,-0.025545325130224228,-0.2226588875055313,-0.1930629462003708,0.3942742645740509,-0.17456050217151642,-0.8974023461341858,0.21129110455513,0.014419921673834324,0.04022923856973648,-0.021601209416985512,-0.23300999402999878,0.19513332843780518,0.04256204143166542,-0.08181390166282654,-0.3046591579914093,0.3096242845058441,0.06398423761129379,0.026005536317825317,-0.05084725841879845,0.1287873387336731,0.3243595361709595,-0.09227786213159561,-0.11031129211187363,0.13265188038349152,0.2520516514778137,0.004582973197102547,-0.40274110436439514,0.01946183852851391,0.3588773012161255,0.2838873863220215,-0.27859848737716675,0.3402314782142639,0.8017915487289429,-0.15770475566387177,0.0006121487822383642,-0.1045604795217514,0.04323912039399147,0.3846265971660614,0.36683014035224915,-0.4844492971897125,0.2217610627412796,0.5925753116607666,-0.5067734718322754,0.07601483166217804,-0.20322033762931824,0.11328203231096268,0.4956902861595154,0.1389906257390976,-0.327557772397995,0.19677576422691345,0.4605928361415863,-0.5794264674186707],[-0.003640154842287302,-0.09306193143129349,-0.09268572926521301,-0.2005278617143631,-0.22669042646884918,0.04296275973320007,-0.19896793365478516,0.26821357011795044,0.15921562910079956,-0.0382835790514946,-0.19968214631080627,0.066631019115448,0.23548990488052368,-0.6055955290794373,0.1023557111620903,-0.06538260728120804,-0.09953482449054718,0.09057143330574036,-0.03365984559059143,-0.2822880148887634,0.21194809675216675,-0.22530020773410797,-0.803876519203186,0.4171786606311798,-0.39089804887771606,-0.3191676735877991,0.22884024679660797,0.13203424215316772,0.1603788584470749,0.03658917918801308,0.2209395319223404,0.15900838375091553,-0.18290890753269196,0.22083207964897156,-0.16935387253761292,-0.22495760023593903,0.0006271430174820125,-0.009137345477938652,0.008693150244653225,0.11778660863637924,-0.08757966011762619,0.02842455357313156,0.12580962479114532,-0.08439783751964569,0.07362817227840424,0.03794800490140915,0.06932929903268814,0.018342195078730583,0.2087947279214859,-0.21239297091960907,0.43606382608413696,0.18809954822063446,-0.17004729807376862,0.3751872181892395],[0.03364851325750351,0.15412075817584991,0.0046467408537864685,-0.12797889113426208,0.33051085472106934,-0.3247418999671936,-0.13026025891304016,-0.21273303031921387,-0.3883585035800934,0.17689113318920135,-0.07563111186027527,-0.08370582014322281,0.27211233973503113,-0.4312830865383148,-0.2065986543893814,-0.056466203182935715,-0.13251613080501556,-0.2221088409423828,0.1357087790966034,0.06471830606460571,-0.07591471821069717,0.24241235852241516,-0.14045295119285583,0.03614877164363861,-0.14074654877185822,-0.4080731272697449,0.05371192842721939,-0.03584591671824455,-0.09412256628274918,0.06518624722957611,0.12373017519712448,-0.21136195957660675,0.22105321288108826,0.03230531886219978,0.3364645540714264,0.30873966217041016,-0.09571155160665512,0.03455629199743271,-0.06944140046834946,-0.2776162028312683,-0.4972493052482605,-0.16545841097831726,0.09055882692337036,0.11906412988901138,0.26480627059936523,-0.042398154735565186,0.2547587454319,0.0601566843688488,-0.3124333322048187,-0.07999691367149353,-0.20255616307258606,-0.0793602466583252,-0.16983568668365479,0.05042967572808266],[-0.08403071761131287,0.37029510736465454,-0.2678249776363373,-0.12516088783740997,0.39483514428138733,-0.5494407415390015,-0.0681271180510521,0.025899706408381462,-0.10969652235507965,-0.1845303624868393,-0.1292683184146881,0.13230550289154053,-0.30032509565353394,0.3838580250740051,-0.03512904793024063,-0.20742908120155334,-0.05947321653366089,0.3896080255508423,-0.110707588493824,0.12647023797035217,0.08796019107103348,-0.28410112857818604,0.4731191396713257,0.10857616364955902,-0.11134456843137741,-0.05494020879268646,0.3885587155818939,0.12277767062187195,-0.46999120712280273,0.2423541396856308,0.07035692036151886,-0.32514944672584534,0.5513925552368164,0.013016361743211746,0.026036763563752174,0.11728844046592712,-0.06229596212506294,-0.19484096765518188,0.2217469960451126,-0.041737813502550125,0.04167844355106354,0.041427310556173325,-0.1468920260667801,-0.030563421547412872,-0.16334275901317596,-0.1456964910030365,0.04264327883720398,0.06673305481672287,-0.2755289673805237,0.0806134045124054,-0.23720984160900116,-0.08395617455244064,-0.0528523251414299,-0.2706763744354248],[-0.03369118273258209,0.23751476407051086,0.021347831934690475,-0.11931340396404266,-0.058987028896808624,-0.06823067367076874,0.016499536111950874,0.09282857924699783,-0.22151058912277222,-0.10584347695112228,-0.04581911861896515,0.07156870514154434,-0.13765403628349304,0.08918395638465881,-0.10677368193864822,-0.12495270371437073,0.2202751636505127,-0.18791352212429047,0.07851561158895493,0.13475680351257324,0.009922560304403305,-0.1563432216644287,0.14043016731739044,0.026851199567317963,-0.3002399206161499,0.26119333505630493,-0.12060639262199402,0.07605510950088501,-0.23189827799797058,0.03750209882855415,0.1319229155778885,-0.04052906855940819,0.18297813832759857,-0.10613680630922318,-0.11592825502157211,0.11345265060663223,0.08014149218797684,-0.04689178988337517,-0.0472102090716362,-0.09597637504339218,-0.0709889754652977,0.04669675603508949,0.002776046982035041,-0.08196313679218292,0.08933062851428986,-0.01699603907763958,-0.01135562639683485,-0.05068865045905113,-0.13342957198619843,-0.07789121568202972,-0.129010409116745,0.18812432885169983,-0.2174646556377411,0.11924461275339127],[-0.0638606920838356,0.09234804660081863,-0.13703301548957825,-0.30986011028289795,-0.40601828694343567,-0.46747875213623047,-0.1872345507144928,0.04161873087286949,0.21101684868335724,-0.12385775148868561,-0.13647259771823883,-0.032456427812576294,-0.15900583565235138,-0.2579070031642914,-0.38960617780685425,-0.31360185146331787,0.07074838131666183,0.16477465629577637,-0.10045365989208221,-0.10087671130895615,0.21547728776931763,-0.24766847491264343,-0.08847033977508545,0.06615175306797028,-0.002389098983258009,0.15790805220603943,-0.0744791179895401,0.004847600124776363,-0.18534281849861145,0.2600765526294708,0.3459567725658417,0.46272411942481995,0.5544921159744263,0.25539663434028625,-0.2135937213897705,-0.2810831367969513,-0.07343398779630661,0.005660463124513626,0.0905018076300621,0.7465425133705139,-0.25782281160354614,0.11901269853115082,0.27812862396240234,-0.12370245158672333,-0.3079163134098053,-0.028789058327674866,0.002375400625169277,-0.09041143208742142,0.41944438219070435,-0.26950156688690186,0.12967626750469208,0.4759226441383362,0.0780615508556366,-0.3372114598751068],[-0.13728804886341095,0.2259884625673294,-0.2401811182498932,-0.3583875000476837,0.1407313346862793,-0.15641097724437714,-0.2852649688720703,0.262589693069458,-0.49863487482070923,-0.10776815563440323,-0.10944915562868118,-0.023700835183262825,-0.4547681510448456,0.28395360708236694,-0.1771986037492752,-0.22037142515182495,0.23729446530342102,-0.3600841760635376,-0.11939971148967743,-0.15597395598888397,0.024845721200108528,-0.22440114617347717,0.14668191969394684,-0.15722985565662384,-0.36016422510147095,0.19987687468528748,-0.19513298571109772,0.09910152852535248,-0.3050420582294464,0.3245181441307068,0.33254504203796387,-0.0018066995544359088,0.19762445986270905,0.18226653337478638,-0.227189302444458,0.3918015658855438,0.04183725267648697,-0.12823228538036346,0.11785666644573212,0.1675718128681183,0.2520865499973297,0.0035675435792654753,0.10212505608797073,0.2932144105434418,-0.033709004521369934,0.04148416966199875,-0.3189625144004822,0.00742554385215044,-0.033100537955760956,0.010856343433260918,-0.061849195510149,0.07614611089229584,0.1826838105916977,-0.11345281451940536],[-0.1758524626493454,0.3615780770778656,-0.04623480513691902,-0.0936032310128212,0.2683889865875244,-0.3499507009983063,-0.1558140069246292,-0.4398644268512726,-0.19698458909988403,-0.15816999971866608,-0.18624654412269592,0.17793136835098267,-0.1174626350402832,0.2884672284126282,-0.15599475800991058,0.06778891384601593,-0.2562043070793152,0.3473222255706787,-0.20819590985774994,-0.07900148630142212,0.22777777910232544,0.2634614109992981,0.6265698075294495,-0.14749036729335785,0.08903931081295013,0.20241674780845642,0.4178197383880615,0.1987914741039276,-0.33350273966789246,-0.011337174102663994,0.19795948266983032,-0.2530311644077301,0.29961642622947693,0.03081449121236801,0.2951577305793762,0.205951988697052,0.14884647727012634,-0.37427371740341187,0.09709906578063965,-0.21465331315994263,-0.3653765320777893,0.042765162885189056,-0.06197742000222206,0.025873495265841484,0.15136994421482086,0.2702219784259796,-0.49744290113449097,0.10813445597887039,-0.37741413712501526,0.01251896470785141,-0.18178711831569672,-0.2587844133377075,0.1680418848991394,-0.0810822919011116],[-0.14879752695560455,0.42325010895729065,-0.2226009964942932,-0.08248107880353928,0.20611025393009186,-0.3170110583305359,0.009951839223504066,-0.6628668308258057,-0.4050113558769226,-0.13130782544612885,-0.13938315212726593,0.15251471102237701,-0.21818819642066956,0.24249398708343506,-0.1707310527563095,0.2690112292766571,-0.1326557844877243,-0.19882014393806458,0.0016481290804222226,0.22490257024765015,0.11606040596961975,0.2220044732093811,0.5222880244255066,-0.27118122577667236,0.33532658219337463,0.05021325498819351,-0.1763741374015808,0.06331024318933487,-0.4102446734905243,0.20563361048698425,0.15995535254478455,-0.1721036285161972,0.2819293141365051,0.09327421337366104,0.6298295259475708,0.37118008732795715,0.07499773055315018,-0.22279492020606995,0.11050795018672943,0.007344466168433428,0.1221088171005249,-0.022937510162591934,0.27574634552001953,0.39971739053726196,-0.04168520122766495,0.07579389959573746,-0.19488029181957245,0.041733305901288986,-0.09814400225877762,0.13879874348640442,-0.3451123535633087,-0.2238042950630188,0.24832342565059662,-0.33741429448127747],[-0.026146557182073593,-0.21703167259693146,-0.019277911633253098,0.5365414619445801,0.19509951770305634,0.41759949922561646,-0.004811219871044159,-0.5418698191642761,0.10222844034433365,0.22984004020690918,0.06436622887849808,-0.110916368663311,0.880441427230835,0.46818259358406067,0.2962386906147003,0.7102643847465515,-0.1327848732471466,0.22119171917438507,0.13927745819091797,-0.08299259841442108,-0.10167209059000015,0.8818114995956421,0.764485776424408,-0.5361242294311523,0.7507127523422241,-0.00686416681855917,-0.1490527242422104,0.015284392051398754,0.24022066593170166,0.023243743926286697,-0.5017493963241577,-0.1607617735862732,-0.31541475653648376,0.027915334329009056,0.5542554259300232,-0.02613179385662079,0.06590438634157181,0.013010397553443909,-0.008563860319554806,-0.30218544602394104,0.5869762897491455,-0.17230290174484253,-0.03156629949808121,0.3828433156013489,0.42555534839630127,-0.09869103878736496,-0.00018491383525542915,-0.16452838480472565,0.12112553417682648,0.8364532589912415,-0.3111964464187622,-0.2377459555864334,0.7365668416023254,0.3629136383533478],[-0.052062924951314926,0.009311341680586338,0.8021186590194702,0.03893763944506645,0.356516033411026,0.7173420190811157,0.040063824504613876,-0.028630997985601425,-0.48643577098846436,-0.05790592357516289,-0.06666546314954758,0.08075835555791855,-0.15233741700649261,-0.09232917428016663,0.4802500605583191,0.10171546787023544,-0.369831383228302,-0.16035760939121246,0.019206391647458076,-0.27263468503952026,0.08470121026039124,0.29271355271339417,-0.06302240490913391,0.20182529091835022,0.004164564423263073,-0.23812724649906158,0.06253840029239655,0.003382143098860979,-0.010317503474652767,-0.8124595880508423,-0.02689337357878685,-0.46069228649139404,-0.6968643665313721,-0.05952605977654457,0.008218582719564438,0.3742709755897522,-0.020708011463284492,-0.009025678969919682,-0.27931490540504456,-0.17286191880702972,0.24025678634643555,-0.19689801335334778,-0.4329815208911896,0.3069733679294586,0.43501245975494385,0.2996186912059784,-0.12020381540060043,0.08022207766771317,-0.01027022022753954,0.732134997844696,0.034203894436359406,-0.6331875324249268,0.46157196164131165,0.2823289930820465],[0.02600790746510029,0.05762274190783501,-0.1492307186126709,-0.07633625715970993,-0.14850078523159027,-0.3277454972267151,-0.18269626796245575,0.05035082623362541,-0.3990219533443451,0.07838968932628632,0.15425525605678558,-0.04058535769581795,-0.118116594851017,-0.020455162972211838,-0.19925616681575775,-0.3403231203556061,0.1312277466058731,-0.3812633454799652,0.10478346049785614,0.19182418286800385,-0.0724375993013382,-0.19534607231616974,0.16566841304302216,-0.24491184949874878,-0.5986276865005493,-0.10594851523637772,-0.2413514405488968,-0.0646134540438652,0.04295210540294647,0.0832141563296318,0.10882528871297836,0.0683048814535141,0.2736181616783142,0.28212082386016846,-0.00463368184864521,0.22963185608386993,0.03298983722925186,-0.0787542313337326,-0.12999685108661652,0.35791775584220886,0.07031519711017609,-0.11023449152708054,0.5821515917778015,0.15558867156505585,-0.1823185533285141,-0.08533409237861633,0.04872867837548256,-0.06859084218740463,-0.028315600007772446,-0.002273739082738757,-0.16720381379127502,0.35980895161628723,-0.06165774539113045,-0.21297480165958405],[-0.03519923985004425,0.2963589131832123,-0.035013966262340546,-0.21809077262878418,0.5874729752540588,-0.005291340872645378,0.00410354882478714,0.04839104413986206,-0.45181548595428467,-0.1694299280643463,-0.027872372418642044,0.007417598273605108,0.000768306024838239,-0.28448742628097534,0.0849405825138092,0.20240418612957,-0.19063706696033478,-0.1901378631591797,-0.2702067792415619,0.12821337580680847,0.017608046531677246,0.3284689784049988,-0.05044129863381386,0.1719343364238739,0.17543646693229675,-0.018875904381275177,-0.056451935321092606,0.04061506688594818,-0.36000174283981323,0.03120538406074047,0.28766241669654846,-0.42732083797454834,0.021205702796578407,-0.07706847786903381,-0.1412965953350067,0.4389895796775818,0.058396801352500916,-0.16393864154815674,0.17601220309734344,0.059197813272476196,-0.37992802262306213,0.14249055087566376,-0.2225014567375183,0.03021291084587574,0.6929879188537598,0.24322153627872467,-0.13121482729911804,0.16701819002628326,-0.2127562314271927,-0.16510120034217834,0.33787915110588074,-0.48148801922798157,0.1705491840839386,0.2501903772354126],[-0.002829992212355137,0.3741419315338135,-0.2701430320739746,-0.03541995584964752,-0.13297127187252045,-0.2763919234275818,-0.1934768557548523,0.017154477536678314,-0.0010681940475478768,-0.017790595069527626,-0.0036975436378270388,0.04626930132508278,-0.04393764212727547,0.19394567608833313,-0.36550039052963257,0.27441978454589844,0.17482909560203552,-0.22268687188625336,-0.18308758735656738,0.36146795749664307,-0.06647216528654099,-0.2346220761537552,-0.1925496608018875,-0.3619038462638855,0.17760734260082245,-0.22562222182750702,-0.06393954902887344,0.07567786425352097,-0.36506128311157227,0.2283608615398407,0.10849235951900482,0.19929349422454834,0.3101719915866852,0.06688821315765381,-0.08302120864391327,-0.10988660901784897,0.08793745934963226,-0.043341945856809616,0.05388311296701431,0.4232843816280365,0.12804581224918365,-0.039216965436935425,0.5379035472869873,-0.151210218667984,-0.17918910086154938,0.10521157830953598,-0.033381350338459015,0.037734631448984146,-0.12953263521194458,-0.11684960126876831,-0.12907496094703674,0.3254566192626953,-0.2019171416759491,-0.16410936415195465],[-0.2644546627998352,0.1506555676460266,-0.5076914429664612,0.15250612795352936,-0.44028544425964355,-0.353164941072464,0.0982915610074997,-0.291176438331604,-0.10774712264537811,-0.30057305097579956,-0.13626588881015778,0.11978065967559814,0.07635603100061417,-0.013052782043814659,-0.3858257532119751,0.10306282341480255,0.10709360986948013,-0.26576825976371765,-0.1516752392053604,0.2283186912536621,0.12294876575469971,-0.12036311626434326,0.02489098347723484,-0.21046297252178192,-0.16448718309402466,-0.22895380854606628,-0.2071077823638916,0.2125205248594284,-0.06385712325572968,0.5098109841346741,-0.2273877114057541,0.4561001658439636,0.30580854415893555,-0.19117780029773712,0.2520018219947815,0.15038196742534637,0.19262632727622986,-0.2638077437877655,0.08993992954492569,0.3086989223957062,0.09887325763702393,-0.040224459022283554,0.08911968022584915,0.30292466282844543,-0.05644821375608444,0.13440006971359253,-0.33067962527275085,0.10851636528968811,0.10655549168586731,-0.1511559635400772,-0.3250514268875122,0.26072874665260315,0.26538440585136414,-0.08398745954036713],[0.06889035552740097,-0.03147563710808754,-0.21627506613731384,0.28846535086631775,-0.28600406646728516,-0.08630473911762238,-0.04502670466899872,-0.41694003343582153,0.40483754873275757,0.10452666878700256,0.06830061227083206,-0.25222715735435486,0.09047426283359528,0.07748226821422577,-0.1377442181110382,-0.2185640037059784,-0.12888561189174652,0.4226306080818176,0.04068056121468544,-0.18699444830417633,-0.08850674331188202,0.3150803744792938,-0.03365914151072502,-0.11761549115180969,0.07921958714723587,0.02521313913166523,0.3504526913166046,-0.06569996476173401,-0.00015925191110000014,0.1770191639661789,-0.3107107877731323,0.14626982808113098,0.05634823814034462,0.08894260972738266,0.35364648699760437,-0.2683297395706177,-0.05418815463781357,-0.03513127937912941,-0.09288263320922852,-0.09577810019254684,0.30995965003967285,-0.10091114044189453,-0.010104021988809109,0.007477670907974243,-0.1941649317741394,-0.021806202828884125,-0.1845882385969162,-0.016200345009565353,-0.011394776403903961,0.12401698529720306,-0.2508401870727539,0.14724653959274292,-0.026865946128964424,-0.11140146106481552],[-0.08835349977016449,0.19464454054832458,-0.366987019777298,0.011425241827964783,-0.28557315468788147,-0.7236774563789368,-0.1763285994529724,-0.10052454471588135,-0.1658809781074524,-0.2072400450706482,0.006527735386043787,-0.1212756335735321,-0.06950455904006958,-0.020513949915766716,-0.6117046475410461,-0.25121307373046875,0.0032555379439145327,-0.612389862537384,-0.15956906974315643,0.055609963834285736,-0.1172373816370964,-0.3374447226524353,-0.27156880497932434,-0.4248611629009247,-0.31826820969581604,-0.41197440028190613,-0.3220255672931671,0.029875414445996284,-0.17082424461841583,0.38420215249061584,0.025378163903951645,0.20213042199611664,0.7745769619941711,0.13463029265403748,0.12056328356266022,0.24851039052009583,0.03112279623746872,-0.13811421394348145,0.14182835817337036,0.5008379817008972,-0.15961231291294098,0.4197373390197754,0.14708003401756287,-0.053010981529951096,-0.20727413892745972,0.01737196184694767,-0.191807359457016,0.01856754720211029,-0.14839963614940643,-0.2710448205471039,0.05144210159778595,0.49052348732948303,-0.06527429074048996,-0.11748911440372467],[-0.07070787250995636,0.38712722063064575,0.3017710745334625,-0.4046802222728729,0.8968266844749451,0.48615211248397827,-0.1818593442440033,-0.006164041347801685,-0.34633946418762207,-0.04785946384072304,0.06913677603006363,0.06154622510075569,-0.7247480154037476,0.5007681250572205,0.5001281499862671,-0.16545157134532928,-0.1265202760696411,-0.01476232148706913,0.1588815599679947,0.014772101305425167,-0.06813306361436844,-0.057038113474845886,0.6754908561706543,0.054100655019283295,-0.6727629899978638,0.1203809604048729,0.004382806830108166,0.093655064702034,-0.3686765730381012,-0.2192496955394745,0.4205681085586548,-0.964283287525177,-0.4545791745185852,0.2251042276620865,-0.11979013681411743,0.46082520484924316,-0.26112115383148193,-0.1998823583126068,-0.1621706634759903,0.33760806918144226,-0.3013003170490265,-0.00914001278579235,0.24544937908649445,0.5666712522506714,0.43995556235313416,-0.07011868059635162,-0.16360993683338165,0.07091980427503586,0.23238766193389893,-0.09588542580604553,0.14494702219963074,0.011196566745638847,0.8377364277839661,0.26455649733543396],[-0.11179778724908829,0.3260665833950043,-0.1048954501748085,-0.39393842220306396,-0.25032535195350647,-0.18668103218078613,-0.19134090840816498,-0.12891143560409546,0.07063734531402588,-0.26655110716819763,-0.12148663401603699,-0.05817960202693939,-0.35972902178764343,0.23573926091194153,-0.2928236722946167,-0.05748732388019562,-0.17125515639781952,0.02122548595070839,-0.2509918808937073,-0.16251401603221893,0.13590554893016815,-0.37127014994621277,-0.14826034009456635,0.13154824078083038,-0.006700380705296993,-0.020879190415143967,-0.21846823394298553,0.13265585899353027,-0.39666661620140076,0.22404545545578003,0.3783465325832367,0.30320748686790466,0.047783877700567245,0.1730048656463623,0.11310747265815735,-0.0798579603433609,0.2193918377161026,-0.24620439112186432,0.24332395195960999,0.16277828812599182,0.011229881085455418,0.2374376356601715,0.15772691369056702,0.016531985253095627,-0.1362350434064865,0.11784561723470688,-0.13892143964767456,0.176235631108284,0.1707107126712799,-0.19670188426971436,0.26513680815696716,0.44350743293762207,-0.0843726322054863,-0.08235439658164978],[-0.0701245367527008,0.1310516595840454,-0.3793388307094574,-0.06870529800653458,-0.29442986845970154,0.09486112743616104,0.02077065408229828,-0.0711481049656868,0.0034218840301036835,0.007130416575819254,-0.04803970828652382,-0.08643237501382828,-0.32424023747444153,-0.04058920592069626,0.08995909243822098,-0.038441017270088196,0.09463921934366226,-0.1738632768392563,-0.17287980020046234,0.031685248017311096,-0.03852956369519234,-0.192504420876503,-0.12233533710241318,-0.17159202694892883,-0.4033171236515045,-0.3420959711074829,-0.02699846401810646,0.05008445307612419,-0.11837032437324524,0.38137805461883545,0.13900358974933624,0.2769608497619629,-0.09060197323560715,0.06353673338890076,-0.016787583008408546,-0.004588846582919359,0.0015463198069483042,-0.08615812659263611,0.18040204048156738,0.5605283379554749,0.26270678639411926,-0.2877129018306732,-0.09750890731811523,-0.0787893757224083,-0.23066601157188416,-0.09153459221124649,0.0021285470575094223,0.06995563954114914,0.44084417819976807,-0.0012041160371154547,-0.13716116547584534,0.018956409767270088,-0.23664970695972443,-0.08736687153577805],[0.0601142942905426,-0.2756832540035248,-0.41210421919822693,0.009332538582384586,0.260701447725296,0.3346139192581177,-0.1664382815361023,0.3444887399673462,0.6573529243469238,0.11482904106378555,0.11615534871816635,-0.05080947279930115,-0.20011885464191437,0.25099119544029236,0.12889108061790466,-0.3312605023384094,-0.21216079592704773,0.5155019164085388,0.058756809681653976,-0.005029851105064154,-0.11029426008462906,0.023171234875917435,-0.06288095563650131,0.1173505038022995,-0.02420509234070778,0.020812880247831345,0.42274969816207886,-0.06429696828126907,0.2550436854362488,0.3660692870616913,-0.00649851281195879,-0.2315605878829956,-0.298057496547699,0.10177145153284073,-0.31169915199279785,-0.5535573959350586,-0.14681807160377502,0.07444483786821365,0.1701015681028366,-0.20197755098342896,-0.2951430380344391,-0.3746851682662964,0.2400328665971756,-0.28486722707748413,-0.11213520169258118,-0.018890470266342163,-0.08028236776590347,0.049602966755628586,0.07478778809309006,-0.544734537601471,-0.07826010882854462,0.45015984773635864,-0.3335091471672058,0.21643634140491486],[-0.12238789349794388,0.2417372614145279,-0.19630961120128632,0.29362326860427856,0.03399632126092911,-0.39095425605773926,0.15321479737758636,-0.3553248643875122,-0.47148874402046204,-0.046603165566921234,0.05101364850997925,0.023354409262537956,0.0396755151450634,0.11842034012079239,-0.3871503174304962,0.20863306522369385,0.008206896483898163,-0.43436262011528015,0.045595090836286545,0.1618833839893341,-0.02855106256902218,0.036991480737924576,0.15033668279647827,-0.3761991858482361,-0.33010348677635193,-0.4315526783466339,-0.20397700369358063,0.1125674620270729,-0.3142874240875244,0.1515711545944214,-0.226214200258255,-0.023179322481155396,0.3675580620765686,-0.16912290453910828,0.2927035987377167,0.5309447050094604,-0.06502658128738403,-0.13181379437446594,0.08376432210206985,-0.02832435443997383,-0.07531926780939102,0.04571492224931717,-0.1015091985464096,0.2575797140598297,0.02914450876414776,0.029806070029735565,-0.1216290146112442,-0.024622390046715736,0.31734299659729004,0.08497726917266846,-0.13689075410366058,0.13452400267124176,0.144990935921669,0.11031520366668701],[-0.027017977088689804,0.5528901815414429,-0.47844722867012024,0.0007058849441818893,-0.05269979313015938,-0.2281423956155777,0.01052806619554758,-0.47226983308792114,-0.046876803040504456,-0.08029897511005402,-0.008387903682887554,0.03728039562702179,-0.25063762068748474,0.13001425564289093,-0.14278744161128998,0.0031719128601253033,-0.00026530277682468295,0.1524096429347992,-0.10731825977563858,0.2952221930027008,0.022423135116696358,-0.1170937716960907,0.2373274713754654,-0.034081004559993744,0.008803626522421837,-0.04518025368452072,0.2062152922153473,0.06235228106379509,-0.4470444321632385,0.3807578980922699,0.058927543461322784,0.019110722467303276,0.17130568623542786,0.05439819023013115,0.4424753785133362,0.015958765521645546,-0.023615678772330284,-0.10951898247003555,0.29459908604621887,0.14111994206905365,0.21491792798042297,-0.018499353900551796,0.041072603315114975,0.22977496683597565,-0.08816636353731155,0.004761019721627235,-0.031098060309886932,0.14781111478805542,-0.18204639852046967,0.12132741510868073,-0.11374808847904205,0.0014255307614803314,-0.061186425387859344,-0.10221350193023682],[-0.030241230502724648,0.4932861030101776,-0.2440400868654251,-0.3759606182575226,-0.02353995107114315,-0.10021869838237762,0.1825520098209381,-0.3863561749458313,-0.17846941947937012,-0.09246178716421127,-0.06907682865858078,0.09166610240936279,-0.24974173307418823,0.07861271500587463,-0.0140228858217597,0.22792108356952667,-0.41904258728027344,-0.28001871705055237,-0.2310316115617752,0.21457909047603607,0.15744024515151978,-0.08269105851650238,0.07641641050577164,0.1010948121547699,0.23646356165409088,-0.43962597846984863,-0.28186821937561035,-0.01938493922352791,-0.4562685191631317,0.28586772084236145,0.4612618386745453,-0.0073667243123054504,0.1483594924211502,-0.2480812519788742,0.34156331419944763,0.2554013133049011,0.10638464242219925,-0.2418438047170639,0.08414675295352936,0.10577991604804993,0.21342985332012177,0.3187592327594757,0.014056023210287094,-0.07430541515350342,0.03522573411464691,-0.005647316109389067,-0.20338711142539978,0.04448900744318962,-0.2832253873348236,0.3945230543613434,0.1443941742181778,0.09679104387760162,-0.13559764623641968,-0.14803346991539001],[0.009683907963335514,0.08701352030038834,-0.03854115307331085,0.11056839674711227,0.14596101641654968,-0.3278272747993469,0.20119814574718475,0.12686438858509064,-0.058998964726924896,-0.173675075173378,0.04689519479870796,0.12986735999584198,0.187727689743042,-0.10726277530193329,-0.16188035905361176,0.07589719444513321,-0.05838870257139206,-0.2691011428833008,-0.05849004164338112,0.1613423377275467,0.19159674644470215,-0.06491420418024063,0.16057810187339783,-0.08321142941713333,-0.16904418170452118,-0.11981939524412155,-0.07329513877630234,0.02045382745563984,-0.03401965647935867,0.037579528987407684,-0.2025044858455658,-0.24229860305786133,0.3722550570964813,-0.15009431540966034,-0.2563662827014923,0.13000182807445526,0.008476132526993752,0.03169218823313713,-0.0751228779554367,-0.26890379190444946,-0.3488554358482361,0.05488290637731552,-0.25731080770492554,-0.1475992202758789,0.22124478220939636,-0.008666102774441242,-0.05661958456039429,-0.08177229762077332,-0.4713987112045288,-0.0679304227232933,-0.1156105250120163,-0.29169419407844543,0.260044127702713,0.09339123219251633],[0.04136979207396507,0.4186345934867859,-0.12447991967201233,0.16410300135612488,-0.4713095426559448,0.232087180018425,-0.19924494624137878,-0.6501560211181641,0.011629990302026272,-0.07415592670440674,0.08487875759601593,0.04359698295593262,-0.025784602388739586,-0.45562800765037537,0.0590689480304718,0.15493500232696533,-0.1959797739982605,-0.17208050191402435,0.02875557355582714,0.08034078776836395,-0.00016333347593899816,-0.06765928864479065,-0.3531539738178253,-0.2027597576379776,-0.010928596369922161,-0.22610054910182953,-0.24756716191768646,-0.04091782122850418,-0.4444690942764282,0.09743665158748627,-0.23169536888599396,0.5182154178619385,-0.23924611508846283,0.16047950088977814,0.524782121181488,0.036611273884773254,-0.06718103587627411,-0.012234216555953026,-0.27201029658317566,-0.026361122727394104,0.08110864460468292,-0.2445262223482132,0.42028483748435974,0.13015764951705933,0.05112946406006813,-0.05788923799991608,-0.06455817073583603,-0.20784352719783783,0.1896570473909378,-0.4504888653755188,-0.09422939270734787,0.4485878050327301,-0.17782597243785858,0.20343348383903503],[-0.1498701423406601,0.02332472987473011,0.10346114635467529,-0.11358635872602463,1.1470247507095337,0.015835415571928024,-0.11148931831121445,0.2734330892562866,-0.8258498907089233,0.0947376936674118,-0.18418173491954803,-0.11813925206661224,-0.2713707685470581,-0.178667813539505,0.13707764446735382,-0.036772727966308594,-0.12187031656503677,-0.37824347615242004,-0.12063005566596985,-0.07906489074230194,-0.0875675231218338,0.1334248036146164,0.005829750560224056,0.032741889357566833,0.10327006876468658,0.002434119116514921,-0.185920849442482,0.16096670925617218,-0.026053691282868385,-0.13280965387821198,0.035990823060274124,-1.155912160873413,-0.020572323352098465,0.06953271478414536,-0.4026881754398346,0.7768368124961853,0.09361400455236435,-0.08812885731458664,-0.11352210491895676,0.04707549884915352,-0.5116693377494812,-0.04192081838846207,-0.048301395028829575,-0.12629516422748566,0.6547259092330933,0.1487254798412323,-0.11736755073070526,0.121402807533741,0.1723589450120926,-0.32458874583244324,0.07238461077213287,-0.27726179361343384,0.011290375143289566,0.2813109755516052],[-0.21743589639663696,0.2853752672672272,-0.31329426169395447,-0.4289468824863434,0.47278743982315063,-0.09984924644231796,-0.18008610606193542,0.2687973976135254,0.15135201811790466,-0.16861999034881592,-0.06101926788687706,-0.009974117390811443,-0.6099368333816528,0.45972856879234314,0.20537899434566498,-0.35103052854537964,0.18648284673690796,0.10434043407440186,-0.3143758773803711,-0.048142220824956894,0.14671029150485992,-0.21939900517463684,0.14709272980690002,0.40661388635635376,-0.2385842502117157,0.12787532806396484,0.2667361795902252,0.21176981925964355,-0.23671001195907593,0.34042832255363464,0.38539668917655945,-0.460554838180542,-0.029843853786587715,0.2033589482307434,-0.3018420338630676,-0.2967832088470459,0.14702124893665314,-0.17364810407161713,0.10682280361652374,0.2629441022872925,-0.16646188497543335,0.17799772322177887,0.15344370901584625,0.18104873597621918,-0.1456563025712967,0.0816681981086731,-0.28863781690597534,0.02099490351974964,0.03478135168552399,-0.3540358245372772,0.16075073182582855,0.31707558035850525,0.10364943742752075,-0.23245170712471008],[0.07857941836118698,0.1618431806564331,-0.06906708329916,0.24518175423145294,0.15599457919597626,-0.16084599494934082,0.20544876158237457,0.01483430527150631,0.11492416262626648,-0.09220906347036362,0.09103997051715851,-0.0467681884765625,-0.014518563635647297,-0.3017611503601074,0.03804074227809906,0.4003337621688843,-0.142965629696846,-0.04177871346473694,0.002169423969462514,0.1483435183763504,-0.03660430386662483,0.033503636717796326,-0.3265674114227295,0.049115099012851715,0.017763495445251465,-0.11034276336431503,-0.2604809105396271,0.06115731596946716,-0.15986555814743042,0.07423671334981918,-0.21614903211593628,-0.15555168688297272,0.2056932896375656,-0.20653246343135834,-0.06417698413133621,-0.041576460003852844,0.10564839094877243,0.03939635679125786,0.0460168793797493,-0.23054838180541992,-0.423312783241272,0.13037583231925964,-0.24008388817310333,-0.25245752930641174,-0.22816318273544312,-0.0018151210388168693,-0.11743944138288498,0.02830098569393158,-0.22229279577732086,-0.22353389859199524,-0.07122550904750824,0.07280050963163376,0.00705530121922493,-0.21572460234165192],[-0.12994293868541718,0.1714784950017929,-0.6189862489700317,0.14053167402744293,0.08588307350873947,-0.30455806851387024,0.012859988957643509,0.22492991387844086,-0.33939072489738464,-0.20461919903755188,0.09640083461999893,-0.3139183223247528,-0.23625992238521576,0.1373312771320343,-0.6192611455917358,0.09201648086309433,0.05055153742432594,-0.4894396662712097,-0.2772599160671234,0.032949019223451614,-0.15424032509326935,-0.5120612978935242,-0.18902729451656342,-0.5707126259803772,-0.18724600970745087,0.19801253080368042,-0.41368749737739563,-0.011731889098882675,-0.3079332709312439,0.49143534898757935,-0.11510810256004333,-0.09905454516410828,0.263171911239624,-0.16578911244869232,-0.3696556091308594,0.4188328981399536,0.15925583243370056,-0.08403223007917404,0.1994543969631195,0.12971659004688263,0.04427994787693024,-0.28722816705703735,0.12318587303161621,0.12014003843069077,-0.06124861538410187,0.029871948063373566,-0.429526150226593,0.011488118208944798,-0.29188013076782227,-0.2009543776512146,-0.4813225269317627,0.2293158322572708,0.4083494544029236,-0.3709065616130829],[-0.005610403139144182,-0.2502034604549408,-0.385782927274704,-0.2883435785770416,0.31263992190361023,-0.02081802301108837,-0.13805045187473297,0.14883707463741302,-0.10330573469400406,0.08709906786680222,-0.0387895330786705,-0.13913396000862122,-0.31022942066192627,-0.027952320873737335,-0.2874818444252014,-0.5488321781158447,-0.19854065775871277,-0.20482109487056732,-0.08932260423898697,-0.0414348766207695,0.08960069715976715,-0.32176724076271057,-0.44535696506500244,0.04693865776062012,-0.7521551847457886,-0.659851610660553,0.07709981501102448,-0.012568455189466476,0.19816556572914124,0.42469799518585205,0.2540391683578491,-0.3211163580417633,0.042790237814188004,0.12222158163785934,-0.20445893704891205,0.18816260993480682,-0.08925341814756393,0.0010659104445949197,0.17377792298793793,-0.25713813304901123,-0.3902346193790436,-0.0840311199426651,-0.02479735016822815,-0.15498818457126617,0.07149527221918106,0.033257368952035904,-0.00432738708332181,0.159858837723732,-0.025797782465815544,-0.5359505414962769,0.27935415506362915,0.23675836622714996,-0.4625287353992462,0.2858392000198364],[-0.11564800143241882,0.05995754897594452,0.21816667914390564,-0.029759975150227547,-0.21361316740512848,0.10079871118068695,0.18282251060009003,0.4424646496772766,0.3717113435268402,-0.22016724944114685,-0.23813126981258392,0.20488765835762024,-0.4254898130893707,0.49784502387046814,-0.1725301295518875,-0.04394185543060303,0.3228297531604767,-0.1284683793783188,-0.2172132134437561,-0.3226577043533325,0.09274570643901825,-0.15617287158966064,-0.31961655616760254,-0.05933245271444321,-0.09320958703756332,0.15560686588287354,-0.28311261534690857,0.06874058395624161,0.012962523847818375,-0.30404406785964966,0.12070722877979279,0.21637393534183502,-0.1841779202222824,-0.19296567142009735,-0.337152898311615,-0.3642192482948303,0.05154621973633766,-0.11742556840181351,-0.10193686932325363,-0.017113184556365013,-0.021164704114198685,0.10006187856197357,-0.10814467072486877,0.12444581836462021,0.007376956287771463,0.07704225182533264,-0.09036991000175476,0.11237138509750366,0.04339403659105301,-0.1998700052499771,0.24847275018692017,0.12874627113342285,0.3681797683238983,-0.12634997069835663],[-0.13391169905662537,0.43834444880485535,-0.19383928179740906,-0.044874683022499084,0.10737621784210205,-0.3717469573020935,-0.33876365423202515,-0.11444707214832306,-0.18752524256706238,-0.0719604343175888,-0.16602350771427155,0.02745126001536846,-0.3160657584667206,0.34762635827064514,-0.3759628236293793,-0.2538241744041443,0.2124413698911667,-0.15222086012363434,-0.18011321127414703,-0.1731305867433548,0.019134294241666794,-0.20828945934772491,0.4166913330554962,-0.4639263153076172,-0.2951352298259735,0.053542278707027435,-0.05350213870406151,0.03136008232831955,-0.3332239091396332,0.22274671494960785,0.12297819554805756,-0.11131276190280914,0.38708850741386414,0.33733606338500977,0.22999127209186554,0.19314664602279663,0.11957594007253647,-0.05534268170595169,0.07907959818840027,-0.07643201947212219,0.30387288331985474,0.25624629855155945,0.3561953902244568,0.2133551687002182,0.3375151455402374,0.1491691768169403,-0.1265837401151657,0.16541028022766113,-0.04302067309617996,0.43745511770248413,-0.1348099410533905,0.16255135834217072,0.294441282749176,0.2206452488899231],[-0.024201104417443275,-0.11316356807947159,-0.4483155608177185,0.10624111443758011,0.5677083730697632,-0.27502086758613586,-0.0371563546359539,0.1915879100561142,-0.8751367926597595,0.0009130343678407371,-0.06977812200784683,-0.049098700284957886,-0.23595702648162842,0.3686961531639099,-0.3781890571117401,-0.22980470955371857,0.20596559345722198,-0.39907392859458923,-0.22372443974018097,0.08888734877109528,0.017665477469563484,-0.09023169428110123,0.25311383605003357,-0.5748205184936523,-0.41832035779953003,-0.21218422055244446,-0.11962403357028961,0.033410221338272095,-0.02971736341714859,0.4461250305175781,-0.14682461321353912,-0.5397516489028931,0.23134543001651764,0.12298078089952469,-0.2522555887699127,0.9442327618598938,0.07563904672861099,-0.18050707876682281,0.07478857040405273,-0.3715483546257019,-0.2589796781539917,0.2117476463317871,0.05022096633911133,0.23305341601371765,0.6428757309913635,0.025484170764684677,-0.23904535174369812,-0.07784453779459,-0.41828668117523193,0.11183112114667892,0.09395206719636917,-0.7773420810699463,0.6596285700798035,0.358900249004364],[-0.048062387853860855,0.2986811697483063,-0.21567602455615997,0.1370062381029129,-0.07599497586488724,-0.18601244688034058,-0.08074390888214111,-0.41167667508125305,0.43275049328804016,-0.12455517798662186,-0.09444861859083176,0.0790381208062172,-0.08062674105167389,0.14452140033245087,-0.042269740253686905,0.10407823324203491,-0.5861263275146484,0.4027111530303955,-0.06575366109609604,0.0286837387830019,0.1846858710050583,-0.21100889146327972,-0.18159180879592896,0.11182031035423279,0.022916195914149284,-0.5132571458816528,0.28271591663360596,0.21197694540023804,-0.34839287400245667,0.11217612028121948,-0.07212313264608383,0.07443506270647049,0.042429979890584946,0.02080077864229679,0.4114970862865448,-0.34317445755004883,0.141170471906662,-0.21290549635887146,-0.10106886923313141,0.3541192412376404,0.33467569947242737,-0.045173417776823044,0.27338194847106934,-0.30497094988822937,-0.10835563391447067,0.12498992681503296,-0.4816388189792633,0.021901052445173264,0.021149221807718277,-0.0755862295627594,-0.4088207483291626,0.28170570731163025,-0.4300614297389984,0.09762755036354065],[-0.02800649404525757,0.486928254365921,-0.2742651700973511,-0.06877578049898148,0.47319847345352173,-0.15841567516326904,0.08827546238899231,-0.2000957727432251,0.2830931544303894,-0.18060819804668427,-0.07871813327074051,0.08814004808664322,-0.173343688249588,0.15846037864685059,0.09703333675861359,0.0741594210267067,-0.12159357219934464,0.38279974460601807,-0.06497166305780411,0.2940269410610199,0.1647977977991104,-0.1307448446750641,0.2561090290546417,0.004881038796156645,0.2236870974302292,0.06962020695209503,0.3619353473186493,0.13094034790992737,-0.43581438064575195,0.16353236138820648,0.14431485533714294,-0.5061566829681396,0.052747536450624466,-0.0644080638885498,0.10595379024744034,-0.2329714447259903,-0.06624796986579895,-0.169033020734787,0.2822243273258209,0.07771524041891098,0.22206661105155945,0.07134702801704407,